the he thu: 1:
Ca the 0 
Position: (-10.30, -0.27)
fitness: 11534.495111961392
W: 
[[ 2.71398609e-01,  1.37653348e+00,  3.31474218e-01,  4.43143882e-02,
  -9.42807546e-01,  1.10998974e-01,  4.76385633e-01,  2.47735814e-01,
  -5.03943141e-01, -1.12563728e+00,  1.14557162e+00, -1.51518285e-01,
   2.42060253e-01,  8.74616952e-01, -1.64106749e+00,  4.73560923e-01],
 [-2.14380042e-02, -2.61398789e-02,  1.47026487e+00, -8.52398532e-01,
   8.35825016e-01, -9.56236028e-01,  5.14611730e-01, -4.70909076e-01,
  -2.23422899e-01,  9.72649773e-01, -7.60680690e-01, -4.50195112e-01,
  -3.07697113e-01, -6.55690220e-01,  1.45231804e+00,  2.58122243e+00],
 [ 4.58786490e-01,  1.99448709e-01, -1.40500934e+00, -1.01061307e+00,
  -4.72193657e-01, -1.93757847e+00,  3.27538907e-01, -4.08484277e-01,
   6.56856890e-01,  1.51323846e+00, -6.34733535e-01,  5.88650497e-01,
  -3.40992435e-01,  8.46745407e-01, -3.27733054e-01,  6.03134655e-01],
 [ 4.28767681e-01, -6.36809760e-01, -7.00330771e-01, -8.52513920e-02,
   1.32187454e+00,  2.40723919e-01, -2.22211524e-01, -1.38308005e-01,
  -1.04208539e+00,  2.37592854e+00,  4.34292883e-01, -3.62668844e-01,
  -6.84270250e-02, -3.04208623e+00,  1.60000000e+00,  5.63581612e-02],
 [ 7.17123240e-01,  3.05155986e-01, -2.34862846e-01,  8.19161663e-01,
  -1.57365240e+00, -1.23521744e-01,  2.65192715e-02, -4.86082062e-01,
   3.38438226e-01, -3.79285301e-01,  1.10473039e+00, -1.91535101e+00,
  -9.52495955e-01, -8.70145173e-02,  1.24132487e+00,  3.60617118e-01],
 [-8.79491656e-01, -3.29556765e-01, -5.45983636e-01,  3.77153769e-01,
   4.18981520e-01,  7.40943556e-01, -1.28084594e+00,  9.79214365e-01,
  -2.02568327e+00,  7.78897401e-02,  1.60803148e-01, -8.21552131e-01,
   2.24259418e-02, -4.73618935e-01, -3.40888396e-01,  1.06334515e+00],
 [ 1.23641905e+00,  8.57151345e-01,  4.44366609e-01,  5.98517283e-01,
   3.01135494e-01, -6.23193807e-01, -7.65610612e-01, -7.80332920e-02,
  -2.70277076e-01,  2.17572699e+00,  6.18024425e-01,  2.01589563e+00,
  -1.54988358e-01, -2.44457552e-01, -3.28036559e-01, -5.86818030e-01],
 [ 2.20805530e+00, -1.12017358e+00, -1.70740939e+00,  1.21795237e+00,
  -5.34571772e-01,  9.52123698e-01, -3.77251030e-01, -2.82102170e-01,
   9.11442896e-03, -4.66481502e-01,  7.16673744e-01,  9.50990384e-01,
   6.29260111e-01, -6.58081528e-01, -9.17507836e-01, -4.43612916e-01],
 [-3.08729420e-01,  5.49160779e-01,  1.28670096e+00,  5.86373861e-01,
  -9.48969239e-01,  3.81124015e-01, -4.63542772e-01,  4.04565862e-01,
  -8.48925186e-01,  6.68373230e-01, -6.08350594e-01,  7.44188999e-01,
  -1.44732687e+00, -1.39284495e+00, -1.13664600e+00,  4.50128981e-01],
 [-7.65190901e-01,  5.54239320e-02,  3.71762318e-01, -8.08808002e-02,
  -5.09024616e-01, -2.63486124e-01,  8.48963426e-01, -5.17966078e-01,
   1.55051689e+00,  6.47618879e-01, -1.44150486e+00,  5.60265349e-01,
   6.56493964e-01, -1.36395972e-01,  6.98663752e-01, -1.94626356e+00],
 [-2.36707099e+00,  3.43847551e-01, -8.74857059e-01,  3.27112613e-01,
   8.04722968e-01,  4.59880028e-01, -2.63405419e+00,  4.39065818e-02,
  -9.45108088e-01, -4.75370931e-01, -7.35411775e-01, -4.46507923e-01,
  -2.61860150e-01, -1.57538978e+00, -9.64393568e-01,  1.85349729e-01],
 [ 9.30140908e-01, -7.77931101e-01, -4.66778841e-01,  7.26412834e-01,
  -4.48374648e-01, -1.03291774e+00,  1.27611473e+00, -1.02311038e-01,
   1.01121108e-01,  8.50003898e-01,  1.47001926e-01,  5.20345545e-01,
   6.61292260e-01,  1.89249010e+00, -7.03744905e-01,  8.38061248e-01],
 [ 7.82080678e-01,  6.67895355e-01,  3.51332473e-01, -1.48594167e+00,
  -6.94941885e-01,  1.35528588e+00, -3.64765527e-01,  1.99123347e-01,
  -2.36268518e-02,  4.46337082e-01, -8.74283492e-01, -3.44384676e-01,
   1.28722721e-01,  6.30092624e-01,  2.19372462e-01, -6.91206715e-01],
 [-1.56536218e-01,  3.87763507e-01, -6.53082923e-02, -1.63322482e+00,
   4.34175758e-02, -1.41626827e+00,  3.78574312e-01, -1.47603494e-01,
  -2.81962687e-01, -2.44773920e-02, -3.64102384e-01,  3.05361610e-02,
   1.32982610e+00, -6.05251880e-01,  7.92743105e-01,  1.24000000e+01],
 [ 1.52257692e+00,  5.31409255e-01, -8.35345867e-01, -4.29336968e-01,
   9.10217182e-01, -2.91217398e-01,  9.14559147e-01, -5.75063658e-01,
   1.15331740e-01,  4.14816180e-02,  1.57398635e+00,  5.08323792e-01,
  -1.46942339e-01, -1.19240059e-01, -2.37677828e-01, -2.00000000e+00],
 [-4.03915858e-01,  1.12045260e-01,  5.46334270e-01, -3.78162443e-01,
   8.80000000e+00,  3.57901271e-01, -1.95634705e+00,  1.15690471e+00,
   1.00393692e+00,  1.82478751e+00,  9.01705286e-01, -5.05794742e-01,
  -3.99474088e-01, -1.26449690e-01,  2.45747836e-01,  8.56149417e-02]]
W1: 
[[-6.75575575e-01, -1.01465947e+00,  5.42195453e-01,  6.70978082e-01,
   2.84937922e-01, -1.73471523e+00,  5.12455380e-01,  1.96650531e+00,
   1.07994160e-02,  9.32190817e-01, -2.76787878e-01,  1.36709008e+00,
   4.27258634e-01, -1.06842638e+00,  2.20952672e-01, -4.32130954e-01],
 [ 8.34139387e-01,  1.34668005e+00, -9.08346426e-01, -7.73764634e-02,
  -1.69563514e+00,  1.65167352e-01,  5.28170953e-01, -1.37854028e+00,
   8.98816380e-01, -9.70932845e-01,  7.92782304e-01, -2.56656430e-02,
  -2.14825112e+00,  5.59153432e-01, -7.72318171e-01, -1.94073205e+00],
 [-5.56274953e-01,  1.00207597e+00,  7.61318895e-01, -7.92593185e-01,
   5.58908374e-01,  1.56145419e+00,  1.76032559e+00,  1.16556211e+00,
  -5.02188091e-01, -5.45423593e-01,  4.60687130e-01,  1.77481688e-03,
   1.76613178e+00, -2.14683755e+00,  3.71758780e-01,  2.41344549e+00],
 [-8.24691107e-01, -9.27092631e-01,  2.77998063e-01, -9.71283475e-01,
   2.00227780e+00, -4.22440399e-01, -3.65210575e-01, -4.54252655e-02,
   2.53118901e-01, -2.24498638e-01,  4.56933147e-01,  1.31798841e+00,
  -1.19994941e+00,  7.79052417e-01,  1.47261884e-01,  1.49180822e+00],
 [-1.35406811e+00,  1.15697957e+00, -8.03583645e-01,  3.73509139e-01,
   2.48403891e-01,  4.25095673e-01,  2.09712580e+00,  5.70580585e-01,
   5.04560071e-01,  1.19209949e-01,  1.74272264e-01, -8.00705587e-01,
  -1.24005009e+00, -1.47009546e-01, -2.05090307e-01,  1.71379413e-01],
 [-1.44292283e+00,  1.51217932e-03,  1.56313755e+00, -7.64749745e-01,
   6.09997519e-02, -4.17470964e-01,  6.69388375e-01,  2.82416445e-01,
   2.05946975e+00, -2.05773373e-01, -2.49748909e-01, -1.77634280e+00,
  -3.85472129e-01,  6.10569526e-01, -1.54073710e+00,  5.33618371e-01],
 [-1.52415473e-01, -3.24506451e-01, -1.29250815e-01,  5.30185952e-01,
   5.29471255e-01, -1.31601427e+00, -6.99255328e-01, -3.35490476e-01,
   3.64331020e-01,  2.76567867e-01,  4.21035817e-01, -1.95010058e+00,
   1.69791386e+00, -4.92848058e-01, -6.86872950e-01,  4.00062756e-01],
 [-1.43109988e+00,  1.04556879e+00, -2.21246582e-01,  5.75503252e-01,
   1.76766395e-01, -7.53363064e-01,  4.34547802e-01, -1.03989061e+00,
  -8.34491164e-01, -1.72088019e-01, -1.47321876e-01, -9.36370801e-01,
  -1.21122972e+00, -6.43700060e-01, -4.85250429e-01,  9.73830325e-01],
 [-2.09226726e-01, -1.72906219e+00,  5.44948473e-01, -9.73487950e-02,
  -7.13868562e-01,  2.52691575e+00, -2.28210608e-01,  7.60031466e-01,
   1.91338159e-01, -2.05021278e+00,  2.24533996e-01, -2.61447416e-01,
  -8.69299510e-01,  1.95284370e+00,  7.13707654e-01,  9.96781913e-01],
 [ 5.79916564e-01, -9.52742001e-01, -1.89707757e+00, -2.12831492e+00,
  -6.32722416e-01, -5.31717543e-01,  1.67542636e-02,  4.10303256e-01,
   2.18974274e+00, -7.78647007e-01, -9.84426002e-01, -1.01593584e+00,
  -1.12180363e+00,  1.35544319e+00,  7.77772053e-01,  8.33464389e-01],
 [-1.06706048e-01, -3.09501358e-01,  1.14100740e+00,  9.53403521e-02,
  -2.03096461e-01,  6.06828530e-01, -3.20883127e-01,  1.01251838e+00,
   2.30409724e-01,  1.58023942e+00,  1.85594395e-01,  4.62400786e-01,
  -3.52711661e-01,  1.87721393e+00, -8.95043689e-01,  1.75204316e+00],
 [-1.02567656e+00, -6.29699140e-01, -8.72987902e-01, -1.36533267e-01,
  -9.79934455e-02,  1.40157810e+00, -3.57419107e-01, -1.82255752e-01,
  -7.97803724e-01, -3.02131178e-01, -1.72605260e+00, -4.58595625e-01,
   6.29254257e-01,  2.73154932e-01, -8.43571521e-01,  5.69833317e-01],
 [-3.02628903e-01,  1.61669592e+00,  4.95811032e-01, -1.40454234e-01,
   1.33220833e+00, -1.66304419e+00,  4.70090016e-01, -2.22438677e+00,
  -1.82163079e+00,  1.08220796e+00,  1.01772714e+00,  6.80816326e-01,
  -7.48990743e-01,  1.01794911e+00,  1.17157548e-01, -2.35756811e-01],
 [ 7.58253246e-01, -1.18312398e-01,  2.49458868e-01,  5.50667364e-01,
   7.82382766e-01,  1.49889706e+00,  1.42369039e+00,  6.18631877e-02,
  -1.53810520e+00,  6.24990024e-01, -1.79053395e-01,  5.63411376e-01,
  -1.36824818e+00, -6.97961630e-01,  1.66769665e+00,  1.54350405e+00],
 [-1.75781570e+00,  3.49042982e-01, -5.01114727e-01, -9.51299924e-01,
   6.40285640e-01, -4.97210828e-01, -9.93286071e-01, -1.51880233e+00,
   1.12384248e-01,  2.29702587e+00,  5.54254233e-01,  6.35368225e-01,
   5.96788406e-01,  1.26678077e-02, -7.93694918e-01,  6.35184563e-01],
 [ 9.47381976e-02,  7.95639009e-01,  9.73102915e-01,  5.97400729e-01,
   2.13073169e+00,  1.40992789e+00, -5.87206507e-01, -1.67049012e+00,
  -6.32733029e-01, -1.21415711e+00,  4.76296795e-01, -3.66104537e-02,
  -8.08253205e-02,  1.22870559e+00, -1.13388684e+00, -5.89975092e-01]]
V: 
[[-0.45865485, -0.31728589,  0.20842086, -0.9934846 ,  1.52582932,
   0.39522547,  0.64166548,  2.73684839, -0.00464135, -1.80195362,
  -0.79361431,  0.4623101 ,  0.48060659, -0.43197543,  0.3048732 ,
  -0.07772691],
 [-0.93023126, -0.90186263, -1.82661007, -0.22183716,  1.00753792,
   0.01834318, -0.36039141,  0.56519266,  1.24513719,  0.09457988,
  -1.16265291,  0.32976877, -0.23638793, -0.26158757,  1.73220409,
   0.6362406 ]]
Ca the 1 
Position: (-10.08, -1.68)
fitness: 13703.713575345308
W: 
[[ 2.71398609e-01,  1.37653348e+00,  3.31474218e-01,  4.43143882e-02,
  -9.42807546e-01,  1.10998974e-01,  4.76385633e-01,  2.47735814e-01,
  -5.03943141e-01, -1.12563728e+00,  1.14557162e+00, -1.51518285e-01,
   2.42060253e-01,  8.74616952e-01, -1.64106749e+00,  4.73560923e-01],
 [-2.14380042e-02, -2.61398789e-02,  1.47026487e+00, -8.52398532e-01,
   8.35825016e-01, -9.56236028e-01,  5.14611730e-01, -4.70909076e-01,
  -2.23422899e-01,  9.72649773e-01, -7.60680690e-01, -4.50195112e-01,
  -3.07697113e-01, -6.55690220e-01,  1.45231804e+00,  2.58122243e+00],
 [ 4.58786490e-01,  1.99448709e-01, -1.40500934e+00, -1.01061307e+00,
  -4.72193657e-01, -1.93757847e+00,  3.27538907e-01, -4.08484277e-01,
   6.56856890e-01,  1.51323846e+00, -6.34733535e-01,  5.88650497e-01,
  -3.40992435e-01,  8.46745407e-01, -3.27733054e-01,  6.03134655e-01],
 [ 4.28767681e-01, -6.36809760e-01, -7.00330771e-01, -8.52513920e-02,
   1.32187454e+00,  2.40723919e-01, -2.22211524e-01, -1.38308005e-01,
  -1.04208539e+00,  2.37592854e+00,  4.34292883e-01, -3.62668844e-01,
  -6.84270250e-02, -3.04208623e+00,  1.60000000e+00,  5.63581612e-02],
 [ 7.17123240e-01,  3.05155986e-01, -2.34862846e-01,  8.19161663e-01,
  -1.57365240e+00, -1.23521744e-01,  2.65192715e-02, -4.86082062e-01,
   3.38438226e-01, -3.79285301e-01,  1.10473039e+00, -1.91535101e+00,
  -9.52495955e-01, -8.70145173e-02,  1.24132487e+00,  3.60617118e-01],
 [-8.79491656e-01, -3.29556765e-01, -5.45983636e-01,  3.77153769e-01,
   4.18981520e-01,  7.40943556e-01, -1.28084594e+00,  9.79214365e-01,
  -2.02568327e+00,  7.78897401e-02,  1.60803148e-01, -8.21552131e-01,
   2.24259418e-02, -4.73618935e-01, -3.40888396e-01,  1.06334515e+00],
 [ 1.23641905e+00,  8.57151345e-01,  4.44366609e-01,  5.98517283e-01,
   3.01135494e-01, -6.23193807e-01, -7.65610612e-01, -7.80332920e-02,
  -2.70277076e-01,  2.17572699e+00,  6.18024425e-01,  2.01589563e+00,
  -1.54988358e-01, -2.44457552e-01, -3.28036559e-01, -5.86818030e-01],
 [ 2.20805530e+00, -1.12017358e+00, -1.70740939e+00,  1.21795237e+00,
  -5.34571772e-01,  9.52123698e-01, -3.77251030e-01, -2.82102170e-01,
   9.11442896e-03, -4.66481502e-01,  7.16673744e-01,  9.50990384e-01,
   6.29260111e-01, -6.58081528e-01, -9.17507836e-01, -4.43612916e-01],
 [-3.08729420e-01,  5.49160779e-01,  1.28670096e+00,  5.86373861e-01,
  -9.48969239e-01,  3.81124015e-01, -4.63542772e-01,  4.04565862e-01,
  -8.48925186e-01,  6.68373230e-01, -6.08350594e-01,  7.44188999e-01,
  -1.44732687e+00, -1.39284495e+00, -1.13664600e+00,  4.50128981e-01],
 [-7.65190901e-01,  5.54239320e-02,  3.71762318e-01, -8.08808002e-02,
  -5.09024616e-01, -2.63486124e-01,  8.48963426e-01, -5.17966078e-01,
   1.55051689e+00,  6.47618879e-01, -1.44150486e+00,  5.60265349e-01,
   6.56493964e-01, -1.36395972e-01,  6.98663752e-01, -1.94626356e+00],
 [-2.36707099e+00,  3.43847551e-01, -8.74857059e-01,  3.27112613e-01,
   8.04722968e-01,  4.59880028e-01, -2.63405419e+00,  4.39065818e-02,
  -9.45108088e-01, -4.75370931e-01, -7.35411775e-01, -4.46507923e-01,
  -2.61860150e-01, -1.57538978e+00, -9.64393568e-01,  1.85349729e-01],
 [ 9.30140908e-01, -7.77931101e-01, -4.66778841e-01,  7.26412834e-01,
  -2.00000000e+00, -1.03291774e+00,  1.27611473e+00, -1.02311038e-01,
   1.01121108e-01,  8.50003898e-01,  1.47001926e-01,  5.20345545e-01,
   6.61292260e-01,  1.89249010e+00, -7.03744905e-01,  8.38061248e-01],
 [ 7.82080678e-01,  6.67895355e-01,  3.51332473e-01, -1.48594167e+00,
  -6.94941885e-01,  1.35528588e+00, -3.64765527e-01,  1.99123347e-01,
  -2.36268518e-02,  4.46337082e-01, -8.74283492e-01, -3.44384676e-01,
   1.28722721e-01,  6.30092624e-01,  2.19372462e-01, -6.91206715e-01],
 [-1.56536218e-01,  3.87763507e-01, -6.53082923e-02, -1.63322482e+00,
   4.34175758e-02, -1.41626827e+00,  3.78574312e-01, -1.47603494e-01,
  -2.81962687e-01, -2.44773920e-02, -3.64102384e-01,  3.05361610e-02,
   1.32982610e+00, -6.05251880e-01,  7.92743105e-01,  1.24000000e+01],
 [ 1.52257692e+00,  5.31409255e-01, -8.35345867e-01, -4.29336968e-01,
   9.10217182e-01, -2.91217398e-01,  9.14559147e-01, -5.75063658e-01,
   1.15331740e-01,  4.14816180e-02,  1.57398635e+00,  5.08323792e-01,
  -1.46942339e-01, -1.19240059e-01, -2.37677828e-01, -2.00000000e+00],
 [-4.03915858e-01,  1.12045260e-01,  5.46334270e-01, -3.78162443e-01,
   8.80000000e+00,  3.57901271e-01, -1.95634705e+00,  1.15690471e+00,
   1.00393692e+00,  1.82478751e+00,  9.01705286e-01, -5.05794742e-01,
  -3.99474088e-01, -1.26449690e-01,  2.45747836e-01,  8.56149417e-02]]
W1: 
[[-6.75575575e-01, -1.01465947e+00,  5.42195453e-01,  6.70978082e-01,
   2.84937922e-01, -1.73471523e+00,  5.12455380e-01,  1.96650531e+00,
   1.07994160e-02,  9.32190817e-01, -2.76787878e-01,  1.36709008e+00,
   4.27258634e-01, -1.06842638e+00,  2.20952672e-01, -4.32130954e-01],
 [ 8.34139387e-01,  1.34668005e+00, -9.08346426e-01, -7.73764634e-02,
  -1.69563514e+00,  1.65167352e-01,  5.28170953e-01, -1.37854028e+00,
   8.98816380e-01, -9.70932845e-01,  7.92782304e-01, -2.56656430e-02,
  -2.14825112e+00,  5.59153432e-01, -7.72318171e-01, -1.94073205e+00],
 [-5.56274953e-01,  1.00207597e+00,  7.61318895e-01, -7.92593185e-01,
   5.58908374e-01,  1.56145419e+00,  1.76032559e+00,  1.16556211e+00,
  -5.02188091e-01, -5.45423593e-01,  4.60687130e-01,  1.77481688e-03,
   1.76613178e+00, -2.14683755e+00,  3.71758780e-01,  2.41344549e+00],
 [-8.24691107e-01, -9.27092631e-01,  2.77998063e-01, -9.71283475e-01,
   2.00227780e+00, -4.22440399e-01, -3.65210575e-01, -4.54252655e-02,
   2.53118901e-01, -2.24498638e-01,  4.56933147e-01,  1.31798841e+00,
  -1.19994941e+00,  7.79052417e-01,  1.47261884e-01,  1.49180822e+00],
 [-1.35406811e+00,  1.15697957e+00, -8.03583645e-01,  3.73509139e-01,
   2.48403891e-01,  4.25095673e-01,  2.09712580e+00,  5.70580585e-01,
   5.04560071e-01,  1.19209949e-01,  1.74272264e-01, -8.00705587e-01,
  -1.24005009e+00, -1.47009546e-01, -2.05090307e-01,  1.71379413e-01],
 [-1.44292283e+00,  1.51217932e-03,  1.56313755e+00, -7.64749745e-01,
   6.09997519e-02, -4.17470964e-01,  6.69388375e-01,  2.82416445e-01,
   2.05946975e+00, -2.05773373e-01, -2.49748909e-01, -1.77634280e+00,
  -3.85472129e-01,  6.10569526e-01, -1.54073710e+00,  5.33618371e-01],
 [-1.52415473e-01, -3.24506451e-01, -1.29250815e-01,  5.30185952e-01,
   5.29471255e-01, -1.31601427e+00, -6.99255328e-01, -3.35490476e-01,
   3.64331020e-01,  2.76567867e-01,  4.21035817e-01, -1.95010058e+00,
   1.69791386e+00, -4.92848058e-01, -6.86872950e-01,  4.00062756e-01],
 [-1.43109988e+00,  1.04556879e+00, -2.21246582e-01,  5.75503252e-01,
   1.76766395e-01, -7.53363064e-01,  4.34547802e-01, -1.03989061e+00,
  -8.34491164e-01, -1.72088019e-01, -1.47321876e-01, -9.36370801e-01,
  -1.21122972e+00, -6.43700060e-01, -4.85250429e-01,  9.73830325e-01],
 [-2.09226726e-01, -1.72906219e+00,  5.44948473e-01, -9.73487950e-02,
  -7.13868562e-01,  2.52691575e+00, -2.28210608e-01,  7.60031466e-01,
   1.91338159e-01, -2.05021278e+00,  2.24533996e-01, -2.61447416e-01,
  -8.69299510e-01,  1.95284370e+00,  7.13707654e-01,  9.96781913e-01],
 [ 5.79916564e-01, -9.52742001e-01, -1.89707757e+00, -2.12831492e+00,
  -6.32722416e-01, -5.31717543e-01,  1.67542636e-02,  4.10303256e-01,
   2.18974274e+00, -7.78647007e-01, -9.84426002e-01, -1.01593584e+00,
  -1.12180363e+00,  1.35544319e+00,  7.77772053e-01,  8.33464389e-01],
 [-1.06706048e-01, -3.09501358e-01,  1.14100740e+00,  9.53403521e-02,
  -2.03096461e-01,  6.06828530e-01, -3.20883127e-01,  1.01251838e+00,
   2.30409724e-01,  1.58023942e+00,  1.85594395e-01,  4.62400786e-01,
  -3.52711661e-01,  1.87721393e+00, -8.95043689e-01,  1.75204316e+00],
 [-1.02567656e+00, -6.29699140e-01, -8.72987902e-01, -1.36533267e-01,
  -9.79934455e-02,  1.40157810e+00, -3.57419107e-01, -1.82255752e-01,
  -7.97803724e-01, -3.02131178e-01, -1.72605260e+00, -4.58595625e-01,
   6.29254257e-01,  2.73154932e-01, -8.43571521e-01,  5.69833317e-01],
 [-3.02628903e-01,  1.61669592e+00,  4.95811032e-01, -1.40454234e-01,
   1.33220833e+00, -1.66304419e+00,  4.70090016e-01, -2.22438677e+00,
  -1.82163079e+00,  1.08220796e+00,  1.01772714e+00,  6.80816326e-01,
  -7.48990743e-01,  1.01794911e+00,  1.17157548e-01, -2.35756811e-01],
 [ 7.58253246e-01, -1.18312398e-01,  2.49458868e-01,  5.50667364e-01,
   7.82382766e-01,  1.49889706e+00,  1.42369039e+00,  6.18631877e-02,
  -1.53810520e+00,  6.24990024e-01, -1.79053395e-01,  5.63411376e-01,
  -1.36824818e+00, -6.97961630e-01,  1.66769665e+00,  1.54350405e+00],
 [-1.75781570e+00,  3.49042982e-01, -5.01114727e-01, -9.51299924e-01,
   6.40285640e-01, -4.97210828e-01, -9.93286071e-01, -1.51880233e+00,
   1.12384248e-01,  2.29702587e+00,  5.54254233e-01,  6.35368225e-01,
   5.96788406e-01,  1.26678077e-02, -7.93694918e-01,  6.35184563e-01],
 [ 9.47381976e-02,  7.95639009e-01,  9.73102915e-01,  5.97400729e-01,
   2.13073169e+00,  1.40992789e+00, -5.87206507e-01, -1.67049012e+00,
  -6.32733029e-01, -1.21415711e+00,  4.76296795e-01, -3.66104537e-02,
  -8.08253205e-02,  1.22870559e+00, -1.13388684e+00, -5.89975092e-01]]
V: 
[[-4.58654852e-01, -3.17285890e-01,  2.08420862e-01, -9.93484600e-01,
   1.52582932e+00,  3.95225472e-01,  6.41665478e-01,  2.73684839e+00,
  -4.64134763e-03, -1.80195362e+00, -7.93614310e-01,  4.62310100e-01,
   4.80606595e-01, -4.31975426e-01,  3.04873204e-01, -7.77269096e-02],
 [-9.30231263e-01, -9.01862629e-01, -1.82661007e+00, -2.21837158e-01,
   1.00753792e+00,  1.83431844e-02, -3.60391411e-01,  5.65192656e-01,
   1.24513719e+00,  9.45798818e-02, -1.16265291e+00,  3.29768775e-01,
  -2.36387930e-01, -2.61587567e-01,  1.24000000e+01,  6.36240597e-01]]
Ca the 2 
Position: (-10.22, -5.22)
fitness: 7287.724466175445
W: 
[[ 2.71398609e-01,  1.37653348e+00,  3.31474218e-01,  4.43143882e-02,
  -9.42807546e-01,  1.10998974e-01,  4.76385633e-01,  2.47735814e-01,
  -5.03943141e-01, -1.12563728e+00,  1.14557162e+00, -1.51518285e-01,
   2.42060253e-01,  8.74616952e-01, -1.64106749e+00,  4.73560923e-01],
 [-2.14380042e-02, -2.61398789e-02,  1.47026487e+00, -8.52398532e-01,
   8.35825016e-01, -9.56236028e-01,  5.14611730e-01, -4.70909076e-01,
  -2.23422899e-01,  9.72649773e-01, -7.60680690e-01, -4.50195112e-01,
  -3.07697113e-01, -6.55690220e-01,  1.45231804e+00,  2.58122243e+00],
 [ 4.58786490e-01,  1.99448709e-01, -1.40500934e+00, -1.01061307e+00,
  -4.72193657e-01, -1.93757847e+00,  3.27538907e-01, -4.08484277e-01,
   6.56856890e-01,  1.51323846e+00, -6.34733535e-01,  5.88650497e-01,
  -3.40992435e-01,  8.46745407e-01, -3.27733054e-01,  6.03134655e-01],
 [ 4.28767681e-01, -6.36809760e-01, -7.00330771e-01, -8.52513920e-02,
   1.32187454e+00,  2.40723919e-01, -2.22211524e-01, -1.38308005e-01,
  -1.04208539e+00,  2.37592854e+00,  4.34292883e-01, -3.62668844e-01,
  -6.84270250e-02, -3.04208623e+00,  1.60000000e+00,  5.63581612e-02],
 [ 7.17123240e-01,  3.05155986e-01, -2.34862846e-01,  8.19161663e-01,
  -1.57365240e+00, -1.23521744e-01,  2.65192715e-02, -4.86082062e-01,
   3.38438226e-01, -3.79285301e-01,  1.10473039e+00, -1.91535101e+00,
  -9.52495955e-01, -8.70145173e-02,  1.24132487e+00,  3.60617118e-01],
 [-8.79491656e-01, -3.29556765e-01, -5.45983636e-01,  3.77153769e-01,
   4.18981520e-01,  7.40943556e-01, -1.28084594e+00,  9.79214365e-01,
  -2.02568327e+00,  7.78897401e-02,  1.60803148e-01, -8.21552131e-01,
   2.24259418e-02, -4.73618935e-01, -3.40888396e-01,  1.06334515e+00],
 [ 1.23641905e+00,  8.57151345e-01,  4.44366609e-01,  5.98517283e-01,
   3.01135494e-01, -6.23193807e-01, -7.65610612e-01, -7.80332920e-02,
  -2.70277076e-01,  2.17572699e+00,  6.18024425e-01,  2.01589563e+00,
  -1.54988358e-01, -2.44457552e-01, -3.28036559e-01, -5.86818030e-01],
 [ 2.20805530e+00, -1.12017358e+00, -1.70740939e+00,  1.21795237e+00,
  -5.34571772e-01,  9.52123698e-01, -3.77251030e-01, -2.82102170e-01,
   9.11442896e-03, -4.66481502e-01,  7.16673744e-01,  9.50990384e-01,
   6.29260111e-01, -6.58081528e-01, -9.17507836e-01, -4.43612916e-01],
 [-3.08729420e-01,  5.49160779e-01,  1.28670096e+00,  5.86373861e-01,
  -9.48969239e-01,  3.81124015e-01, -4.63542772e-01,  4.04565862e-01,
  -8.48925186e-01,  6.68373230e-01, -6.08350594e-01,  7.44188999e-01,
  -1.44732687e+00, -1.39284495e+00, -1.13664600e+00,  4.50128981e-01],
 [-7.65190901e-01,  5.54239320e-02,  3.71762318e-01, -8.08808002e-02,
  -5.09024616e-01, -2.63486124e-01,  8.48963426e-01, -5.17966078e-01,
   1.55051689e+00,  6.47618879e-01, -1.44150486e+00,  5.60265349e-01,
   6.56493964e-01,  5.20000000e+00,  6.98663752e-01, -1.94626356e+00],
 [-2.36707099e+00,  3.43847551e-01, -8.74857059e-01,  3.27112613e-01,
   8.04722968e-01,  4.59880028e-01, -2.63405419e+00,  4.39065818e-02,
  -9.45108088e-01, -4.75370931e-01, -7.35411775e-01, -4.46507923e-01,
  -2.61860150e-01, -1.57538978e+00, -9.64393568e-01,  1.85349729e-01],
 [ 9.30140908e-01, -7.77931101e-01, -4.66778841e-01,  7.26412834e-01,
  -4.48374648e-01, -1.03291774e+00,  1.27611473e+00, -1.02311038e-01,
   1.01121108e-01,  8.50003898e-01,  1.47001926e-01,  5.20345545e-01,
   6.61292260e-01,  1.89249010e+00, -7.03744905e-01,  8.38061248e-01],
 [ 7.82080678e-01,  6.67895355e-01,  3.51332473e-01, -1.48594167e+00,
  -6.94941885e-01,  1.35528588e+00, -3.64765527e-01,  1.99123347e-01,
  -2.36268518e-02,  4.46337082e-01, -8.74283492e-01, -3.44384676e-01,
   1.28722721e-01,  6.30092624e-01,  2.19372462e-01, -6.91206715e-01],
 [-1.56536218e-01,  3.87763507e-01, -6.53082923e-02, -1.63322482e+00,
   4.34175758e-02, -1.41626827e+00,  3.78574312e-01, -1.47603494e-01,
  -2.81962687e-01, -2.44773920e-02, -3.64102384e-01,  3.05361610e-02,
   1.32982610e+00, -6.05251880e-01,  7.92743105e-01,  1.24000000e+01],
 [ 1.52257692e+00,  5.31409255e-01, -8.35345867e-01, -4.29336968e-01,
   9.10217182e-01, -2.91217398e-01,  9.14559147e-01, -5.75063658e-01,
   1.15331740e-01,  4.14816180e-02,  1.57398635e+00,  5.08323792e-01,
  -1.46942339e-01, -1.19240059e-01, -2.37677828e-01, -2.00000000e+00],
 [-4.03915858e-01,  1.12045260e-01,  5.46334270e-01, -3.78162443e-01,
   8.80000000e+00,  3.57901271e-01, -1.95634705e+00,  1.15690471e+00,
   1.00393692e+00,  1.82478751e+00,  9.01705286e-01, -5.05794742e-01,
  -3.99474088e-01, -1.26449690e-01,  2.45747836e-01,  8.56149417e-02]]
W1: 
[[-6.75575575e-01, -1.01465947e+00,  5.42195453e-01,  6.70978082e-01,
   2.84937922e-01, -1.73471523e+00,  5.12455380e-01,  1.96650531e+00,
   1.07994160e-02,  9.32190817e-01, -2.76787878e-01,  1.36709008e+00,
   4.27258634e-01, -1.06842638e+00,  2.20952672e-01, -4.32130954e-01],
 [ 8.34139387e-01,  1.34668005e+00, -9.08346426e-01, -7.73764634e-02,
  -1.69563514e+00,  1.65167352e-01,  5.28170953e-01, -1.37854028e+00,
   8.98816380e-01, -9.70932845e-01,  7.92782304e-01, -2.56656430e-02,
  -2.14825112e+00,  5.59153432e-01, -7.72318171e-01, -1.94073205e+00],
 [-5.56274953e-01,  1.00207597e+00,  7.61318895e-01, -7.92593185e-01,
   5.58908374e-01,  1.56145419e+00,  1.76032559e+00,  1.16556211e+00,
  -5.02188091e-01, -5.45423593e-01,  4.60687130e-01,  1.77481688e-03,
   1.76613178e+00, -2.14683755e+00,  3.71758780e-01,  2.41344549e+00],
 [-8.24691107e-01, -9.27092631e-01,  2.77998063e-01, -9.71283475e-01,
   2.00227780e+00, -4.22440399e-01, -3.65210575e-01, -4.54252655e-02,
   2.53118901e-01, -2.24498638e-01,  4.56933147e-01,  1.31798841e+00,
  -1.19994941e+00,  7.79052417e-01,  1.47261884e-01,  1.49180822e+00],
 [-1.35406811e+00,  1.15697957e+00, -8.03583645e-01,  3.73509139e-01,
   2.48403891e-01,  4.25095673e-01,  2.09712580e+00,  5.70580585e-01,
   5.04560071e-01,  1.19209949e-01,  1.74272264e-01, -8.00705587e-01,
  -1.24005009e+00, -1.47009546e-01, -2.05090307e-01,  1.71379413e-01],
 [-1.44292283e+00,  1.51217932e-03,  1.56313755e+00, -7.64749745e-01,
   6.09997519e-02, -4.17470964e-01,  6.69388375e-01,  2.82416445e-01,
   2.05946975e+00, -2.05773373e-01, -2.49748909e-01, -1.77634280e+00,
  -3.85472129e-01,  6.10569526e-01, -1.54073710e+00,  5.33618371e-01],
 [-1.52415473e-01, -3.24506451e-01, -1.29250815e-01,  5.30185952e-01,
   5.29471255e-01, -1.31601427e+00, -6.99255328e-01, -3.35490476e-01,
   3.64331020e-01,  2.76567867e-01,  4.21035817e-01, -1.95010058e+00,
   1.69791386e+00, -4.92848058e-01, -6.86872950e-01,  4.00062756e-01],
 [-1.43109988e+00,  1.04556879e+00, -2.21246582e-01,  5.75503252e-01,
   1.76766395e-01, -7.53363064e-01,  4.34547802e-01, -1.03989061e+00,
  -8.34491164e-01, -1.72088019e-01, -1.47321876e-01, -9.36370801e-01,
  -1.21122972e+00, -6.43700060e-01, -4.85250429e-01,  9.73830325e-01],
 [-2.09226726e-01, -1.72906219e+00,  5.44948473e-01, -9.73487950e-02,
  -7.13868562e-01,  2.52691575e+00, -2.28210608e-01,  7.60031466e-01,
   1.91338159e-01, -2.05021278e+00,  2.24533996e-01, -2.61447416e-01,
  -8.69299510e-01,  1.95284370e+00,  7.13707654e-01,  9.96781913e-01],
 [ 5.79916564e-01, -9.52742001e-01, -1.89707757e+00, -2.12831492e+00,
  -6.32722416e-01, -5.31717543e-01,  1.67542636e-02,  4.10303256e-01,
   2.18974274e+00, -7.78647007e-01, -9.84426002e-01, -1.01593584e+00,
  -1.12180363e+00,  1.35544319e+00,  7.77772053e-01,  8.33464389e-01],
 [-1.06706048e-01, -3.09501358e-01,  1.14100740e+00,  9.53403521e-02,
  -2.03096461e-01,  6.06828530e-01, -3.20883127e-01,  1.01251838e+00,
   2.30409724e-01,  1.58023942e+00,  1.85594395e-01,  4.62400786e-01,
  -3.52711661e-01,  1.87721393e+00, -8.95043689e-01,  1.75204316e+00],
 [-1.02567656e+00, -6.29699140e-01, -8.72987902e-01, -1.36533267e-01,
  -9.79934455e-02,  1.40157810e+00, -3.57419107e-01, -1.82255752e-01,
  -7.97803724e-01, -3.02131178e-01, -1.72605260e+00, -4.58595625e-01,
   6.29254257e-01,  2.73154932e-01, -8.43571521e-01,  5.69833317e-01],
 [-3.02628903e-01,  1.61669592e+00,  4.95811032e-01, -1.40454234e-01,
   1.33220833e+00, -1.66304419e+00,  4.70090016e-01, -2.22438677e+00,
  -1.82163079e+00,  1.08220796e+00,  1.01772714e+00,  6.80816326e-01,
  -7.48990743e-01,  1.01794911e+00,  1.17157548e-01, -2.35756811e-01],
 [ 7.58253246e-01, -1.18312398e-01,  2.49458868e-01,  5.50667364e-01,
   7.82382766e-01,  1.49889706e+00,  1.42369039e+00,  6.18631877e-02,
  -1.53810520e+00,  6.24990024e-01, -1.79053395e-01,  5.63411376e-01,
  -1.36824818e+00, -6.97961630e-01,  1.66769665e+00,  1.54350405e+00],
 [-1.75781570e+00,  3.49042982e-01, -5.01114727e-01, -9.51299924e-01,
   6.40285640e-01, -4.97210828e-01, -9.93286071e-01, -1.51880233e+00,
   1.12384248e-01,  2.29702587e+00,  5.54254233e-01,  6.35368225e-01,
   5.96788406e-01,  1.26678077e-02, -7.93694918e-01,  6.35184563e-01],
 [ 9.47381976e-02,  7.95639009e-01,  9.73102915e-01,  5.97400729e-01,
   2.13073169e+00,  1.40992789e+00, -5.87206507e-01, -1.67049012e+00,
  -6.32733029e-01, -1.21415711e+00,  4.76296795e-01, -3.66104537e-02,
  -8.08253205e-02,  1.22870559e+00, -1.13388684e+00, -5.89975092e-01]]
V: 
[[-0.45865485, -0.31728589,  0.20842086, -0.9934846 ,  1.52582932,
   0.39522547,  0.64166548,  2.73684839, -0.00464135, -1.80195362,
  -0.79361431,  0.4623101 ,  0.48060659, -0.43197543,  0.3048732 ,
  -0.07772691],
 [-0.93023126, -0.90186263, -1.82661007, -0.22183716,  1.00753792,
   0.01834318, -0.36039141,  0.56519266,  1.24513719,  0.09457988,
  -1.16265291,  0.32976877, -0.23638793, -0.26158757,  1.73220409,
   0.6362406 ]]
Ca the 3 
Position: (-11.69, -3.51)
fitness: 9183.024849711412
W: 
[[ 2.71398609e-01,  1.37653348e+00,  3.31474218e-01,  4.43143882e-02,
  -9.42807546e-01,  1.10998974e-01,  4.76385633e-01,  2.47735814e-01,
  -5.03943141e-01, -1.12563728e+00,  1.14557162e+00, -1.51518285e-01,
   2.42060253e-01,  8.74616952e-01, -1.64106749e+00,  4.73560923e-01],
 [-2.14380042e-02, -2.61398789e-02,  1.47026487e+00, -8.52398532e-01,
   8.35825016e-01, -9.56236028e-01,  5.14611730e-01, -4.70909076e-01,
  -2.23422899e-01,  9.72649773e-01, -7.60680690e-01, -4.50195112e-01,
  -3.07697113e-01, -6.55690220e-01,  1.45231804e+00,  2.58122243e+00],
 [ 4.58786490e-01,  1.99448709e-01, -1.40500934e+00, -1.01061307e+00,
  -4.72193657e-01, -1.93757847e+00,  3.27538907e-01, -4.08484277e-01,
   6.56856890e-01,  1.51323846e+00, -6.34733535e-01,  5.88650497e-01,
  -3.40992435e-01,  8.46745407e-01, -3.27733054e-01,  6.03134655e-01],
 [ 4.28767681e-01, -6.36809760e-01, -7.00330771e-01, -8.52513920e-02,
   1.32187454e+00,  2.40723919e-01, -2.22211524e-01, -1.38308005e-01,
  -1.04208539e+00,  2.37592854e+00,  4.34292883e-01, -3.62668844e-01,
  -6.84270250e-02, -3.04208623e+00,  1.60000000e+00,  5.63581612e-02],
 [ 7.17123240e-01,  3.05155986e-01, -2.34862846e-01,  8.19161663e-01,
  -1.57365240e+00, -1.23521744e-01,  2.65192715e-02, -4.86082062e-01,
   3.38438226e-01, -3.79285301e-01,  1.10473039e+00, -1.91535101e+00,
  -9.52495955e-01, -8.70145173e-02,  1.24132487e+00,  3.60617118e-01],
 [-8.79491656e-01, -3.29556765e-01, -5.45983636e-01,  3.77153769e-01,
   4.18981520e-01,  7.40943556e-01, -1.28084594e+00,  9.79214365e-01,
  -2.02568327e+00,  7.78897401e-02,  1.60803148e-01, -8.21552131e-01,
   2.24259418e-02, -4.73618935e-01, -3.40888396e-01,  1.06334515e+00],
 [ 1.23641905e+00,  8.57151345e-01,  4.44366609e-01,  5.98517283e-01,
   3.01135494e-01, -6.23193807e-01, -7.65610612e-01, -7.80332920e-02,
  -2.70277076e-01,  2.17572699e+00,  6.18024425e-01,  2.01589563e+00,
  -1.54988358e-01, -2.44457552e-01, -3.28036559e-01, -5.86818030e-01],
 [ 2.20805530e+00, -1.12017358e+00, -1.70740939e+00,  1.21795237e+00,
  -5.34571772e-01,  9.52123698e-01, -3.77251030e-01, -2.82102170e-01,
   9.11442896e-03, -4.66481502e-01,  7.16673744e-01,  9.50990384e-01,
   6.29260111e-01, -6.58081528e-01, -9.17507836e-01, -4.43612916e-01],
 [-3.08729420e-01,  5.49160779e-01,  1.28670096e+00,  5.86373861e-01,
  -9.48969239e-01,  3.81124015e-01, -4.63542772e-01,  4.04565862e-01,
  -8.48925186e-01,  6.68373230e-01, -6.08350594e-01,  7.44188999e-01,
  -1.44732687e+00, -1.39284495e+00, -1.13664600e+00,  4.50128981e-01],
 [-7.65190901e-01,  5.54239320e-02,  3.71762318e-01, -8.08808002e-02,
  -5.09024616e-01, -2.63486124e-01,  8.48963426e-01, -5.17966078e-01,
   1.55051689e+00,  6.47618879e-01, -1.44150486e+00,  5.60265349e-01,
   6.56493964e-01, -1.36395972e-01,  6.98663752e-01, -1.94626356e+00],
 [-2.36707099e+00,  3.43847551e-01, -8.74857059e-01,  3.27112613e-01,
   8.04722968e-01,  4.59880028e-01, -2.63405419e+00,  4.39065818e-02,
  -9.45108088e-01, -4.75370931e-01, -7.35411775e-01, -4.46507923e-01,
  -2.61860150e-01, -1.57538978e+00, -9.64393568e-01,  1.85349729e-01],
 [ 9.30140908e-01, -7.77931101e-01, -4.66778841e-01,  7.26412834e-01,
  -4.48374648e-01, -1.03291774e+00,  1.27611473e+00, -1.02311038e-01,
   1.01121108e-01,  8.50003898e-01,  1.47001926e-01,  5.20345545e-01,
   6.61292260e-01,  1.89249010e+00, -7.03744905e-01,  8.38061248e-01],
 [ 7.82080678e-01,  6.67895355e-01,  3.51332473e-01, -1.48594167e+00,
  -6.94941885e-01,  1.35528588e+00, -3.64765527e-01,  1.99123347e-01,
  -2.36268518e-02,  4.46337082e-01, -8.74283492e-01, -3.44384676e-01,
   1.28722721e-01,  6.30092624e-01,  2.19372462e-01, -6.91206715e-01],
 [-1.56536218e-01,  3.87763507e-01, -6.53082923e-02, -1.63322482e+00,
   4.34175758e-02, -1.41626827e+00,  3.78574312e-01, -1.47603494e-01,
  -2.81962687e-01, -2.44773920e-02, -3.64102384e-01,  3.05361610e-02,
   1.32982610e+00, -6.05251880e-01,  7.92743105e-01,  1.24000000e+01],
 [ 1.52257692e+00,  5.31409255e-01, -8.35345867e-01, -4.29336968e-01,
   9.10217182e-01, -2.91217398e-01,  9.14559147e-01, -5.75063658e-01,
   1.15331740e-01,  4.14816180e-02,  1.57398635e+00,  5.08323792e-01,
  -1.46942339e-01, -1.19240059e-01, -2.37677828e-01, -2.00000000e+00],
 [-4.03915858e-01,  1.12045260e-01,  5.46334270e-01, -3.78162443e-01,
   8.80000000e+00,  3.57901271e-01, -1.95634705e+00,  1.15690471e+00,
   1.00393692e+00,  1.82478751e+00,  9.01705286e-01, -5.05794742e-01,
  -3.99474088e-01, -1.26449690e-01,  2.45747836e-01,  8.56149417e-02]]
W1: 
[[-6.75575575e-01, -1.01465947e+00,  5.42195453e-01,  6.70978082e-01,
   2.84937922e-01, -1.73471523e+00,  5.12455380e-01,  1.96650531e+00,
   1.07994160e-02,  9.32190817e-01, -2.76787878e-01,  1.36709008e+00,
   4.27258634e-01, -1.06842638e+00,  2.20952672e-01, -4.32130954e-01],
 [ 8.34139387e-01,  1.34668005e+00, -9.08346426e-01, -7.73764634e-02,
  -1.69563514e+00,  1.65167352e-01,  5.28170953e-01, -1.37854028e+00,
   8.98816380e-01, -9.70932845e-01,  7.92782304e-01, -2.56656430e-02,
  -2.14825112e+00,  5.59153432e-01, -7.72318171e-01, -1.94073205e+00],
 [-5.56274953e-01,  1.00207597e+00,  7.61318895e-01, -7.92593185e-01,
   5.58908374e-01,  1.56145419e+00,  1.76032559e+00,  1.16556211e+00,
  -5.02188091e-01, -5.45423593e-01,  4.60687130e-01,  1.77481688e-03,
   1.76613178e+00, -2.14683755e+00,  3.71758780e-01,  2.41344549e+00],
 [-8.24691107e-01, -9.27092631e-01,  2.77998063e-01, -9.71283475e-01,
   2.00227780e+00, -4.22440399e-01, -3.65210575e-01, -4.54252655e-02,
   2.53118901e-01, -2.24498638e-01,  4.56933147e-01,  1.31798841e+00,
  -1.19994941e+00,  7.79052417e-01,  1.47261884e-01,  1.49180822e+00],
 [-1.35406811e+00,  1.15697957e+00, -8.03583645e-01,  3.73509139e-01,
   2.48403891e-01,  4.25095673e-01,  2.09712580e+00,  5.70580585e-01,
   5.04560071e-01,  1.19209949e-01,  1.74272264e-01, -8.00705587e-01,
  -1.24005009e+00, -1.47009546e-01, -2.05090307e-01,  1.71379413e-01],
 [-1.44292283e+00,  1.51217932e-03,  1.56313755e+00, -7.64749745e-01,
   6.09997519e-02, -4.17470964e-01,  6.69388375e-01,  2.82416445e-01,
   2.05946975e+00, -2.05773373e-01, -2.49748909e-01, -1.77634280e+00,
  -3.85472129e-01,  6.10569526e-01, -1.54073710e+00,  5.33618371e-01],
 [-1.52415473e-01, -3.24506451e-01, -1.29250815e-01,  5.30185952e-01,
   5.29471255e-01,  1.96000000e+01, -6.99255328e-01, -3.35490476e-01,
   3.64331020e-01,  2.76567867e-01,  4.21035817e-01, -1.95010058e+00,
   1.69791386e+00, -4.92848058e-01, -6.86872950e-01,  4.00062756e-01],
 [-1.43109988e+00,  1.04556879e+00, -2.21246582e-01,  5.75503252e-01,
   1.76766395e-01, -7.53363064e-01,  4.34547802e-01, -1.03989061e+00,
  -8.34491164e-01, -1.72088019e-01, -1.47321876e-01, -9.36370801e-01,
  -1.21122972e+00, -6.43700060e-01, -4.85250429e-01,  9.73830325e-01],
 [-2.09226726e-01, -1.72906219e+00,  5.44948473e-01, -9.73487950e-02,
  -7.13868562e-01,  2.52691575e+00, -2.28210608e-01,  7.60031466e-01,
   1.91338159e-01, -2.05021278e+00,  2.24533996e-01, -2.61447416e-01,
  -8.69299510e-01,  1.95284370e+00,  7.13707654e-01,  9.96781913e-01],
 [ 5.79916564e-01, -9.52742001e-01, -1.89707757e+00, -2.12831492e+00,
  -6.32722416e-01, -5.31717543e-01,  1.67542636e-02,  4.10303256e-01,
   2.18974274e+00, -7.78647007e-01, -9.84426002e-01, -1.01593584e+00,
  -1.12180363e+00,  1.35544319e+00,  7.77772053e-01,  8.33464389e-01],
 [-1.06706048e-01, -3.09501358e-01,  1.14100740e+00,  9.53403521e-02,
  -2.03096461e-01,  6.06828530e-01, -3.20883127e-01,  1.01251838e+00,
   2.30409724e-01,  1.58023942e+00,  1.85594395e-01,  4.62400786e-01,
  -3.52711661e-01,  1.87721393e+00, -8.95043689e-01,  1.75204316e+00],
 [-1.02567656e+00, -6.29699140e-01, -8.72987902e-01, -1.36533267e-01,
  -9.79934455e-02,  1.40157810e+00, -3.57419107e-01, -1.82255752e-01,
  -7.97803724e-01, -3.02131178e-01, -1.72605260e+00, -4.58595625e-01,
   6.29254257e-01,  2.73154932e-01, -8.43571521e-01,  5.69833317e-01],
 [-3.02628903e-01,  1.61669592e+00,  4.95811032e-01, -1.40454234e-01,
   1.33220833e+00, -1.66304419e+00,  4.70090016e-01, -2.22438677e+00,
  -1.82163079e+00,  1.08220796e+00,  1.01772714e+00,  6.80816326e-01,
  -7.48990743e-01,  1.01794911e+00,  1.17157548e-01, -2.35756811e-01],
 [ 7.58253246e-01, -1.18312398e-01,  2.49458868e-01,  5.50667364e-01,
   7.82382766e-01,  1.49889706e+00,  1.42369039e+00,  6.18631877e-02,
  -1.53810520e+00,  6.24990024e-01, -1.79053395e-01,  5.63411376e-01,
  -1.36824818e+00, -6.97961630e-01,  1.66769665e+00,  1.54350405e+00],
 [-1.75781570e+00,  3.49042982e-01, -5.01114727e-01, -9.51299924e-01,
   6.40285640e-01, -4.97210828e-01, -9.93286071e-01, -1.51880233e+00,
   1.12384248e-01,  2.29702587e+00,  5.54254233e-01,  6.35368225e-01,
   5.96788406e-01,  1.26678077e-02, -7.93694918e-01,  6.35184563e-01],
 [ 9.47381976e-02,  7.95639009e-01,  9.73102915e-01,  5.97400729e-01,
   2.13073169e+00,  1.40992789e+00, -5.87206507e-01, -1.67049012e+00,
  -6.32733029e-01, -1.21415711e+00,  4.76296795e-01, -3.66104537e-02,
  -8.08253205e-02,  1.22870559e+00, -1.13388684e+00, -5.89975092e-01]]
V: 
[[-0.45865485, -0.31728589,  0.20842086, -0.9934846 ,  1.52582932,
   0.39522547,  0.64166548,  2.73684839, -0.00464135, -1.80195362,
  -0.79361431,  0.4623101 ,  0.48060659, -0.43197543,  0.3048732 ,
  -0.07772691],
 [-0.93023126, -0.90186263, -1.82661007, -0.22183716,  1.00753792,
   0.01834318, -0.36039141,  0.56519266,  1.24513719,  0.09457988,
  -1.16265291,  0.32976877, -0.23638793, -0.26158757,  1.73220409,
   0.6362406 ]]
Ca the 4 
Position: (-10.27, -5.92)
fitness: 7547.66207090958
W: 
[[ 2.71398609e-01,  1.37653348e+00,  3.31474218e-01,  4.43143882e-02,
  -9.42807546e-01,  1.10998974e-01,  4.76385633e-01,  2.47735814e-01,
  -5.03943141e-01, -1.12563728e+00,  1.14557162e+00, -1.51518285e-01,
   2.42060253e-01,  8.74616952e-01, -1.64106749e+00,  4.73560923e-01],
 [-2.14380042e-02, -2.61398789e-02,  1.47026487e+00, -8.52398532e-01,
   8.35825016e-01, -9.56236028e-01,  5.14611730e-01, -4.70909076e-01,
  -2.23422899e-01,  9.72649773e-01, -7.60680690e-01, -4.50195112e-01,
  -3.07697113e-01, -6.55690220e-01,  1.45231804e+00,  2.58122243e+00],
 [ 4.58786490e-01,  1.99448709e-01, -1.40500934e+00, -1.01061307e+00,
  -4.72193657e-01, -1.93757847e+00,  3.27538907e-01, -4.08484277e-01,
   6.56856890e-01,  1.51323846e+00, -6.34733535e-01,  5.88650497e-01,
  -3.40992435e-01,  8.46745407e-01, -3.27733054e-01,  6.03134655e-01],
 [ 4.28767681e-01, -6.36809760e-01, -7.00330771e-01, -8.52513920e-02,
   1.32187454e+00,  2.40723919e-01, -2.22211524e-01, -1.38308005e-01,
  -1.04208539e+00,  2.37592854e+00,  4.34292883e-01, -3.62668844e-01,
  -6.84270250e-02, -3.04208623e+00,  1.60000000e+00,  5.63581612e-02],
 [ 7.17123240e-01,  3.05155986e-01, -2.34862846e-01,  8.19161663e-01,
  -1.57365240e+00, -1.23521744e-01,  2.65192715e-02, -4.86082062e-01,
   3.38438226e-01, -3.79285301e-01,  1.10473039e+00, -1.91535101e+00,
  -9.52495955e-01, -8.70145173e-02,  1.24132487e+00,  3.60617118e-01],
 [-8.79491656e-01, -3.29556765e-01, -5.45983636e-01,  3.77153769e-01,
   4.18981520e-01,  7.40943556e-01, -1.28084594e+00,  9.79214365e-01,
  -2.02568327e+00,  7.78897401e-02,  1.60803148e-01, -8.21552131e-01,
   2.24259418e-02, -4.73618935e-01, -3.40888396e-01,  1.06334515e+00],
 [ 1.23641905e+00,  8.57151345e-01,  4.44366609e-01,  5.98517283e-01,
   3.01135494e-01, -6.23193807e-01, -7.65610612e-01, -7.80332920e-02,
  -2.70277076e-01,  2.17572699e+00,  6.18024425e-01,  2.01589563e+00,
  -1.54988358e-01, -2.44457552e-01, -3.28036559e-01, -5.86818030e-01],
 [ 2.20805530e+00, -1.12017358e+00, -1.70740939e+00,  1.21795237e+00,
  -5.34571772e-01,  9.52123698e-01, -3.77251030e-01, -2.82102170e-01,
   9.11442896e-03, -4.66481502e-01,  7.16673744e-01,  9.50990384e-01,
   6.29260111e-01, -6.58081528e-01, -9.17507836e-01, -4.43612916e-01],
 [-3.08729420e-01,  5.49160779e-01,  1.28670096e+00,  5.86373861e-01,
  -9.48969239e-01,  3.81124015e-01, -4.63542772e-01,  4.04565862e-01,
  -8.48925186e-01,  6.68373230e-01, -6.08350594e-01,  7.44188999e-01,
  -1.44732687e+00, -1.39284495e+00, -1.13664600e+00,  4.50128981e-01],
 [-7.65190901e-01,  5.54239320e-02,  3.71762318e-01, -8.08808002e-02,
  -5.09024616e-01, -2.63486124e-01,  8.48963426e-01, -5.17966078e-01,
   1.55051689e+00,  6.47618879e-01, -1.44150486e+00,  5.60265349e-01,
   6.56493964e-01, -1.36395972e-01,  6.98663752e-01, -1.94626356e+00],
 [-2.36707099e+00,  3.43847551e-01, -8.74857059e-01,  3.27112613e-01,
   8.04722968e-01,  4.59880028e-01, -2.63405419e+00,  4.39065818e-02,
  -9.45108088e-01, -4.75370931e-01, -7.35411775e-01, -4.46507923e-01,
  -2.61860150e-01, -1.57538978e+00, -9.64393568e-01,  1.85349729e-01],
 [ 9.30140908e-01, -7.77931101e-01, -4.66778841e-01,  7.26412834e-01,
  -4.48374648e-01, -1.03291774e+00,  1.27611473e+00, -1.02311038e-01,
   1.01121108e-01,  8.50003898e-01,  1.47001926e-01,  5.20345545e-01,
   6.61292260e-01,  1.89249010e+00, -7.03744905e-01,  8.38061248e-01],
 [ 7.82080678e-01,  6.67895355e-01,  3.51332473e-01, -1.48594167e+00,
  -6.94941885e-01,  1.35528588e+00, -3.64765527e-01,  1.99123347e-01,
  -2.36268518e-02,  4.46337082e-01, -8.74283492e-01, -3.44384676e-01,
   1.28722721e-01,  6.30092624e-01,  2.19372462e-01, -6.91206715e-01],
 [-1.56536218e-01,  3.87763507e-01, -6.53082923e-02, -1.63322482e+00,
   4.34175758e-02, -1.41626827e+00,  3.78574312e-01, -1.47603494e-01,
  -2.81962687e-01, -2.44773920e-02, -3.64102384e-01,  3.05361610e-02,
   1.32982610e+00, -6.05251880e-01,  7.92743105e-01,  1.24000000e+01],
 [ 1.52257692e+00,  5.31409255e-01, -8.35345867e-01, -4.29336968e-01,
   9.10217182e-01, -2.91217398e-01,  9.14559147e-01, -5.75063658e-01,
   1.15331740e-01,  4.14816180e-02,  1.57398635e+00,  5.08323792e-01,
  -1.46942339e-01, -1.19240059e-01, -2.37677828e-01, -2.00000000e+00],
 [-4.03915858e-01,  1.12045260e-01,  5.46334270e-01, -3.78162443e-01,
   8.80000000e+00,  3.57901271e-01, -1.95634705e+00,  1.15690471e+00,
   1.00393692e+00,  1.82478751e+00,  9.01705286e-01, -5.05794742e-01,
  -3.99474088e-01, -1.26449690e-01,  2.45747836e-01,  8.56149417e-02]]
W1: 
[[-6.75575575e-01, -1.01465947e+00,  5.42195453e-01,  6.70978082e-01,
   2.84937922e-01, -1.73471523e+00,  5.12455380e-01,  1.96650531e+00,
   1.07994160e-02,  9.32190817e-01, -2.76787878e-01,  1.36709008e+00,
   4.27258634e-01, -1.06842638e+00,  2.20952672e-01, -4.32130954e-01],
 [ 8.34139387e-01,  1.34668005e+00, -9.08346426e-01, -7.73764634e-02,
  -1.69563514e+00,  1.65167352e-01,  5.28170953e-01, -1.37854028e+00,
   8.98816380e-01, -9.70932845e-01,  7.92782304e-01, -2.56656430e-02,
  -2.14825112e+00,  5.59153432e-01, -7.72318171e-01, -1.94073205e+00],
 [-5.56274953e-01,  1.00207597e+00,  7.61318895e-01, -7.92593185e-01,
   5.58908374e-01,  1.56145419e+00,  1.76032559e+00,  1.16556211e+00,
  -5.02188091e-01, -5.45423593e-01,  4.60687130e-01,  1.77481688e-03,
   1.76613178e+00, -2.14683755e+00,  3.71758780e-01,  2.41344549e+00],
 [-8.24691107e-01, -9.27092631e-01,  2.77998063e-01, -9.71283475e-01,
   2.00227780e+00, -4.22440399e-01, -3.65210575e-01, -4.54252655e-02,
   2.53118901e-01, -2.24498638e-01,  4.56933147e-01,  1.31798841e+00,
  -1.19994941e+00,  7.79052417e-01,  1.47261884e-01,  1.49180822e+00],
 [-1.35406811e+00,  1.15697957e+00, -8.03583645e-01,  3.73509139e-01,
   2.48403891e-01,  4.25095673e-01,  2.09712580e+00,  5.70580585e-01,
   5.04560071e-01,  1.19209949e-01,  1.74272264e-01, -8.00705587e-01,
  -1.24005009e+00, -1.47009546e-01, -2.05090307e-01,  1.71379413e-01],
 [-1.44292283e+00,  1.51217932e-03,  1.56313755e+00, -7.64749745e-01,
   6.09997519e-02, -4.17470964e-01,  6.69388375e-01,  2.82416445e-01,
   2.05946975e+00, -2.05773373e-01, -2.49748909e-01, -1.77634280e+00,
  -3.85472129e-01,  6.10569526e-01, -1.54073710e+00,  5.33618371e-01],
 [-1.52415473e-01, -3.24506451e-01, -1.29250815e-01,  5.30185952e-01,
   5.29471255e-01, -1.31601427e+00, -6.99255328e-01, -3.35490476e-01,
   3.64331020e-01,  2.76567867e-01,  4.21035817e-01, -1.95010058e+00,
   1.69791386e+00, -4.92848058e-01, -6.86872950e-01,  4.00062756e-01],
 [-1.43109988e+00,  1.04556879e+00, -2.21246582e-01,  5.75503252e-01,
   1.76766395e-01, -7.53363064e-01,  4.34547802e-01, -1.03989061e+00,
  -8.34491164e-01, -1.72088019e-01, -1.47321876e-01, -9.36370801e-01,
  -1.21122972e+00, -6.43700060e-01, -4.85250429e-01,  9.73830325e-01],
 [-2.09226726e-01, -1.72906219e+00,  5.44948473e-01, -9.73487950e-02,
  -7.13868562e-01,  2.52691575e+00, -2.28210608e-01,  7.60031466e-01,
   1.91338159e-01, -2.05021278e+00,  2.24533996e-01, -2.61447416e-01,
  -8.69299510e-01,  1.95284370e+00,  7.13707654e-01,  9.96781913e-01],
 [ 5.79916564e-01, -9.52742001e-01, -1.89707757e+00, -2.12831492e+00,
  -6.32722416e-01, -5.31717543e-01,  1.67542636e-02,  4.10303256e-01,
   2.18974274e+00, -7.78647007e-01, -9.84426002e-01, -1.01593584e+00,
  -1.12180363e+00,  1.35544319e+00,  7.77772053e-01,  8.33464389e-01],
 [-1.06706048e-01, -3.09501358e-01,  1.14100740e+00,  9.53403521e-02,
  -2.03096461e-01,  6.06828530e-01, -3.20883127e-01,  1.01251838e+00,
   2.30409724e-01,  1.58023942e+00,  1.85594395e-01,  4.62400786e-01,
  -3.52711661e-01,  1.87721393e+00, -8.95043689e-01,  1.75204316e+00],
 [-1.02567656e+00, -6.29699140e-01, -8.72987902e-01, -1.36533267e-01,
  -9.79934455e-02,  1.40157810e+00, -3.57419107e-01, -1.82255752e-01,
  -7.97803724e-01, -3.02131178e-01, -1.72605260e+00, -4.58595625e-01,
   6.29254257e-01,  2.73154932e-01, -8.43571521e-01,  5.69833317e-01],
 [-3.02628903e-01,  1.61669592e+00,  4.95811032e-01, -1.40454234e-01,
   1.33220833e+00, -1.66304419e+00,  4.70090016e-01, -2.22438677e+00,
  -1.82163079e+00,  1.08220796e+00,  1.01772714e+00,  6.80816326e-01,
  -7.48990743e-01,  1.01794911e+00,  1.17157548e-01, -2.35756811e-01],
 [ 7.58253246e-01, -1.18312398e-01,  2.49458868e-01,  5.50667364e-01,
   7.82382766e-01,  1.49889706e+00,  1.42369039e+00,  6.18631877e-02,
  -1.53810520e+00,  6.24990024e-01, -1.79053395e-01,  5.63411376e-01,
  -1.36824818e+00, -6.97961630e-01,  1.66769665e+00,  1.54350405e+00],
 [-1.75781570e+00,  3.49042982e-01, -5.01114727e-01, -9.51299924e-01,
   6.40285640e-01, -4.97210828e-01, -9.93286071e-01, -1.51880233e+00,
   1.12384248e-01,  2.29702587e+00,  5.54254233e-01,  6.35368225e-01,
   5.96788406e-01,  1.26678077e-02, -7.93694918e-01,  6.35184563e-01],
 [ 9.47381976e-02,  7.95639009e-01,  9.73102915e-01,  5.97400729e-01,
   2.13073169e+00,  1.40992789e+00, -5.87206507e-01, -1.67049012e+00,
  -6.32733029e-01, -1.21415711e+00,  4.76296795e-01, -3.66104537e-02,
  -8.08253205e-02,  1.22870559e+00, -1.13388684e+00, -5.89975092e-01]]
V: 
[[-0.45865485, -0.31728589,  0.20842086, -0.9934846 ,  1.52582932,
   0.39522547,  0.64166548,  2.73684839, -0.00464135, -1.80195362,
  -0.79361431,  0.4623101 ,  0.48060659, -0.43197543,  0.3048732 ,
  -0.07772691],
 [-0.93023126, -0.90186263, -1.82661007, -0.22183716,  1.00753792,
   0.01834318, -0.36039141,  0.56519266,  1.24513719,  0.09457988,
  -1.16265291,  0.32976877, -0.23638793, -0.26158757,  1.73220409,
   0.6362406 ]]
Ca the 5 
Position: (-10.28, -5.11)
fitness: 7539.99402151108
W: 
[[ 2.71398609e-01,  1.37653348e+00,  3.31474218e-01,  4.43143882e-02,
  -9.42807546e-01,  1.10998974e-01,  4.76385633e-01,  2.47735814e-01,
  -5.03943141e-01, -1.12563728e+00,  1.14557162e+00, -1.51518285e-01,
   2.42060253e-01,  8.74616952e-01, -1.64106749e+00,  4.73560923e-01],
 [-2.14380042e-02, -2.61398789e-02,  1.47026487e+00, -8.52398532e-01,
   8.35825016e-01, -9.56236028e-01,  5.14611730e-01, -4.70909076e-01,
  -2.23422899e-01,  9.72649773e-01, -7.60680690e-01, -4.50195112e-01,
  -3.07697113e-01, -6.55690220e-01,  1.45231804e+00,  2.58122243e+00],
 [ 4.58786490e-01,  1.99448709e-01, -1.40500934e+00, -1.01061307e+00,
  -4.72193657e-01, -1.93757847e+00,  3.27538907e-01, -4.08484277e-01,
   6.56856890e-01,  1.51323846e+00, -6.34733535e-01,  5.88650497e-01,
  -3.40992435e-01,  8.46745407e-01, -3.27733054e-01,  6.03134655e-01],
 [ 4.28767681e-01, -6.36809760e-01, -7.00330771e-01, -8.52513920e-02,
   1.32187454e+00,  2.40723919e-01, -2.22211524e-01, -1.38308005e-01,
  -1.04208539e+00,  2.37592854e+00,  4.34292883e-01, -3.62668844e-01,
  -6.84270250e-02, -3.04208623e+00,  1.60000000e+00,  5.63581612e-02],
 [ 7.17123240e-01,  3.05155986e-01, -2.34862846e-01,  8.19161663e-01,
  -1.57365240e+00, -1.23521744e-01,  2.65192715e-02, -4.86082062e-01,
   3.38438226e-01, -3.79285301e-01,  1.10473039e+00, -1.91535101e+00,
  -9.52495955e-01, -8.70145173e-02,  1.24132487e+00,  3.60617118e-01],
 [-8.79491656e-01, -3.29556765e-01, -5.45983636e-01,  3.77153769e-01,
   4.18981520e-01,  7.40943556e-01, -1.28084594e+00,  9.79214365e-01,
  -2.02568327e+00,  7.78897401e-02,  1.60803148e-01, -8.21552131e-01,
   2.24259418e-02, -4.73618935e-01, -3.40888396e-01,  1.06334515e+00],
 [ 1.23641905e+00,  8.57151345e-01,  4.44366609e-01,  5.98517283e-01,
   3.01135494e-01, -6.23193807e-01, -7.65610612e-01, -7.80332920e-02,
  -2.70277076e-01,  2.17572699e+00,  6.18024425e-01,  2.01589563e+00,
  -1.54988358e-01, -2.44457552e-01, -3.28036559e-01, -5.86818030e-01],
 [ 2.20805530e+00, -1.12017358e+00, -1.70740939e+00,  1.21795237e+00,
  -5.34571772e-01,  9.52123698e-01, -3.77251030e-01, -2.82102170e-01,
   9.11442896e-03, -4.66481502e-01,  7.16673744e-01,  9.50990384e-01,
   6.29260111e-01, -6.58081528e-01, -9.17507836e-01, -4.43612916e-01],
 [-3.08729420e-01,  5.49160779e-01,  1.28670096e+00,  5.86373861e-01,
  -9.48969239e-01,  3.81124015e-01, -4.63542772e-01,  4.04565862e-01,
  -8.48925186e-01,  6.68373230e-01, -6.08350594e-01,  7.44188999e-01,
  -1.44732687e+00, -1.39284495e+00, -1.13664600e+00,  4.50128981e-01],
 [-7.65190901e-01,  5.54239320e-02,  3.71762318e-01, -8.08808002e-02,
  -5.09024616e-01, -2.63486124e-01,  8.48963426e-01, -5.17966078e-01,
   1.55051689e+00,  6.47618879e-01, -1.44150486e+00,  5.60265349e-01,
   6.56493964e-01, -1.36395972e-01,  6.98663752e-01, -1.94626356e+00],
 [-2.36707099e+00,  3.43847551e-01, -8.74857059e-01,  3.27112613e-01,
   8.04722968e-01,  4.59880028e-01, -2.63405419e+00,  4.39065818e-02,
  -9.45108088e-01, -4.75370931e-01, -7.35411775e-01, -4.46507923e-01,
  -2.61860150e-01, -1.57538978e+00, -9.64393568e-01,  1.85349729e-01],
 [ 9.30140908e-01, -7.77931101e-01, -4.66778841e-01,  7.26412834e-01,
  -4.48374648e-01, -1.03291774e+00,  1.27611473e+00, -1.02311038e-01,
   1.01121108e-01,  8.50003898e-01,  1.47001926e-01,  5.20345545e-01,
   6.61292260e-01,  1.89249010e+00, -7.03744905e-01,  8.38061248e-01],
 [ 7.82080678e-01,  6.67895355e-01,  3.51332473e-01, -1.48594167e+00,
  -6.94941885e-01,  1.35528588e+00, -3.64765527e-01,  1.99123347e-01,
  -2.36268518e-02,  4.46337082e-01, -8.74283492e-01, -3.44384676e-01,
   1.28722721e-01,  6.30092624e-01,  2.19372462e-01, -6.91206715e-01],
 [-1.56536218e-01,  3.87763507e-01, -6.53082923e-02, -1.63322482e+00,
   4.34175758e-02, -1.41626827e+00,  3.78574312e-01, -1.47603494e-01,
  -2.81962687e-01, -2.44773920e-02, -3.64102384e-01,  3.05361610e-02,
   1.32982610e+00, -6.05251880e-01,  7.92743105e-01,  1.24000000e+01],
 [ 1.52257692e+00,  5.31409255e-01, -8.35345867e-01, -4.29336968e-01,
   9.10217182e-01, -2.91217398e-01,  9.14559147e-01, -5.75063658e-01,
   1.15331740e-01,  4.14816180e-02,  1.57398635e+00,  5.08323792e-01,
  -1.46942339e-01, -1.19240059e-01, -2.37677828e-01, -2.00000000e+00],
 [-4.03915858e-01,  1.12045260e-01,  5.46334270e-01, -3.78162443e-01,
   8.80000000e+00,  3.57901271e-01, -1.95634705e+00,  1.15690471e+00,
   1.00393692e+00,  1.82478751e+00,  9.01705286e-01, -5.05794742e-01,
  -3.99474088e-01, -1.26449690e-01,  2.45747836e-01,  8.56149417e-02]]
W1: 
[[-6.75575575e-01, -1.01465947e+00,  5.42195453e-01,  6.70978082e-01,
   2.84937922e-01, -1.73471523e+00,  5.12455380e-01,  1.96650531e+00,
   1.07994160e-02,  9.32190817e-01, -2.76787878e-01,  1.36709008e+00,
   4.27258634e-01, -1.06842638e+00,  2.20952672e-01, -4.32130954e-01],
 [ 8.34139387e-01,  1.34668005e+00, -9.08346426e-01, -7.73764634e-02,
  -1.69563514e+00,  1.65167352e-01,  5.28170953e-01, -1.37854028e+00,
   8.98816380e-01, -9.70932845e-01,  7.92782304e-01, -2.56656430e-02,
  -2.14825112e+00,  5.59153432e-01, -7.72318171e-01, -1.94073205e+00],
 [-5.56274953e-01,  1.00207597e+00,  7.61318895e-01, -7.92593185e-01,
   5.58908374e-01,  1.56145419e+00,  1.76032559e+00,  1.16556211e+00,
  -5.02188091e-01, -5.45423593e-01,  4.60687130e-01,  1.77481688e-03,
   1.76613178e+00, -2.14683755e+00,  3.71758780e-01,  2.41344549e+00],
 [-8.24691107e-01, -9.27092631e-01,  2.77998063e-01, -9.71283475e-01,
   2.00227780e+00, -4.22440399e-01, -3.65210575e-01, -4.54252655e-02,
   2.53118901e-01, -2.24498638e-01,  4.56933147e-01,  1.31798841e+00,
  -1.19994941e+00,  7.79052417e-01,  1.47261884e-01,  1.49180822e+00],
 [-1.35406811e+00,  1.15697957e+00, -8.03583645e-01,  3.73509139e-01,
   2.48403891e-01,  4.25095673e-01,  2.09712580e+00,  5.70580585e-01,
   5.04560071e-01,  1.19209949e-01,  1.74272264e-01, -8.00705587e-01,
  -1.24005009e+00, -1.47009546e-01, -2.05090307e-01,  1.71379413e-01],
 [-1.44292283e+00,  1.51217932e-03,  1.56313755e+00, -7.64749745e-01,
   6.09997519e-02, -4.17470964e-01,  6.69388375e-01,  2.82416445e-01,
   2.05946975e+00, -2.05773373e-01, -2.49748909e-01, -1.77634280e+00,
  -3.85472129e-01,  6.10569526e-01, -1.54073710e+00,  5.33618371e-01],
 [-1.52415473e-01, -3.24506451e-01, -1.29250815e-01,  5.30185952e-01,
   5.29471255e-01, -1.31601427e+00, -6.99255328e-01, -3.35490476e-01,
   3.64331020e-01,  2.76567867e-01,  4.21035817e-01, -1.95010058e+00,
   1.69791386e+00, -4.92848058e-01, -6.86872950e-01,  4.00062756e-01],
 [-1.43109988e+00,  1.04556879e+00, -2.21246582e-01,  5.75503252e-01,
   1.76766395e-01, -7.53363064e-01,  4.34547802e-01, -1.03989061e+00,
  -8.34491164e-01, -1.72088019e-01, -1.47321876e-01, -9.36370801e-01,
  -1.21122972e+00, -6.43700060e-01, -4.85250429e-01,  9.73830325e-01],
 [-2.09226726e-01, -1.72906219e+00,  5.44948473e-01, -9.73487950e-02,
  -7.13868562e-01,  2.52691575e+00, -2.28210608e-01,  7.60031466e-01,
   1.91338159e-01, -2.05021278e+00,  2.24533996e-01, -2.61447416e-01,
  -8.69299510e-01,  1.95284370e+00,  7.13707654e-01,  9.96781913e-01],
 [ 5.79916564e-01, -9.52742001e-01, -1.89707757e+00, -2.12831492e+00,
  -6.32722416e-01, -5.31717543e-01,  1.67542636e-02,  4.10303256e-01,
   2.18974274e+00, -7.78647007e-01, -9.84426002e-01, -1.01593584e+00,
  -1.12180363e+00,  1.35544319e+00,  7.77772053e-01,  8.33464389e-01],
 [-1.06706048e-01, -3.09501358e-01,  1.14100740e+00,  9.53403521e-02,
  -2.03096461e-01,  6.06828530e-01, -3.20883127e-01,  1.01251838e+00,
   2.30409724e-01,  1.58023942e+00,  1.85594395e-01,  4.62400786e-01,
  -3.52711661e-01,  1.87721393e+00, -8.95043689e-01,  1.75204316e+00],
 [-1.02567656e+00, -6.29699140e-01, -8.72987902e-01, -1.36533267e-01,
  -9.79934455e-02,  1.40157810e+00, -3.57419107e-01, -1.82255752e-01,
  -7.97803724e-01, -3.02131178e-01, -1.72605260e+00, -4.58595625e-01,
   6.29254257e-01,  2.73154932e-01, -8.43571521e-01,  5.69833317e-01],
 [-3.02628903e-01,  1.61669592e+00,  4.95811032e-01, -1.40454234e-01,
   1.33220833e+00, -1.66304419e+00,  4.70090016e-01, -2.22438677e+00,
  -1.82163079e+00,  1.08220796e+00,  1.01772714e+00,  6.80816326e-01,
  -7.48990743e-01,  1.01794911e+00,  1.17157548e-01, -2.35756811e-01],
 [ 7.58253246e-01, -1.18312398e-01,  2.49458868e-01,  5.50667364e-01,
   7.82382766e-01,  1.49889706e+00,  1.42369039e+00,  6.18631877e-02,
  -1.53810520e+00,  6.24990024e-01, -1.79053395e-01,  5.63411376e-01,
  -1.36824818e+00, -6.97961630e-01,  1.66769665e+00,  1.54350405e+00],
 [-1.75781570e+00,  3.49042982e-01, -5.01114727e-01, -9.51299924e-01,
   6.40285640e-01, -4.97210828e-01, -9.93286071e-01, -1.51880233e+00,
   1.12384248e-01,  2.29702587e+00,  5.54254233e-01,  6.35368225e-01,
   5.96788406e-01,  1.26678077e-02, -7.93694918e-01,  6.35184563e-01],
 [ 9.47381976e-02,  7.95639009e-01,  9.73102915e-01,  5.97400729e-01,
   2.13073169e+00,  1.40992789e+00, -5.87206507e-01, -1.67049012e+00,
  -6.32733029e-01, -1.21415711e+00,  4.76296795e-01, -3.66104537e-02,
  -8.08253205e-02,  1.22870559e+00, -1.13388684e+00, -5.89975092e-01]]
V: 
[[-0.45865485, -0.31728589,  0.20842086, -0.9934846 ,  1.52582932,
   0.39522547,  0.64166548,  2.73684839, -0.00464135, -1.80195362,
  -0.79361431,  0.4623101 ,  0.48060659, -0.43197543,  0.3048732 ,
  -0.07772691],
 [-0.93023126, -0.90186263, -1.82661007, -0.22183716,  1.00753792,
   0.01834318, -0.36039141,  0.56519266,  1.24513719,  0.09457988,
  -1.16265291,  0.32976877, -0.23638793, -0.26158757,  1.73220409,
   0.6362406 ]]

the he thu: 2:
Ca the 0 
Position: (-10.30, -0.27)
fitness: 7842.9198870040855
W: 
[[ 2.71398609e-01,  1.37653348e+00,  3.31474218e-01,  4.43143882e-02,
  -9.42807546e-01,  1.10998974e-01,  4.76385633e-01,  2.47735814e-01,
  -5.03943141e-01, -1.12563728e+00,  1.14557162e+00, -1.51518285e-01,
   2.42060253e-01,  8.74616952e-01, -1.64106749e+00,  4.73560923e-01],
 [-2.14380042e-02, -2.61398789e-02,  1.47026487e+00, -8.52398532e-01,
   8.35825016e-01, -9.56236028e-01,  5.14611730e-01, -4.70909076e-01,
  -2.23422899e-01,  9.72649773e-01, -7.60680690e-01, -4.50195112e-01,
  -3.07697113e-01, -6.55690220e-01,  1.45231804e+00,  2.58122243e+00],
 [ 4.58786490e-01,  1.99448709e-01, -1.40500934e+00, -1.01061307e+00,
  -4.72193657e-01, -1.93757847e+00,  3.27538907e-01, -4.08484277e-01,
   6.56856890e-01,  1.51323846e+00, -6.34733535e-01,  5.88650497e-01,
  -3.40992435e-01,  8.46745407e-01, -3.27733054e-01,  6.03134655e-01],
 [ 4.28767681e-01, -6.36809760e-01, -7.00330771e-01, -8.52513920e-02,
   1.32187454e+00,  2.40723919e-01, -2.22211524e-01, -1.38308005e-01,
  -1.04208539e+00,  2.37592854e+00,  4.34292883e-01, -3.62668844e-01,
  -6.84270250e-02, -3.04208623e+00,  1.60000000e+00,  5.63581612e-02],
 [ 7.17123240e-01,  3.05155986e-01, -2.34862846e-01,  8.19161663e-01,
  -1.57365240e+00, -1.23521744e-01,  2.65192715e-02, -4.86082062e-01,
   3.38438226e-01, -3.79285301e-01,  1.10473039e+00, -1.91535101e+00,
  -9.52495955e-01, -8.70145173e-02,  1.24132487e+00,  3.60617118e-01],
 [-8.79491656e-01, -3.29556765e-01, -5.45983636e-01,  3.77153769e-01,
   4.18981520e-01,  7.40943556e-01, -1.28084594e+00,  9.79214365e-01,
  -2.02568327e+00,  7.78897401e-02,  1.60803148e-01, -8.21552131e-01,
   2.24259418e-02, -4.73618935e-01, -3.40888396e-01,  1.06334515e+00],
 [ 1.23641905e+00,  8.57151345e-01,  4.44366609e-01,  5.98517283e-01,
   3.01135494e-01, -6.23193807e-01, -7.65610612e-01, -7.80332920e-02,
  -2.70277076e-01,  2.17572699e+00,  6.18024425e-01,  2.01589563e+00,
  -1.54988358e-01, -2.44457552e-01, -3.28036559e-01, -5.86818030e-01],
 [ 2.20805530e+00, -1.12017358e+00, -1.70740939e+00,  1.21795237e+00,
  -5.34571772e-01,  9.52123698e-01, -3.77251030e-01, -2.82102170e-01,
   9.11442896e-03, -4.66481502e-01,  7.16673744e-01,  9.50990384e-01,
   6.29260111e-01, -6.58081528e-01, -9.17507836e-01, -4.43612916e-01],
 [-3.08729420e-01,  5.49160779e-01,  1.28670096e+00,  5.86373861e-01,
  -9.48969239e-01,  3.81124015e-01, -4.63542772e-01,  4.04565862e-01,
  -8.48925186e-01,  6.68373230e-01, -6.08350594e-01,  7.44188999e-01,
  -1.44732687e+00, -1.39284495e+00, -1.13664600e+00,  4.50128981e-01],
 [-7.65190901e-01,  5.54239320e-02,  3.71762318e-01, -8.08808002e-02,
  -5.09024616e-01, -2.63486124e-01,  8.48963426e-01, -5.17966078e-01,
   1.55051689e+00,  6.47618879e-01, -1.44150486e+00,  5.60265349e-01,
   6.56493964e-01,  5.20000000e+00,  6.98663752e-01, -1.94626356e+00],
 [-2.36707099e+00,  3.43847551e-01, -8.74857059e-01,  3.27112613e-01,
   8.04722968e-01,  4.59880028e-01, -2.63405419e+00,  4.39065818e-02,
  -9.45108088e-01, -4.75370931e-01, -7.35411775e-01, -4.46507923e-01,
  -2.61860150e-01, -1.57538978e+00, -9.64393568e-01,  1.85349729e-01],
 [ 9.30140908e-01, -7.77931101e-01, -4.66778841e-01,  7.26412834e-01,
  -4.48374648e-01, -1.03291774e+00,  1.27611473e+00, -1.02311038e-01,
   1.01121108e-01,  8.50003898e-01,  1.47001926e-01,  5.20345545e-01,
   6.61292260e-01,  1.89249010e+00, -7.03744905e-01,  8.38061248e-01],
 [ 7.82080678e-01,  6.67895355e-01,  3.51332473e-01, -1.48594167e+00,
  -6.94941885e-01,  1.35528588e+00, -3.64765527e-01,  1.99123347e-01,
  -2.36268518e-02,  4.46337082e-01, -8.74283492e-01, -3.44384676e-01,
   1.28722721e-01,  6.30092624e-01,  2.19372462e-01, -6.91206715e-01],
 [-1.56536218e-01,  3.87763507e-01, -6.53082923e-02, -1.63322482e+00,
   4.34175758e-02, -1.41626827e+00,  3.78574312e-01, -1.47603494e-01,
  -2.81962687e-01, -2.44773920e-02, -3.64102384e-01,  3.05361610e-02,
   1.32982610e+00, -6.05251880e-01,  7.92743105e-01,  1.24000000e+01],
 [ 1.52257692e+00,  5.31409255e-01, -8.35345867e-01, -4.29336968e-01,
   9.10217182e-01, -2.91217398e-01,  9.14559147e-01, -5.75063658e-01,
   1.15331740e-01,  4.14816180e-02,  1.57398635e+00,  5.08323792e-01,
  -1.46942339e-01, -1.19240059e-01, -2.37677828e-01, -2.00000000e+00],
 [-4.03915858e-01,  1.12045260e-01,  5.46334270e-01, -3.78162443e-01,
   8.80000000e+00,  3.57901271e-01, -1.95634705e+00,  1.15690471e+00,
   1.00393692e+00,  1.82478751e+00,  9.01705286e-01, -5.05794742e-01,
  -3.99474088e-01, -1.26449690e-01,  2.45747836e-01,  8.56149417e-02]]
W1: 
[[-6.75575575e-01, -1.01465947e+00,  5.42195453e-01,  6.70978082e-01,
   2.84937922e-01, -1.73471523e+00,  5.12455380e-01,  1.96650531e+00,
   1.07994160e-02,  9.32190817e-01, -2.76787878e-01,  1.36709008e+00,
   4.27258634e-01, -1.06842638e+00,  2.20952672e-01, -4.32130954e-01],
 [ 8.34139387e-01,  1.34668005e+00, -9.08346426e-01, -7.73764634e-02,
  -1.69563514e+00,  1.65167352e-01,  5.28170953e-01, -1.37854028e+00,
   8.98816380e-01, -9.70932845e-01,  7.92782304e-01, -2.56656430e-02,
  -2.14825112e+00,  5.59153432e-01, -7.72318171e-01, -1.94073205e+00],
 [-5.56274953e-01,  1.00207597e+00,  7.61318895e-01, -7.92593185e-01,
   5.58908374e-01,  1.56145419e+00,  1.76032559e+00,  1.16556211e+00,
  -5.02188091e-01, -5.45423593e-01,  4.60687130e-01,  1.77481688e-03,
   1.76613178e+00, -2.14683755e+00,  3.71758780e-01,  2.41344549e+00],
 [-8.24691107e-01, -9.27092631e-01,  2.77998063e-01, -9.71283475e-01,
   2.00227780e+00, -4.22440399e-01, -3.65210575e-01, -4.54252655e-02,
   2.53118901e-01, -2.24498638e-01,  4.56933147e-01,  1.31798841e+00,
  -1.19994941e+00,  7.79052417e-01,  1.47261884e-01,  1.49180822e+00],
 [-1.35406811e+00,  1.15697957e+00, -8.03583645e-01,  3.73509139e-01,
   2.48403891e-01,  4.25095673e-01,  2.09712580e+00,  5.70580585e-01,
   5.04560071e-01,  1.19209949e-01,  1.74272264e-01, -8.00705587e-01,
  -1.24005009e+00, -1.47009546e-01, -2.05090307e-01,  1.71379413e-01],
 [-1.44292283e+00,  1.51217932e-03,  1.56313755e+00, -7.64749745e-01,
   6.09997519e-02, -4.17470964e-01,  6.69388375e-01,  2.82416445e-01,
   2.05946975e+00, -2.05773373e-01, -2.49748909e-01, -1.77634280e+00,
  -3.85472129e-01,  6.10569526e-01, -1.54073710e+00,  5.33618371e-01],
 [-1.52415473e-01, -3.24506451e-01, -1.29250815e-01,  5.30185952e-01,
   5.29471255e-01, -1.31601427e+00, -6.99255328e-01, -3.35490476e-01,
   3.64331020e-01,  2.76567867e-01,  4.21035817e-01, -1.95010058e+00,
   1.69791386e+00, -4.92848058e-01, -6.86872950e-01,  4.00062756e-01],
 [-1.43109988e+00,  1.04556879e+00, -2.21246582e-01,  5.75503252e-01,
   1.76766395e-01, -7.53363064e-01,  4.34547802e-01, -1.03989061e+00,
  -8.34491164e-01, -1.72088019e-01, -1.47321876e-01, -9.36370801e-01,
  -1.21122972e+00, -6.43700060e-01, -4.85250429e-01,  9.73830325e-01],
 [-2.09226726e-01, -1.72906219e+00,  5.44948473e-01, -9.73487950e-02,
  -7.13868562e-01,  2.52691575e+00, -2.28210608e-01,  7.60031466e-01,
   1.91338159e-01, -2.05021278e+00,  2.24533996e-01, -2.61447416e-01,
  -8.69299510e-01,  1.95284370e+00,  7.13707654e-01,  9.96781913e-01],
 [ 5.79916564e-01, -9.52742001e-01, -1.89707757e+00, -2.12831492e+00,
  -6.32722416e-01, -5.31717543e-01,  1.67542636e-02,  4.10303256e-01,
   2.18974274e+00, -7.78647007e-01, -9.84426002e-01, -1.01593584e+00,
  -1.12180363e+00,  1.35544319e+00,  7.77772053e-01,  8.33464389e-01],
 [-1.06706048e-01, -3.09501358e-01,  1.14100740e+00,  9.53403521e-02,
  -2.03096461e-01,  6.06828530e-01, -3.20883127e-01,  1.01251838e+00,
   2.30409724e-01,  1.58023942e+00,  1.85594395e-01,  4.62400786e-01,
  -3.52711661e-01,  1.87721393e+00, -8.95043689e-01,  1.75204316e+00],
 [-1.02567656e+00, -6.29699140e-01, -8.72987902e-01, -1.36533267e-01,
  -9.79934455e-02,  1.40157810e+00, -3.57419107e-01, -1.82255752e-01,
  -7.97803724e-01, -3.02131178e-01, -1.72605260e+00, -4.58595625e-01,
   6.29254257e-01,  2.73154932e-01, -8.43571521e-01,  5.69833317e-01],
 [-3.02628903e-01,  1.61669592e+00,  4.95811032e-01, -1.40454234e-01,
   1.33220833e+00, -1.66304419e+00,  4.70090016e-01, -2.22438677e+00,
  -1.82163079e+00,  1.08220796e+00,  1.01772714e+00,  6.80816326e-01,
  -7.48990743e-01,  1.01794911e+00,  1.17157548e-01, -2.35756811e-01],
 [ 7.58253246e-01, -1.18312398e-01,  2.49458868e-01,  5.50667364e-01,
   7.82382766e-01,  1.49889706e+00,  1.42369039e+00,  6.18631877e-02,
  -1.53810520e+00,  6.24990024e-01, -1.79053395e-01,  5.63411376e-01,
  -1.36824818e+00, -6.97961630e-01,  1.66769665e+00,  1.54350405e+00],
 [-1.75781570e+00,  3.49042982e-01, -5.01114727e-01, -9.51299924e-01,
   6.40285640e-01, -4.97210828e-01, -9.93286071e-01, -1.51880233e+00,
   1.12384248e-01,  2.29702587e+00,  5.54254233e-01,  6.35368225e-01,
   5.96788406e-01,  1.26678077e-02, -7.93694918e-01,  6.35184563e-01],
 [ 9.47381976e-02,  7.95639009e-01,  9.73102915e-01,  5.97400729e-01,
   2.13073169e+00,  1.40992789e+00, -5.87206507e-01, -1.67049012e+00,
  -6.32733029e-01, -1.21415711e+00,  4.76296795e-01, -3.66104537e-02,
  -8.08253205e-02,  1.22870559e+00, -1.13388684e+00, -5.89975092e-01]]
V: 
[[-0.45865485, -0.31728589,  0.20842086, -0.9934846 ,  1.52582932,
   0.39522547,  0.64166548,  2.73684839, -0.00464135, -1.80195362,
  -0.79361431,  0.4623101 ,  0.48060659, -0.43197543,  0.3048732 ,
  -0.07772691],
 [-0.93023126, -0.90186263, -1.82661007, -0.22183716,  1.00753792,
   0.01834318, -0.36039141,  0.56519266,  1.24513719,  0.09457988,
  -1.16265291,  0.32976877, -0.23638793, -0.26158757,  1.73220409,
   0.6362406 ]]
Ca the 1 
Position: (-10.08, -1.68)
fitness: 7538.537107256119
W: 
[[ 2.71398609e-01,  1.37653348e+00,  3.31474218e-01,  4.43143882e-02,
  -9.42807546e-01,  1.10998974e-01,  4.76385633e-01,  2.47735814e-01,
  -5.03943141e-01, -1.12563728e+00,  1.14557162e+00, -1.51518285e-01,
   2.42060253e-01,  8.74616952e-01, -1.64106749e+00,  4.73560923e-01],
 [-2.14380042e-02, -2.61398789e-02,  1.47026487e+00, -8.52398532e-01,
   8.35825016e-01, -9.56236028e-01,  5.14611730e-01, -4.70909076e-01,
  -2.23422899e-01,  9.72649773e-01, -7.60680690e-01, -4.50195112e-01,
  -3.07697113e-01, -6.55690220e-01,  1.45231804e+00,  2.58122243e+00],
 [ 4.58786490e-01,  1.99448709e-01, -1.40500934e+00, -1.01061307e+00,
  -4.72193657e-01, -1.93757847e+00,  3.27538907e-01, -4.08484277e-01,
   6.56856890e-01,  1.51323846e+00, -6.34733535e-01,  5.88650497e-01,
  -3.40992435e-01,  8.46745407e-01, -3.27733054e-01,  6.03134655e-01],
 [ 4.28767681e-01, -6.36809760e-01, -7.00330771e-01, -8.52513920e-02,
   1.32187454e+00,  2.40723919e-01, -2.22211524e-01, -1.38308005e-01,
  -1.04208539e+00,  2.37592854e+00,  4.34292883e-01, -3.62668844e-01,
  -6.84270250e-02, -3.04208623e+00,  1.60000000e+00,  5.63581612e-02],
 [ 7.17123240e-01,  3.05155986e-01, -2.34862846e-01,  8.19161663e-01,
  -1.57365240e+00, -1.23521744e-01,  2.65192715e-02, -4.86082062e-01,
   3.38438226e-01, -3.79285301e-01,  1.10473039e+00, -1.91535101e+00,
  -9.52495955e-01, -8.70145173e-02,  1.24132487e+00,  3.60617118e-01],
 [-8.79491656e-01, -3.29556765e-01, -5.45983636e-01,  3.77153769e-01,
   4.18981520e-01,  7.40943556e-01, -1.28084594e+00,  9.79214365e-01,
  -2.02568327e+00,  7.78897401e-02,  1.60803148e-01, -8.21552131e-01,
   2.24259418e-02, -4.73618935e-01, -3.40888396e-01,  1.06334515e+00],
 [ 1.23641905e+00,  8.57151345e-01,  4.44366609e-01,  5.98517283e-01,
   3.01135494e-01, -6.23193807e-01, -7.65610612e-01, -7.80332920e-02,
  -2.70277076e-01,  2.17572699e+00,  6.18024425e-01,  2.01589563e+00,
  -1.54988358e-01, -2.44457552e-01, -3.28036559e-01, -5.86818030e-01],
 [ 2.20805530e+00, -1.12017358e+00, -1.70740939e+00,  1.21795237e+00,
  -5.34571772e-01,  9.52123698e-01, -3.77251030e-01, -2.82102170e-01,
   9.11442896e-03, -4.66481502e-01,  7.16673744e-01,  9.50990384e-01,
   6.29260111e-01, -6.58081528e-01, -9.17507836e-01, -4.43612916e-01],
 [-3.08729420e-01,  5.49160779e-01,  1.28670096e+00,  5.86373861e-01,
  -9.48969239e-01,  3.81124015e-01, -4.63542772e-01,  4.04565862e-01,
  -8.48925186e-01,  6.68373230e-01, -6.08350594e-01,  7.44188999e-01,
  -1.44732687e+00, -1.39284495e+00, -1.13664600e+00,  4.50128981e-01],
 [-7.65190901e-01,  5.54239320e-02,  3.71762318e-01, -8.08808002e-02,
  -5.09024616e-01, -2.63486124e-01,  8.48963426e-01, -5.17966078e-01,
   1.55051689e+00,  6.47618879e-01, -1.44150486e+00,  5.60265349e-01,
   6.56493964e-01, -1.36395972e-01,  6.98663752e-01, -1.94626356e+00],
 [-2.36707099e+00,  3.43847551e-01, -8.74857059e-01,  3.27112613e-01,
   8.04722968e-01,  4.59880028e-01, -2.63405419e+00,  4.39065818e-02,
  -9.45108088e-01, -4.75370931e-01, -7.35411775e-01, -4.46507923e-01,
  -2.61860150e-01, -1.57538978e+00, -9.64393568e-01,  1.85349729e-01],
 [ 9.30140908e-01, -7.77931101e-01, -4.66778841e-01,  7.26412834e-01,
  -4.48374648e-01, -1.03291774e+00,  1.27611473e+00, -1.02311038e-01,
   1.01121108e-01,  8.50003898e-01,  1.47001926e-01,  5.20345545e-01,
   6.61292260e-01,  1.89249010e+00, -7.03744905e-01,  8.38061248e-01],
 [ 7.82080678e-01,  6.67895355e-01,  3.51332473e-01, -1.48594167e+00,
  -6.94941885e-01,  1.35528588e+00, -3.64765527e-01,  1.99123347e-01,
  -2.36268518e-02,  4.46337082e-01, -8.74283492e-01, -3.44384676e-01,
   1.28722721e-01,  6.30092624e-01,  2.19372462e-01, -6.91206715e-01],
 [-1.56536218e-01,  3.87763507e-01, -6.53082923e-02, -1.63322482e+00,
   4.34175758e-02, -1.41626827e+00,  3.78574312e-01, -1.47603494e-01,
  -2.81962687e-01, -2.44773920e-02, -3.64102384e-01,  3.05361610e-02,
   1.32982610e+00, -6.05251880e-01,  7.92743105e-01,  1.24000000e+01],
 [ 1.52257692e+00,  5.31409255e-01, -8.35345867e-01, -4.29336968e-01,
   9.10217182e-01, -2.91217398e-01,  9.14559147e-01, -5.75063658e-01,
   1.15331740e-01,  4.14816180e-02,  1.57398635e+00,  5.08323792e-01,
  -1.46942339e-01, -1.19240059e-01, -2.37677828e-01, -2.00000000e+00],
 [-4.03915858e-01,  1.12045260e-01,  5.46334270e-01, -3.78162443e-01,
   8.80000000e+00,  3.57901271e-01, -1.95634705e+00,  1.15690471e+00,
   1.00393692e+00,  1.82478751e+00,  9.01705286e-01, -5.05794742e-01,
  -3.99474088e-01, -1.26449690e-01,  2.45747836e-01,  8.56149417e-02]]
W1: 
[[-6.75575575e-01, -1.01465947e+00,  5.42195453e-01,  6.70978082e-01,
   2.84937922e-01, -1.73471523e+00,  5.12455380e-01,  1.96650531e+00,
   1.07994160e-02,  9.32190817e-01, -2.76787878e-01,  1.36709008e+00,
   4.27258634e-01, -1.06842638e+00,  2.20952672e-01, -4.32130954e-01],
 [ 8.34139387e-01,  1.34668005e+00, -9.08346426e-01, -7.73764634e-02,
  -1.69563514e+00,  1.65167352e-01,  5.28170953e-01, -1.37854028e+00,
   8.98816380e-01, -9.70932845e-01,  7.92782304e-01, -2.56656430e-02,
  -2.14825112e+00,  5.59153432e-01, -7.72318171e-01, -1.94073205e+00],
 [-5.56274953e-01,  1.00207597e+00,  7.61318895e-01, -7.92593185e-01,
   5.58908374e-01,  1.56145419e+00,  1.76032559e+00,  1.16556211e+00,
  -5.02188091e-01, -5.45423593e-01,  4.60687130e-01,  1.77481688e-03,
   1.76613178e+00, -2.14683755e+00,  3.71758780e-01,  2.41344549e+00],
 [-8.24691107e-01, -9.27092631e-01,  2.77998063e-01, -9.71283475e-01,
   2.00227780e+00, -4.22440399e-01, -3.65210575e-01, -4.54252655e-02,
   2.53118901e-01, -2.24498638e-01,  4.56933147e-01,  1.31798841e+00,
  -1.19994941e+00,  7.79052417e-01,  1.47261884e-01,  1.49180822e+00],
 [-1.35406811e+00,  1.15697957e+00, -8.03583645e-01,  3.73509139e-01,
   2.48403891e-01,  4.25095673e-01,  2.09712580e+00,  5.70580585e-01,
   5.04560071e-01,  1.19209949e-01,  1.74272264e-01, -8.00705587e-01,
  -1.24005009e+00, -1.47009546e-01, -2.05090307e-01,  1.71379413e-01],
 [-1.44292283e+00,  1.51217932e-03,  1.56313755e+00, -7.64749745e-01,
   6.09997519e-02, -4.17470964e-01,  6.69388375e-01,  2.82416445e-01,
   2.05946975e+00, -2.05773373e-01, -2.49748909e-01, -1.77634280e+00,
  -3.85472129e-01,  6.10569526e-01, -1.54073710e+00,  5.33618371e-01],
 [-1.52415473e-01, -3.24506451e-01, -1.29250815e-01,  5.30185952e-01,
   5.29471255e-01, -1.31601427e+00, -6.99255328e-01, -3.35490476e-01,
   3.64331020e-01,  2.76567867e-01,  4.21035817e-01, -1.95010058e+00,
   1.69791386e+00, -4.92848058e-01, -6.86872950e-01,  4.00062756e-01],
 [-1.43109988e+00,  1.04556879e+00, -2.21246582e-01,  5.75503252e-01,
   1.76766395e-01, -7.53363064e-01,  4.34547802e-01, -1.03989061e+00,
  -8.34491164e-01, -1.72088019e-01, -1.47321876e-01, -9.36370801e-01,
  -1.21122972e+00, -6.43700060e-01, -4.85250429e-01,  9.73830325e-01],
 [-2.09226726e-01, -1.72906219e+00,  5.44948473e-01, -9.73487950e-02,
  -7.13868562e-01,  2.52691575e+00, -2.28210608e-01,  7.60031466e-01,
   1.91338159e-01, -2.05021278e+00,  2.24533996e-01, -2.61447416e-01,
  -8.69299510e-01,  1.95284370e+00,  7.13707654e-01,  9.96781913e-01],
 [ 5.79916564e-01, -9.52742001e-01, -1.89707757e+00, -2.12831492e+00,
  -6.32722416e-01, -5.31717543e-01,  1.67542636e-02,  4.10303256e-01,
   2.18974274e+00, -7.78647007e-01, -9.84426002e-01, -1.01593584e+00,
  -1.12180363e+00,  1.35544319e+00,  7.77772053e-01,  8.33464389e-01],
 [-1.06706048e-01, -3.09501358e-01,  1.14100740e+00,  9.53403521e-02,
  -2.03096461e-01,  6.06828530e-01, -3.20883127e-01,  1.01251838e+00,
   2.30409724e-01,  1.58023942e+00,  1.85594395e-01,  4.62400786e-01,
  -3.52711661e-01,  1.87721393e+00, -8.95043689e-01,  1.75204316e+00],
 [-1.02567656e+00, -6.29699140e-01, -8.72987902e-01, -1.36533267e-01,
  -9.79934455e-02,  1.40157810e+00, -3.57419107e-01, -1.82255752e-01,
  -7.97803724e-01, -3.02131178e-01, -1.72605260e+00, -4.58595625e-01,
   6.29254257e-01,  2.73154932e-01, -8.43571521e-01,  5.69833317e-01],
 [-3.02628903e-01,  1.61669592e+00,  4.95811032e-01, -1.40454234e-01,
   1.33220833e+00, -1.66304419e+00,  4.70090016e-01, -2.22438677e+00,
  -1.82163079e+00,  1.08220796e+00,  1.01772714e+00,  6.80816326e-01,
  -7.48990743e-01,  1.01794911e+00,  1.17157548e-01, -2.35756811e-01],
 [ 7.58253246e-01, -1.18312398e-01,  2.49458868e-01,  5.50667364e-01,
   7.82382766e-01,  1.49889706e+00,  1.42369039e+00,  6.18631877e-02,
  -1.53810520e+00,  6.24990024e-01, -1.79053395e-01,  5.63411376e-01,
  -1.36824818e+00, -6.97961630e-01,  1.66769665e+00,  1.54350405e+00],
 [-1.75781570e+00,  3.49042982e-01, -5.01114727e-01, -9.51299924e-01,
   6.40285640e-01, -4.97210828e-01, -9.93286071e-01, -1.51880233e+00,
   1.12384248e-01,  2.29702587e+00,  5.54254233e-01,  6.35368225e-01,
   5.96788406e-01,  1.26678077e-02, -7.93694918e-01,  6.35184563e-01],
 [ 9.47381976e-02,  7.95639009e-01,  9.73102915e-01,  5.97400729e-01,
   2.13073169e+00,  1.40992789e+00, -5.87206507e-01, -1.67049012e+00,
  -6.32733029e-01, -1.21415711e+00,  4.76296795e-01, -3.66104537e-02,
  -8.08253205e-02,  1.22870559e+00, -1.13388684e+00, -5.89975092e-01]]
V: 
[[-0.45865485, -0.31728589,  0.20842086, -0.9934846 ,  1.52582932,
   0.39522547,  0.64166548,  2.73684839, -0.00464135, -1.80195362,
  -0.79361431,  0.4623101 ,  0.48060659, -0.43197543,  0.3048732 ,
  -0.07772691],
 [-0.93023126, -0.90186263, -1.82661007, -0.22183716,  1.00753792,
   0.01834318, -0.36039141,  0.56519266,  1.24513719,  0.09457988,
  -1.16265291,  0.32976877, -0.23638793, -0.26158757,  1.73220409,
   0.6362406 ]]
Ca the 2 
Position: (-10.22, -5.22)
fitness: 7592.1816481149845
W: 
[[ 2.71398609e-01,  1.37653348e+00,  3.31474218e-01,  4.43143882e-02,
  -9.42807546e-01,  1.10998974e-01,  4.76385633e-01,  2.47735814e-01,
  -5.03943141e-01, -1.12563728e+00,  1.14557162e+00, -1.51518285e-01,
   2.42060253e-01,  8.74616952e-01, -1.64106749e+00,  4.73560923e-01],
 [-2.14380042e-02, -2.61398789e-02,  1.47026487e+00, -8.52398532e-01,
   8.35825016e-01, -9.56236028e-01,  5.14611730e-01, -4.70909076e-01,
  -2.23422899e-01,  9.72649773e-01, -7.60680690e-01, -4.50195112e-01,
  -3.07697113e-01, -6.55690220e-01,  1.45231804e+00,  2.58122243e+00],
 [ 4.58786490e-01,  1.99448709e-01, -1.40500934e+00, -1.01061307e+00,
  -4.72193657e-01, -1.93757847e+00,  3.27538907e-01, -4.08484277e-01,
   6.56856890e-01,  1.51323846e+00, -6.34733535e-01,  5.88650497e-01,
  -3.40992435e-01,  8.46745407e-01, -3.27733054e-01,  6.03134655e-01],
 [ 4.28767681e-01, -6.36809760e-01, -7.00330771e-01, -8.52513920e-02,
   1.32187454e+00,  2.40723919e-01, -2.22211524e-01, -1.38308005e-01,
  -1.04208539e+00,  2.37592854e+00,  4.34292883e-01, -3.62668844e-01,
  -6.84270250e-02, -3.04208623e+00,  1.60000000e+00,  5.63581612e-02],
 [ 7.17123240e-01,  3.05155986e-01, -2.34862846e-01,  8.19161663e-01,
  -1.57365240e+00, -1.23521744e-01,  2.65192715e-02, -4.86082062e-01,
   3.38438226e-01, -3.79285301e-01,  1.10473039e+00, -1.91535101e+00,
  -9.52495955e-01, -8.70145173e-02,  1.24132487e+00,  3.60617118e-01],
 [-8.79491656e-01, -3.29556765e-01, -5.45983636e-01,  3.77153769e-01,
   4.18981520e-01,  7.40943556e-01, -1.28084594e+00,  9.79214365e-01,
  -2.02568327e+00,  7.78897401e-02,  1.60803148e-01, -8.21552131e-01,
   2.24259418e-02, -4.73618935e-01, -3.40888396e-01,  1.06334515e+00],
 [ 1.23641905e+00,  8.57151345e-01,  4.44366609e-01,  5.98517283e-01,
   3.01135494e-01, -6.23193807e-01, -7.65610612e-01, -7.80332920e-02,
  -2.70277076e-01,  2.17572699e+00,  6.18024425e-01,  2.01589563e+00,
  -1.54988358e-01, -2.44457552e-01, -3.28036559e-01, -5.86818030e-01],
 [ 2.20805530e+00, -1.12017358e+00, -1.70740939e+00,  1.21795237e+00,
  -5.34571772e-01,  9.52123698e-01, -3.77251030e-01, -2.82102170e-01,
   9.11442896e-03, -4.66481502e-01,  7.16673744e-01,  9.50990384e-01,
   6.29260111e-01, -6.58081528e-01, -9.17507836e-01, -4.43612916e-01],
 [-3.08729420e-01,  5.49160779e-01,  1.28670096e+00,  5.86373861e-01,
  -9.48969239e-01,  3.81124015e-01, -4.63542772e-01,  4.04565862e-01,
  -8.48925186e-01,  6.68373230e-01, -6.08350594e-01,  7.44188999e-01,
  -1.44732687e+00, -1.39284495e+00, -1.13664600e+00,  4.50128981e-01],
 [-7.65190901e-01,  5.54239320e-02,  3.71762318e-01, -8.08808002e-02,
  -5.09024616e-01, -2.63486124e-01,  8.48963426e-01, -5.17966078e-01,
   1.55051689e+00,  6.47618879e-01, -1.44150486e+00,  5.60265349e-01,
   6.56493964e-01,  5.20000000e+00,  6.98663752e-01, -1.94626356e+00],
 [-2.36707099e+00,  3.43847551e-01, -8.74857059e-01,  3.27112613e-01,
   8.04722968e-01,  4.59880028e-01, -2.63405419e+00,  4.39065818e-02,
  -9.45108088e-01, -4.75370931e-01, -7.35411775e-01, -4.46507923e-01,
  -2.61860150e-01, -1.57538978e+00, -9.64393568e-01,  1.85349729e-01],
 [ 9.30140908e-01, -7.77931101e-01, -4.66778841e-01,  7.26412834e-01,
  -4.48374648e-01, -1.03291774e+00,  1.27611473e+00, -1.02311038e-01,
   1.01121108e-01,  8.50003898e-01,  1.47001926e-01,  5.20345545e-01,
   6.61292260e-01,  1.89249010e+00, -7.03744905e-01,  8.38061248e-01],
 [ 7.82080678e-01,  6.67895355e-01,  3.51332473e-01, -1.48594167e+00,
  -6.94941885e-01,  1.35528588e+00, -3.64765527e-01,  1.99123347e-01,
  -2.36268518e-02,  4.46337082e-01, -8.74283492e-01, -3.44384676e-01,
   1.28722721e-01,  6.30092624e-01,  2.19372462e-01, -6.91206715e-01],
 [-1.56536218e-01,  3.87763507e-01, -6.53082923e-02, -1.63322482e+00,
   4.34175758e-02, -1.41626827e+00,  3.78574312e-01, -1.47603494e-01,
  -2.81962687e-01, -2.44773920e-02, -3.64102384e-01,  3.05361610e-02,
   1.32982610e+00, -6.05251880e-01,  7.92743105e-01,  1.24000000e+01],
 [ 1.52257692e+00,  5.31409255e-01, -8.35345867e-01, -4.29336968e-01,
   9.10217182e-01, -2.91217398e-01,  9.14559147e-01, -5.75063658e-01,
   1.15331740e-01,  4.14816180e-02,  1.57398635e+00,  5.08323792e-01,
  -1.46942339e-01, -1.19240059e-01, -2.37677828e-01, -2.00000000e+00],
 [-4.03915858e-01,  1.12045260e-01,  5.46334270e-01, -3.78162443e-01,
   8.80000000e+00,  3.57901271e-01, -1.95634705e+00,  1.15690471e+00,
   1.00393692e+00,  1.82478751e+00,  9.01705286e-01, -5.05794742e-01,
  -3.99474088e-01, -1.26449690e-01,  2.45747836e-01,  8.56149417e-02]]
W1: 
[[-6.75575575e-01, -1.01465947e+00,  5.42195453e-01,  6.70978082e-01,
   2.84937922e-01, -1.73471523e+00,  5.12455380e-01,  1.96650531e+00,
   1.07994160e-02,  9.32190817e-01, -2.76787878e-01,  1.36709008e+00,
   4.27258634e-01, -1.06842638e+00,  2.20952672e-01, -4.32130954e-01],
 [ 8.34139387e-01,  1.34668005e+00, -9.08346426e-01, -7.73764634e-02,
  -1.69563514e+00,  1.65167352e-01,  5.28170953e-01, -1.37854028e+00,
   8.98816380e-01, -9.70932845e-01,  7.92782304e-01, -2.56656430e-02,
  -2.14825112e+00,  5.59153432e-01, -7.72318171e-01, -1.94073205e+00],
 [-5.56274953e-01,  1.00207597e+00,  7.61318895e-01, -7.92593185e-01,
   5.58908374e-01,  1.56145419e+00,  1.76032559e+00,  1.16556211e+00,
  -5.02188091e-01, -5.45423593e-01,  4.60687130e-01,  1.77481688e-03,
   1.76613178e+00, -2.14683755e+00,  3.71758780e-01,  2.41344549e+00],
 [-8.24691107e-01, -9.27092631e-01,  2.77998063e-01, -9.71283475e-01,
   2.00227780e+00, -4.22440399e-01, -3.65210575e-01, -4.54252655e-02,
   2.53118901e-01, -2.24498638e-01,  4.56933147e-01,  1.31798841e+00,
  -1.19994941e+00,  7.79052417e-01,  1.47261884e-01,  1.49180822e+00],
 [-1.35406811e+00,  1.15697957e+00, -8.03583645e-01,  3.73509139e-01,
   2.48403891e-01,  4.25095673e-01,  2.09712580e+00,  5.70580585e-01,
   5.04560071e-01,  1.19209949e-01,  1.74272264e-01, -8.00705587e-01,
  -1.24005009e+00, -1.47009546e-01, -2.05090307e-01,  1.71379413e-01],
 [-1.44292283e+00,  1.51217932e-03,  1.56313755e+00, -7.64749745e-01,
   6.09997519e-02, -4.17470964e-01,  6.69388375e-01,  2.82416445e-01,
   2.05946975e+00, -2.05773373e-01, -2.49748909e-01, -1.77634280e+00,
  -3.85472129e-01,  6.10569526e-01, -1.54073710e+00,  5.33618371e-01],
 [-1.52415473e-01, -3.24506451e-01, -1.29250815e-01,  5.30185952e-01,
   5.29471255e-01, -1.31601427e+00, -6.99255328e-01, -3.35490476e-01,
   3.64331020e-01,  2.76567867e-01,  4.21035817e-01, -1.95010058e+00,
   1.69791386e+00, -4.92848058e-01, -6.86872950e-01,  4.00062756e-01],
 [-1.43109988e+00,  1.04556879e+00, -2.21246582e-01,  5.75503252e-01,
   1.76766395e-01, -7.53363064e-01,  4.34547802e-01, -1.03989061e+00,
  -8.34491164e-01, -1.72088019e-01, -1.47321876e-01, -9.36370801e-01,
  -1.21122972e+00, -6.43700060e-01, -4.85250429e-01,  9.73830325e-01],
 [-2.09226726e-01, -1.72906219e+00,  5.44948473e-01, -9.73487950e-02,
  -7.13868562e-01,  2.52691575e+00, -2.28210608e-01,  7.60031466e-01,
   1.91338159e-01, -2.05021278e+00,  2.24533996e-01, -2.61447416e-01,
  -8.69299510e-01,  1.95284370e+00,  7.13707654e-01,  9.96781913e-01],
 [ 5.79916564e-01, -9.52742001e-01, -1.89707757e+00, -2.12831492e+00,
  -6.32722416e-01, -5.31717543e-01,  1.67542636e-02,  4.10303256e-01,
   2.18974274e+00, -7.78647007e-01, -9.84426002e-01, -1.01593584e+00,
  -1.12180363e+00,  1.35544319e+00,  7.77772053e-01,  8.33464389e-01],
 [-1.06706048e-01, -3.09501358e-01,  1.14100740e+00,  9.53403521e-02,
  -2.03096461e-01,  6.06828530e-01, -3.20883127e-01,  1.01251838e+00,
   2.30409724e-01,  1.58023942e+00,  1.85594395e-01,  4.62400786e-01,
  -3.52711661e-01,  1.87721393e+00, -8.95043689e-01,  1.75204316e+00],
 [-1.02567656e+00, -6.29699140e-01, -8.72987902e-01, -1.36533267e-01,
  -9.79934455e-02,  1.40157810e+00, -3.57419107e-01, -1.82255752e-01,
  -7.97803724e-01, -3.02131178e-01, -1.72605260e+00, -4.58595625e-01,
   6.29254257e-01,  2.73154932e-01, -8.43571521e-01,  5.69833317e-01],
 [-3.02628903e-01,  1.61669592e+00,  4.95811032e-01, -1.40454234e-01,
   1.33220833e+00, -1.66304419e+00,  4.70090016e-01, -2.22438677e+00,
  -1.82163079e+00,  1.08220796e+00,  1.01772714e+00,  6.80816326e-01,
  -7.48990743e-01,  1.01794911e+00,  1.17157548e-01, -2.35756811e-01],
 [ 7.58253246e-01, -1.18312398e-01,  2.49458868e-01,  5.50667364e-01,
   7.82382766e-01,  1.49889706e+00,  1.42369039e+00,  6.18631877e-02,
  -1.53810520e+00,  6.24990024e-01, -1.79053395e-01,  5.63411376e-01,
  -1.36824818e+00, -6.97961630e-01,  1.66769665e+00,  1.54350405e+00],
 [-1.75781570e+00,  3.49042982e-01, -5.01114727e-01, -9.51299924e-01,
   6.40285640e-01, -4.97210828e-01, -9.93286071e-01, -1.51880233e+00,
   1.12384248e-01,  2.29702587e+00,  5.54254233e-01,  6.35368225e-01,
   5.96788406e-01,  1.26678077e-02, -7.93694918e-01,  6.35184563e-01],
 [ 9.47381976e-02,  7.95639009e-01,  9.73102915e-01,  5.97400729e-01,
   2.13073169e+00,  1.40992789e+00, -5.87206507e-01, -1.67049012e+00,
  -6.32733029e-01, -1.21415711e+00,  4.76296795e-01, -3.66104537e-02,
  -8.08253205e-02,  1.22870559e+00, -1.13388684e+00, -5.89975092e-01]]
V: 
[[-0.45865485, -0.31728589,  0.20842086, -0.9934846 ,  1.52582932,
   0.39522547,  0.64166548,  2.73684839, -0.00464135, -1.80195362,
  -0.79361431,  0.4623101 ,  0.48060659, -0.43197543,  0.3048732 ,
  -0.07772691],
 [-0.93023126, -0.90186263, -1.82661007, -0.22183716,  1.00753792,
   0.01834318, -0.36039141,  0.56519266,  1.24513719,  0.09457988,
  -1.16265291,  0.32976877, -0.23638793, -0.26158757,  1.73220409,
   0.6362406 ]]
Ca the 3 
Position: (-11.69, -3.51)
fitness: 7606.776790808819
W: 
[[ 2.71398609e-01,  1.37653348e+00,  3.31474218e-01,  4.43143882e-02,
  -9.42807546e-01,  1.10998974e-01,  4.76385633e-01,  2.47735814e-01,
  -5.03943141e-01, -1.12563728e+00,  1.14557162e+00, -1.51518285e-01,
   2.42060253e-01,  8.74616952e-01, -1.64106749e+00,  4.73560923e-01],
 [-2.14380042e-02, -2.61398789e-02,  1.47026487e+00, -8.52398532e-01,
   8.35825016e-01, -9.56236028e-01,  5.14611730e-01, -4.70909076e-01,
  -2.23422899e-01,  9.72649773e-01, -7.60680690e-01, -4.50195112e-01,
  -3.07697113e-01, -6.55690220e-01,  1.45231804e+00,  2.58122243e+00],
 [ 4.58786490e-01,  1.99448709e-01, -1.40500934e+00, -1.01061307e+00,
  -4.72193657e-01, -1.93757847e+00,  3.27538907e-01, -4.08484277e-01,
   6.56856890e-01,  1.51323846e+00, -6.34733535e-01,  5.88650497e-01,
  -3.40992435e-01,  8.46745407e-01, -3.27733054e-01,  6.03134655e-01],
 [ 4.28767681e-01, -6.36809760e-01, -7.00330771e-01, -8.52513920e-02,
   1.32187454e+00,  2.40723919e-01, -2.22211524e-01, -1.38308005e-01,
  -1.04208539e+00,  2.37592854e+00,  4.34292883e-01, -3.62668844e-01,
  -6.84270250e-02, -3.04208623e+00,  1.60000000e+00,  5.63581612e-02],
 [ 7.17123240e-01,  3.05155986e-01, -2.34862846e-01,  8.19161663e-01,
  -1.57365240e+00, -1.23521744e-01,  2.65192715e-02, -4.86082062e-01,
   3.38438226e-01, -3.79285301e-01,  1.10473039e+00, -1.91535101e+00,
  -9.52495955e-01, -8.70145173e-02,  1.24132487e+00,  3.60617118e-01],
 [-8.79491656e-01, -3.29556765e-01, -5.45983636e-01,  3.77153769e-01,
   4.18981520e-01,  7.40943556e-01, -1.28084594e+00,  9.79214365e-01,
  -2.02568327e+00,  7.78897401e-02,  1.60803148e-01, -8.21552131e-01,
   2.24259418e-02, -4.73618935e-01, -3.40888396e-01,  1.06334515e+00],
 [ 1.23641905e+00,  8.57151345e-01,  4.44366609e-01,  5.98517283e-01,
   3.01135494e-01, -6.23193807e-01, -7.65610612e-01, -7.80332920e-02,
  -2.70277076e-01,  2.17572699e+00,  6.18024425e-01,  2.01589563e+00,
  -1.54988358e-01, -2.44457552e-01, -3.28036559e-01, -5.86818030e-01],
 [ 2.20805530e+00, -1.12017358e+00, -1.70740939e+00,  1.21795237e+00,
  -5.34571772e-01,  9.52123698e-01, -3.77251030e-01, -2.82102170e-01,
   9.11442896e-03, -4.66481502e-01,  7.16673744e-01,  9.50990384e-01,
   6.29260111e-01, -6.58081528e-01, -9.17507836e-01, -4.43612916e-01],
 [-3.08729420e-01,  5.49160779e-01,  1.28670096e+00,  5.86373861e-01,
  -9.48969239e-01,  3.81124015e-01, -4.63542772e-01,  4.04565862e-01,
  -8.48925186e-01,  6.68373230e-01, -6.08350594e-01,  7.44188999e-01,
  -1.44732687e+00, -1.39284495e+00, -1.13664600e+00,  4.50128981e-01],
 [-7.65190901e-01,  5.54239320e-02,  3.71762318e-01, -8.08808002e-02,
  -5.09024616e-01, -2.63486124e-01,  8.48963426e-01, -5.17966078e-01,
   1.55051689e+00,  6.47618879e-01, -1.44150486e+00,  5.60265349e-01,
   6.56493964e-01,  5.20000000e+00,  6.98663752e-01, -1.94626356e+00],
 [-2.36707099e+00,  3.43847551e-01, -8.74857059e-01,  3.27112613e-01,
   8.04722968e-01,  4.59880028e-01, -2.63405419e+00,  4.39065818e-02,
  -9.45108088e-01, -4.75370931e-01, -7.35411775e-01, -4.46507923e-01,
  -2.61860150e-01, -1.57538978e+00, -9.64393568e-01,  1.85349729e-01],
 [ 9.30140908e-01, -7.77931101e-01, -4.66778841e-01,  7.26412834e-01,
  -4.48374648e-01, -1.03291774e+00,  1.27611473e+00, -1.02311038e-01,
   1.01121108e-01,  8.50003898e-01,  1.47001926e-01,  5.20345545e-01,
   6.61292260e-01,  1.89249010e+00, -7.03744905e-01,  8.38061248e-01],
 [ 7.82080678e-01,  6.67895355e-01,  3.51332473e-01, -1.48594167e+00,
  -6.94941885e-01,  1.35528588e+00, -3.64765527e-01,  1.99123347e-01,
  -2.36268518e-02,  4.46337082e-01, -8.74283492e-01, -3.44384676e-01,
   1.28722721e-01,  6.30092624e-01,  2.19372462e-01, -6.91206715e-01],
 [-1.56536218e-01,  3.87763507e-01, -6.53082923e-02, -1.63322482e+00,
   4.34175758e-02, -1.41626827e+00,  3.78574312e-01, -1.47603494e-01,
  -2.81962687e-01, -2.44773920e-02, -3.64102384e-01,  3.05361610e-02,
   1.32982610e+00, -6.05251880e-01,  7.92743105e-01,  1.24000000e+01],
 [ 1.52257692e+00,  5.31409255e-01, -8.35345867e-01, -4.29336968e-01,
   9.10217182e-01, -2.91217398e-01,  9.14559147e-01, -5.75063658e-01,
   1.15331740e-01,  4.14816180e-02,  1.57398635e+00,  5.08323792e-01,
  -1.46942339e-01, -1.19240059e-01, -2.37677828e-01, -2.00000000e+00],
 [-4.03915858e-01,  1.12045260e-01,  5.46334270e-01, -3.78162443e-01,
   8.80000000e+00,  3.57901271e-01, -1.95634705e+00,  1.15690471e+00,
   1.00393692e+00,  1.82478751e+00,  9.01705286e-01, -5.05794742e-01,
  -3.99474088e-01, -1.26449690e-01,  2.45747836e-01,  8.56149417e-02]]
W1: 
[[-6.75575575e-01, -1.01465947e+00,  5.42195453e-01,  6.70978082e-01,
   2.84937922e-01, -1.73471523e+00,  5.12455380e-01,  1.96650531e+00,
   1.07994160e-02,  9.32190817e-01, -2.76787878e-01,  1.36709008e+00,
   4.27258634e-01, -1.06842638e+00,  2.20952672e-01, -4.32130954e-01],
 [ 8.34139387e-01,  1.34668005e+00, -9.08346426e-01, -7.73764634e-02,
  -1.69563514e+00,  1.65167352e-01,  5.28170953e-01, -1.37854028e+00,
   8.98816380e-01, -9.70932845e-01,  7.92782304e-01, -2.56656430e-02,
  -2.14825112e+00,  5.59153432e-01, -7.72318171e-01, -1.94073205e+00],
 [-5.56274953e-01,  1.00207597e+00,  7.61318895e-01, -7.92593185e-01,
   5.58908374e-01,  1.56145419e+00,  1.76032559e+00,  1.16556211e+00,
  -5.02188091e-01, -5.45423593e-01,  4.60687130e-01,  1.77481688e-03,
   1.76613178e+00, -2.14683755e+00,  3.71758780e-01,  2.41344549e+00],
 [-8.24691107e-01, -9.27092631e-01,  2.77998063e-01, -9.71283475e-01,
   2.00227780e+00, -4.22440399e-01, -3.65210575e-01, -4.54252655e-02,
   2.53118901e-01, -2.24498638e-01,  4.56933147e-01,  1.31798841e+00,
  -1.19994941e+00,  7.79052417e-01,  1.47261884e-01,  1.49180822e+00],
 [-1.35406811e+00,  1.15697957e+00, -8.03583645e-01,  3.73509139e-01,
   2.48403891e-01,  4.25095673e-01,  2.09712580e+00,  5.70580585e-01,
   5.04560071e-01,  1.19209949e-01,  1.74272264e-01, -8.00705587e-01,
  -1.24005009e+00, -1.47009546e-01, -2.05090307e-01,  1.71379413e-01],
 [-1.44292283e+00,  1.51217932e-03,  1.56313755e+00, -7.64749745e-01,
   6.09997519e-02, -4.17470964e-01,  6.69388375e-01,  2.82416445e-01,
   2.05946975e+00, -2.05773373e-01, -2.49748909e-01, -1.77634280e+00,
  -3.85472129e-01,  6.10569526e-01, -1.54073710e+00,  5.33618371e-01],
 [-1.52415473e-01, -3.24506451e-01, -1.29250815e-01,  5.30185952e-01,
   5.29471255e-01, -1.31601427e+00, -6.99255328e-01, -3.35490476e-01,
   3.64331020e-01,  2.76567867e-01,  4.21035817e-01, -1.95010058e+00,
   1.69791386e+00, -4.92848058e-01, -6.86872950e-01,  4.00062756e-01],
 [-1.43109988e+00,  1.04556879e+00, -2.21246582e-01,  5.75503252e-01,
   1.76766395e-01, -7.53363064e-01,  4.34547802e-01, -1.03989061e+00,
  -8.34491164e-01, -1.72088019e-01, -1.47321876e-01, -9.36370801e-01,
  -1.21122972e+00, -6.43700060e-01, -4.85250429e-01,  9.73830325e-01],
 [-2.09226726e-01, -1.72906219e+00,  5.44948473e-01, -9.73487950e-02,
  -7.13868562e-01,  2.52691575e+00, -2.28210608e-01,  7.60031466e-01,
   1.91338159e-01, -2.05021278e+00,  2.24533996e-01, -2.61447416e-01,
  -8.69299510e-01,  1.95284370e+00,  7.13707654e-01,  9.96781913e-01],
 [ 5.79916564e-01, -9.52742001e-01, -1.89707757e+00, -2.12831492e+00,
  -6.32722416e-01, -5.31717543e-01,  1.67542636e-02,  4.10303256e-01,
   2.18974274e+00, -7.78647007e-01, -9.84426002e-01, -1.01593584e+00,
  -1.12180363e+00,  1.35544319e+00,  7.77772053e-01,  8.33464389e-01],
 [-1.06706048e-01, -3.09501358e-01,  1.14100740e+00,  9.53403521e-02,
  -2.03096461e-01,  6.06828530e-01, -3.20883127e-01,  1.01251838e+00,
   2.30409724e-01,  1.58023942e+00,  1.85594395e-01,  4.62400786e-01,
  -3.52711661e-01,  1.87721393e+00, -8.95043689e-01,  1.75204316e+00],
 [-1.02567656e+00, -6.29699140e-01, -8.72987902e-01, -1.36533267e-01,
  -9.79934455e-02,  1.40157810e+00, -3.57419107e-01, -1.82255752e-01,
  -7.97803724e-01, -3.02131178e-01, -1.72605260e+00, -4.58595625e-01,
   6.29254257e-01,  2.73154932e-01, -8.43571521e-01,  5.69833317e-01],
 [-3.02628903e-01,  1.61669592e+00,  4.95811032e-01, -1.40454234e-01,
   1.33220833e+00, -1.66304419e+00,  4.70090016e-01, -2.22438677e+00,
  -1.82163079e+00,  1.08220796e+00,  1.01772714e+00,  6.80816326e-01,
  -7.48990743e-01,  1.01794911e+00,  1.17157548e-01, -2.35756811e-01],
 [ 7.58253246e-01, -1.18312398e-01,  2.49458868e-01,  5.50667364e-01,
   7.82382766e-01,  1.49889706e+00,  1.42369039e+00,  6.18631877e-02,
  -1.53810520e+00,  6.24990024e-01, -1.79053395e-01,  5.63411376e-01,
  -1.36824818e+00, -6.97961630e-01,  1.66769665e+00,  1.54350405e+00],
 [-1.75781570e+00,  3.49042982e-01, -5.01114727e-01, -9.51299924e-01,
   6.40285640e-01, -4.97210828e-01, -9.93286071e-01, -1.51880233e+00,
   1.12384248e-01,  2.29702587e+00,  5.54254233e-01,  6.35368225e-01,
   5.96788406e-01,  1.26678077e-02, -7.93694918e-01,  6.35184563e-01],
 [ 9.47381976e-02,  7.95639009e-01,  9.73102915e-01,  5.97400729e-01,
   2.13073169e+00,  1.40992789e+00, -5.87206507e-01, -1.67049012e+00,
  -6.32733029e-01, -1.21415711e+00,  4.76296795e-01, -3.66104537e-02,
  -8.08253205e-02,  1.22870559e+00, -1.13388684e+00, -5.89975092e-01]]
V: 
[[-0.45865485, -0.31728589,  0.20842086, -0.9934846 ,  1.52582932,
   0.39522547,  0.64166548,  2.73684839, -0.00464135, -1.80195362,
  -0.79361431,  0.4623101 ,  0.48060659, -0.43197543,  0.3048732 ,
  -0.07772691],
 [-0.93023126, -0.90186263, -1.82661007, -0.22183716,  1.00753792,
   0.01834318, -0.36039141,  0.56519266,  1.24513719,  0.09457988,
  -1.16265291,  0.32976877, -0.23638793, -0.26158757,  1.73220409,
   0.6362406 ]]
Ca the 4 
Position: (-10.27, -5.92)
fitness: 7506.28320556898
W: 
[[ 2.71398609e-01,  1.37653348e+00,  3.31474218e-01,  4.43143882e-02,
  -9.42807546e-01,  1.10998974e-01,  4.76385633e-01,  2.47735814e-01,
  -5.03943141e-01, -1.12563728e+00,  1.14557162e+00, -1.51518285e-01,
   2.42060253e-01,  8.74616952e-01, -1.64106749e+00,  4.73560923e-01],
 [-2.14380042e-02, -2.61398789e-02,  1.47026487e+00, -8.52398532e-01,
   8.35825016e-01, -9.56236028e-01,  5.14611730e-01, -4.70909076e-01,
  -2.23422899e-01,  9.72649773e-01, -7.60680690e-01, -4.50195112e-01,
  -3.07697113e-01, -6.55690220e-01,  1.45231804e+00,  2.58122243e+00],
 [ 4.58786490e-01,  1.99448709e-01, -1.40500934e+00, -1.01061307e+00,
  -4.72193657e-01, -1.93757847e+00,  3.27538907e-01, -4.08484277e-01,
   6.56856890e-01,  1.51323846e+00, -6.34733535e-01,  5.88650497e-01,
  -3.40992435e-01,  8.46745407e-01, -3.27733054e-01,  6.03134655e-01],
 [ 4.28767681e-01, -6.36809760e-01, -7.00330771e-01, -8.52513920e-02,
   1.32187454e+00,  2.40723919e-01, -2.22211524e-01, -1.38308005e-01,
  -1.04208539e+00,  2.37592854e+00,  4.34292883e-01, -3.62668844e-01,
  -6.84270250e-02, -3.04208623e+00,  1.60000000e+00,  5.63581612e-02],
 [ 7.17123240e-01,  3.05155986e-01, -2.34862846e-01,  8.19161663e-01,
  -1.57365240e+00, -1.23521744e-01,  2.65192715e-02, -4.86082062e-01,
   3.38438226e-01, -3.79285301e-01,  1.10473039e+00, -1.91535101e+00,
  -9.52495955e-01, -8.70145173e-02,  1.24132487e+00,  3.60617118e-01],
 [-8.79491656e-01, -3.29556765e-01, -5.45983636e-01,  3.77153769e-01,
   4.18981520e-01,  7.40943556e-01, -1.28084594e+00,  9.79214365e-01,
  -2.02568327e+00,  7.78897401e-02,  1.60803148e-01, -8.21552131e-01,
   2.24259418e-02, -4.73618935e-01, -3.40888396e-01,  1.06334515e+00],
 [ 1.23641905e+00,  8.57151345e-01,  4.44366609e-01,  5.98517283e-01,
   3.01135494e-01, -6.23193807e-01, -7.65610612e-01, -7.80332920e-02,
  -2.70277076e-01,  2.17572699e+00,  6.18024425e-01,  2.01589563e+00,
  -1.54988358e-01, -2.44457552e-01, -3.28036559e-01, -5.86818030e-01],
 [ 2.20805530e+00, -1.12017358e+00, -1.70740939e+00,  1.21795237e+00,
  -5.34571772e-01,  9.52123698e-01, -3.77251030e-01, -2.82102170e-01,
   9.11442896e-03, -4.66481502e-01,  7.16673744e-01,  9.50990384e-01,
   6.29260111e-01, -6.58081528e-01, -9.17507836e-01, -4.43612916e-01],
 [-3.08729420e-01,  5.49160779e-01,  1.28670096e+00,  5.86373861e-01,
  -9.48969239e-01,  3.81124015e-01, -4.63542772e-01,  4.04565862e-01,
  -8.48925186e-01,  6.68373230e-01, -6.08350594e-01,  7.44188999e-01,
  -1.44732687e+00, -1.39284495e+00, -1.13664600e+00,  4.50128981e-01],
 [-7.65190901e-01,  5.54239320e-02,  3.71762318e-01, -8.08808002e-02,
  -5.09024616e-01, -2.63486124e-01,  8.48963426e-01, -5.17966078e-01,
   1.55051689e+00,  6.47618879e-01, -1.44150486e+00,  5.60265349e-01,
   6.56493964e-01, -1.36395972e-01,  6.98663752e-01, -1.94626356e+00],
 [-2.36707099e+00,  3.43847551e-01, -8.74857059e-01,  3.27112613e-01,
   8.04722968e-01,  4.59880028e-01, -2.63405419e+00,  4.39065818e-02,
  -9.45108088e-01, -4.75370931e-01, -7.35411775e-01, -4.46507923e-01,
  -2.61860150e-01, -1.57538978e+00, -9.64393568e-01,  1.85349729e-01],
 [ 9.30140908e-01, -7.77931101e-01, -4.66778841e-01,  7.26412834e-01,
  -4.48374648e-01, -1.03291774e+00,  1.27611473e+00, -1.02311038e-01,
   1.01121108e-01,  8.50003898e-01,  1.47001926e-01,  5.20345545e-01,
   6.61292260e-01,  1.89249010e+00, -7.03744905e-01,  8.38061248e-01],
 [ 7.82080678e-01,  6.67895355e-01,  3.51332473e-01, -1.48594167e+00,
  -6.94941885e-01,  1.35528588e+00, -3.64765527e-01,  1.99123347e-01,
  -2.36268518e-02,  4.46337082e-01, -8.74283492e-01, -3.44384676e-01,
   1.28722721e-01,  6.30092624e-01,  2.19372462e-01, -6.91206715e-01],
 [-1.56536218e-01,  3.87763507e-01, -6.53082923e-02, -1.63322482e+00,
   4.34175758e-02, -1.41626827e+00,  3.78574312e-01, -1.47603494e-01,
  -2.81962687e-01, -2.44773920e-02, -3.64102384e-01,  3.05361610e-02,
   1.32982610e+00, -6.05251880e-01,  7.92743105e-01,  1.24000000e+01],
 [ 1.52257692e+00,  5.31409255e-01, -8.35345867e-01, -4.29336968e-01,
   9.10217182e-01, -2.91217398e-01,  9.14559147e-01, -5.75063658e-01,
   1.15331740e-01,  4.14816180e-02,  1.57398635e+00,  5.08323792e-01,
  -1.46942339e-01, -1.19240059e-01, -2.37677828e-01, -2.00000000e+00],
 [-4.03915858e-01,  1.12045260e-01,  5.46334270e-01, -3.78162443e-01,
   8.80000000e+00,  3.57901271e-01, -1.95634705e+00,  1.15690471e+00,
   1.00393692e+00,  1.82478751e+00,  9.01705286e-01, -5.05794742e-01,
  -3.99474088e-01, -1.26449690e-01,  2.45747836e-01,  8.56149417e-02]]
W1: 
[[-6.75575575e-01, -1.01465947e+00,  5.42195453e-01,  6.70978082e-01,
   2.84937922e-01, -1.73471523e+00,  5.12455380e-01,  1.96650531e+00,
   1.07994160e-02,  9.32190817e-01, -2.76787878e-01,  1.36709008e+00,
