the he thu: 1:
Ca the 0 
Position: (-10.37, 0.08)W: 
[[ 1.00242337e-01, -1.25965574e+00, -4.29936912e-01,  1.95511610e-01,
   2.38254788e-03, -5.28492247e-01, -7.18340080e-01, -4.58577378e-02,
   1.17621970e+00, -1.12023496e+00, -8.99874914e-01, -5.52580517e-01,
   2.60592485e+00, -2.04857054e+00,  8.89216814e-01, -1.37951820e+00],
 [ 1.02918240e+00,  1.21113942e+00, -6.47432713e-01, -2.98255654e-01,
  -9.89084772e-01, -1.54771355e+00,  7.89174915e-01,  7.16294402e-01,
   2.93447745e-01, -2.70253743e-01,  1.14900530e+00, -1.01068627e+00,
   1.11016582e+00,  5.74645466e-01,  5.95562350e-01, -1.72385257e+00],
 [-4.61091118e-01, -1.98938971e+00,  5.73143644e-01, -5.91914999e-01,
  -5.90435749e-01,  8.07534029e-01, -4.19523489e-01, -5.79130654e-01,
   1.26675581e+00,  2.07559437e+00, -5.36497483e-01, -3.32443271e-01,
   3.50112642e-01, -9.72974506e-01,  5.65615526e-01,  4.62589421e-01],
 [ 1.67175297e+00, -1.32751652e+00, -1.25268134e+00, -1.39365161e+00,
   2.67734810e-01, -1.54960570e+00, -5.31373744e-01,  1.79656353e+00,
   5.36684974e-01, -8.86358935e-01, -1.01521126e+00,  2.50350414e-01,
   3.59817363e-01,  9.32995269e-01, -3.86719608e-01,  1.68963743e-01],
 [-6.01581971e-01,  3.41415348e-01,  8.98098292e-01,  2.84309340e-01,
  -6.67358225e-01, -7.25762259e-01,  3.97621011e-01, -1.00233238e+00,
  -1.04526228e+00, -4.33849381e-01,  1.16408410e-01, -7.35505888e-01,
   9.00310757e-01,  1.08952743e+00, -7.45012772e-01,  8.22040479e-01],
 [-6.69058172e-02, -1.38029788e-01,  8.86908436e-02, -3.50284125e-01,
  -1.29570143e+00, -2.26591055e+00,  2.31188676e-01, -3.23690346e-02,
  -5.12411757e-01, -5.13594450e-02, -6.76113082e-01,  6.27470555e-01,
  -6.98198348e-01, -3.03893025e-02,  4.59166988e-01,  8.77977418e-01],
 [-1.08455405e+00, -1.30225723e+00,  1.93451928e-02, -3.21775988e-01,
  -4.10579198e-01,  9.13080764e-01,  6.73461218e-01, -6.84153203e-01,
   3.11973792e-01, -1.34551281e-01,  1.12091148e+00,  2.17344493e-01,
  -7.07470856e-01,  2.60569983e+00, -7.13189459e-01,  2.40563908e+00],
 [ 9.82298301e-01, -9.16606407e-01, -1.44924924e+00, -1.02067162e-01,
  -3.62398747e-01,  5.50589568e-02, -1.26972011e-01,  1.74603351e-01,
  -1.10838137e+00,  5.61981959e-01, -1.97223283e+00, -9.36795465e-02,
   2.26461408e+00,  1.05326761e+00,  1.25410909e+00, -2.69316307e-01],
 [-1.47817364e-01,  1.02209849e+00, -3.19933843e-01,  3.43904111e-01,
   2.50897655e-01,  1.07704821e+00, -1.98692473e-01, -6.20210616e-01,
  -1.11980604e-01, -1.41667008e+00, -8.53505606e-01, -2.01059783e-02,
   5.37676280e-01,  1.20233433e-01, -2.02906722e-01,  1.65856940e+00],
 [-1.81685152e+00,  2.29859449e-01,  8.91192988e-01,  1.97037004e-01,
   3.06350353e-01, -1.92394716e+00, -1.95866471e-01,  2.35276646e-01,
  -1.38858895e-01,  8.92956687e-01,  1.52104630e+00,  1.22307968e+00,
   7.07797689e-01,  1.24276356e+00,  7.94413344e-01, -6.40991051e-02],
 [-1.19740909e-01, -1.35608589e-01,  1.74382869e+00,  9.57977383e-02,
   6.89802950e-01, -4.67070250e-01, -1.06925769e-01, -3.25480495e-01,
  -2.46076660e-01, -1.72368469e-01,  9.74506305e-01, -2.10691520e-01,
  -2.15490539e-01, -9.78411065e-01, -9.63966924e-01,  6.46600037e-02],
 [ 9.24225905e-01,  6.12258809e-01, -3.40617745e-01, -2.59363021e+00,
  -2.56009217e-01, -1.15411946e+00, -2.26154331e-01, -6.41490237e-01,
   7.90513227e-01, -9.17483364e-01,  2.48427689e-01, -1.62538955e+00,
   9.33732774e-01, -2.17520575e-01, -1.17060615e+00,  1.10290480e+00],
 [ 1.15690721e+00, -2.68987315e-01, -7.16931259e-01, -1.69288107e+00,
  -2.64711047e-01,  3.78940265e-01, -8.78820250e-01, -1.82929959e+00,
   8.07756257e-02,  2.81417232e-01, -3.77902998e-02,  1.17970682e+00,
   5.54554453e-02, -7.64083980e-01,  7.17851812e-01,  1.05197984e+00],
 [ 1.07684419e+00, -8.73568911e-01,  9.71507233e-01,  1.39285426e+00,
  -7.89225295e-01,  4.12232005e-01, -1.59672329e+00,  2.64184506e-01,
   1.27253610e+00, -7.04633563e-01,  4.38838520e-01,  1.09096741e+00,
   4.03779394e-01,  4.60728896e-01,  1.00097235e-02, -3.58619974e-01],
 [ 2.76657119e-01,  1.99911431e+00,  2.41442494e-01, -6.28406896e-01,
  -1.66164235e-02, -1.08023827e+00,  4.26394454e-01,  3.64045915e-01,
   9.88672136e-01, -4.40768279e-01,  1.46028524e+00,  1.08929640e+00,
   1.32423807e+00,  3.23721952e-01, -1.81910258e+00, -1.33016495e+00],
 [ 2.87482954e-01, -2.75183757e-01, -4.74037326e-01, -9.38489418e-01,
   8.90781726e-01,  1.52993627e+00, -1.38707198e-01,  5.79322222e-01,
  -4.35563938e-01, -7.52272663e-01, -6.52733044e-01, -3.20134658e-01,
   1.57521541e+00, -4.32754755e-01, -4.85103088e-01, -7.40470755e-01]]
W1: 
[[ 1.2384145 ,  0.53243206, -1.06685713,  0.90842994, -1.22246596,
   1.29580155, -1.85739686, -0.31647237,  0.90088343,  0.19928589,
   0.17426897,  0.43330767,  0.86105322, -1.52201682, -0.71225317,
  -0.88604305],
 [-0.68761049, -1.50924857, -1.63880328, -1.88673512,  0.21980669,
  -1.88912224, -1.66735312,  0.34818041,  1.37778507, -0.11605565,
   0.06614752,  1.28503361, -0.64220603,  1.00435205,  0.45270578,
  -0.65685465],
 [ 1.53715192,  0.17029459,  0.23736604, -1.36983868, -1.32150147,
  -1.54669517, -0.93610644, -0.15192709,  0.05513865, -0.31506568,
  -0.81844834,  0.08486911, -0.66452656,  0.46800874, -0.74658635,
   0.19606688],
 [-0.71191245,  0.38047165,  1.11227555,  0.60733125,  0.6321327 ,
   0.56390907, -1.15681145,  0.02168008, -1.50022868,  1.20911855,
  -2.01860275, -1.95732206,  1.76152166,  0.83777616, -0.63225055,
  -1.00781456],
 [ 0.72453235,  0.15864039,  1.44504859,  0.0274255 , -1.87848356,
   1.8356944 ,  0.06943449,  0.46525349, -1.31346547, -0.45979813,
  -0.5708436 ,  0.91131622,  1.19798139, -0.1419481 , -0.90498314,
  -0.31747512],
 [ 0.99835319,  0.19551916,  0.98259259, -0.33803355,  0.23999361,
   1.39774685, -0.85514662,  1.09798001, -0.95262443,  0.20861225,
  -0.46315651,  0.91009032,  0.54005036, -0.00899147, -0.58833345,
  -0.0289806 ],
 [-0.84409861,  2.2765104 ,  0.20219548,  0.1967737 ,  0.15788927,
   0.40569269, -1.19718938,  0.87578417,  0.16414398,  0.19110194,
  -0.27063277,  0.41300523,  1.5556478 , -0.81060352,  0.75795091,
  -0.56256491],
 [-1.20689143,  0.3196321 , -0.44372056,  1.58113808, -1.00622225,
  -0.28366913, -0.21775963,  1.04719523, -1.0741495 , -0.27415797,
  -0.47111685, -0.19266514,  1.45516228,  1.5060039 ,  1.61402339,
  -2.22307385],
 [ 0.05868662,  1.53872212, -0.22947239,  0.48717242, -0.469632  ,
  -1.47418941,  0.24802316, -0.98833166,  1.59860728,  1.10179897,
  -1.21138996, -0.62296618,  1.00120846, -0.90045166, -0.42239596,
  -1.55972109],
 [-0.99854012,  0.74002185, -0.04242692,  0.99459061, -0.23199722,
  -1.74021736,  1.98488287, -0.57756655,  0.45579441, -1.7679491 ,
   0.4168957 ,  0.2910636 ,  0.16641045,  2.9239909 ,  0.37716677,
   0.10350602],
 [ 1.29486   , -2.29750873, -1.17317055,  0.15784192, -0.83337255,
  -1.52078615, -0.02924882, -0.44315849,  0.47634661,  0.38754486,
   0.31853793,  0.63807294,  1.49730507,  0.11071116, -0.55096131,
   2.33691111],
 [ 0.38820234,  1.29008834, -0.16155826,  0.85992058,  1.22680973,
   0.50154657, -0.06190568,  0.16242526, -0.62558687, -1.50614595,
  -1.17567092, -1.17337882,  0.0598784 ,  0.50610861,  1.35601669,
  -0.48749334],
 [-0.3529816 , -2.77907912,  0.40434082,  0.18579708,  0.06688971,
   0.37093146,  0.72523614, -0.09161063, -0.09311167, -0.22309464,
   0.98310312,  1.58062998,  0.76716584, -0.88710587,  0.11007041,
  -1.10493818],
 [ 0.94653683,  1.070302  , -1.23305793,  1.20100957, -0.13624899,
   0.34153934,  1.56356169,  0.35090195, -1.05336218, -0.08762373,
  -1.48978382,  0.74945438,  0.25327913,  1.4743232 ,  0.76604991,
   1.60342111],
 [-0.45848792, -0.72084742, -1.3919159 , -2.11463289, -0.10073532,
  -1.35227393,  1.05090909, -1.00119414, -1.11950255, -0.7879254 ,
   1.97951481, -0.55961292,  0.1730039 ,  0.28107984,  2.02440186,
  -0.21368186],
 [-0.60372635, -0.11905391, -0.89938973,  1.10300343,  0.34694077,
  -0.06968542, -1.31068901, -1.76691514,  0.66614898,  0.79956776,
   3.01339812,  0.56168087, -1.40353773, -0.7255932 , -1.16935878,
   0.97880262]]
V: 
[[-0.43856916,  1.03918708, -0.79033196, -0.83921255, -0.43210427,
  -1.20257784, -0.69921403, -1.53873936, -0.76832459, -0.74605153,
   0.37902194,  1.2040809 , -1.51758725, -2.32725992, -0.46857084,
   0.09288901],
 [ 0.0589214 , -0.99307785,  1.24766824, -0.23162657,  0.07998727,
  -0.5720265 ,  0.54077083, -0.44850751,  0.783669  , -0.47770175,
  -0.43244757,  0.21312513, -1.00498374, -0.2145043 ,  0.00887119,
  -2.30446443]]
Ca the 1 
Position: (-23.56, -3.84)W: 
[[ 8.96076468e-01,  1.15800935e+00,  1.82766054e+00, -6.17544274e-02,
   2.56530785e-01,  1.39086029e-01, -1.82967019e+00,  9.91662850e-02,
  -7.31996969e-01, -1.25156452e+00,  1.93438128e-01,  1.19491158e+00,
  -1.43242442e+00,  1.94927875e+00,  1.16200023e+00,  1.60307175e+00],
 [ 2.33693833e+00,  6.71009014e-01,  9.05885712e-01, -2.60666224e-01,
  -9.73740353e-01,  3.73147081e-01,  6.36639703e-01,  1.28170748e+00,
   3.07625578e+00, -2.05870261e+00,  3.09406448e-01, -1.15521515e+00,
  -1.11279963e+00, -1.29332111e+00, -5.87522967e-01,  3.53919373e-03],
 [ 1.32523854e+00,  5.70076708e-01, -1.24135497e+00, -1.68107756e+00,
  -1.58317462e+00, -1.17468582e+00, -1.45169752e+00,  7.65244694e-01,
  -2.83229607e-01,  3.28274607e-01,  7.61915063e-01, -7.99364572e-01,
   1.05054119e+00,  7.55097219e-01,  5.91112979e-01,  1.59623432e+00],
 [-3.65586500e-01, -5.79680707e-01, -3.54438222e-01, -1.91183356e+00,
   8.34770108e-02,  2.21317058e-01,  3.05550391e-01, -6.67789651e-01,
   2.46170110e-01, -4.96331645e-01,  1.84425390e+00, -1.53360867e+00,
  -3.42853713e-02,  4.29158421e-01,  5.91827950e-01,  8.51088153e-01],
 [ 9.75719146e-01, -2.70870964e+00,  1.44138595e+00, -9.26106119e-01,
   1.16226624e+00, -1.23889742e+00, -1.05248397e-01,  1.03516013e-01,
   9.33381928e-01, -2.68215569e+00,  1.91917672e+00,  1.64647598e+00,
  -9.91904977e-01, -1.48035225e+00,  1.68865350e+00,  6.15715930e-01],
 [-1.42414065e+00,  1.22127956e+00,  1.83064342e-01, -1.75404931e+00,
  -1.25144859e-01,  7.99277657e-01,  2.23492252e+00,  1.28767665e-01,
   5.08461516e-01,  7.40002591e-01, -5.43491330e-01,  4.93504181e-02,
   1.72459267e+00,  7.84961645e-01,  7.44630902e-01, -1.08268284e+00],
 [ 2.00059132e-01,  8.16359547e-01, -1.05540834e+00, -7.37361694e-01,
   8.14928677e-01, -7.19221836e-01, -7.28605861e-01,  1.94157441e-01,
  -3.02120240e-01,  2.73984182e+00,  4.37368723e-01,  1.57086466e-01,
  -9.89594392e-01, -7.23695519e-01,  7.52785008e-01, -2.02454781e+00],
 [ 7.06313317e-01, -1.80350515e-01, -6.39271901e-01,  3.10354966e-01,
   6.17307913e-01,  1.50274180e+00,  1.49433428e+00,  1.41350212e+00,
   1.46119444e+00,  1.09617544e+00,  6.93684356e-01, -2.00422051e+00,
  -2.69499437e-01,  1.56553864e+00,  4.28990999e-01, -1.16751182e+00],
 [ 3.15570909e-01, -8.33358697e-01, -1.23765689e+00, -9.52729685e-02,
   5.03227215e-01,  1.98532250e+00, -4.55807488e-02, -1.76755774e+00,
  -3.79130642e-02,  4.73531170e-01,  1.05088000e+00,  3.06294452e-01,
  -1.94501442e+00, -3.57490489e-01,  1.65390823e-01, -1.10915510e+00],
 [-7.69050619e-01,  4.53555434e-02,  6.33531716e-01, -2.47509953e+00,
  -1.67573507e-02,  6.82464708e-01,  1.93395015e-01, -1.23372225e-02,
  -1.82362559e+00,  5.58851945e-01, -6.52573975e-02,  8.00251180e-01,
  -6.88044968e-01, -3.98245516e-01, -1.43148744e+00,  1.17946242e+00],
 [-9.59607464e-01, -1.25202524e+00,  1.11435786e+00, -1.02145091e+00,
  -1.56475364e+00,  1.54268860e-01,  1.61776961e+00, -1.12260924e+00,
   1.58613943e-01,  3.17052351e-01,  8.59315113e-02, -1.06791606e+00,
  -2.88689896e-01,  2.89429351e-03,  1.24010528e+00, -9.89331066e-02],
 [-1.16358758e+00, -1.54447427e-01,  1.14009723e+00, -2.10995228e-02,
   1.91410423e+00, -8.35102043e-01, -5.99646744e-01, -4.57441317e-01,
  -9.37323064e-01, -1.63804951e+00, -5.87591270e-01, -4.57909549e-01,
  -3.86383400e-01, -1.62386309e+00, -4.88337639e-01,  1.41461652e-01],
 [-4.97288472e-01, -1.66040854e-02,  3.65698409e-01, -1.21051922e-02,
   3.58413430e-01, -4.63102810e-01,  2.58751304e-02,  1.36761125e+00,
   3.71226333e-01, -1.52323536e-01, -1.06541643e-02, -1.42243881e+00,
   1.21678092e+00,  9.81318866e-01, -2.16855370e+00, -7.94059173e-01],
 [-8.54512693e-01,  5.41835170e-02,  1.19608040e+00,  2.59770119e-01,
   8.43197228e-01, -5.71263122e-01,  1.28583354e-01, -5.73790324e-01,
   5.18025137e-01,  5.52555623e-01, -3.75591223e-01, -6.44634409e-01,
   1.92151992e+00,  1.83803556e-01, -8.76481111e-01, -5.95218968e-01],
 [-9.80766409e-01,  4.36538034e-01, -1.02141967e+00, -6.92639454e-02,
   3.83613779e-01,  2.13390791e-01,  5.83382553e-01,  4.67541572e-01,
   7.02675676e-01, -6.71890141e-01,  1.39878070e+00, -1.17351482e+00,
  -3.61847722e-01,  8.07236693e-01,  1.01982801e-01,  2.66982782e-02],
 [ 3.61711356e-01,  4.13979621e-01, -1.53689933e-01, -8.38268513e-01,
  -3.32767537e-01, -3.24802028e-01,  2.90689057e-01,  8.73922338e-01,
  -1.65469640e+00,  8.84207213e-01, -3.36916864e-01, -2.12053090e+00,
  -6.34810983e-01,  9.49279539e-01,  1.04151135e+00, -3.98066886e-01]]
W1: 
[[ 4.02438364e-01, -2.46996509e-01, -1.12382759e-01,  3.36010699e-01,
   2.10678522e-01, -6.33530211e-01, -1.15003644e+00,  3.05239759e-01,
  -4.53219011e-01,  1.66250427e-01, -1.07476672e+00, -6.31477944e-01,
  -3.64306823e-01, -1.00249555e-01, -4.55928256e-01,  2.51498504e+00],
 [ 1.28495175e+00, -8.55897862e-01, -4.21182922e-01, -1.36867161e+00,
  -4.80160579e-02,  6.49837973e-01, -3.22525233e-01,  3.24011718e-01,
   9.35456248e-01, -1.51396431e+00, -1.47900317e+00,  6.38753935e-01,
   1.91830567e-01, -2.96844026e-01,  2.84396574e-01, -5.39543084e-01],
 [-7.54625903e-01,  1.45679113e-01, -1.70116287e-01,  1.95462151e+00,
   9.48901113e-01, -3.66996319e-01, -1.76679589e+00, -9.41862136e-01,
   1.60083648e-01,  1.34149732e+00, -1.31459868e-01,  7.07084654e-01,
  -6.20572538e-01, -1.56770990e-02, -1.10060662e+00,  2.63770021e-01],
 [-6.23678219e-01,  1.93803095e-01,  1.45033571e+00, -7.81452265e-02,
   2.70562353e-01, -2.10942384e-01,  2.00795277e-01,  3.97582123e-01,
  -1.08808254e+00,  1.21374409e+00, -1.65999251e+00,  1.74843884e+00,
   1.87999155e+00,  1.77091386e+00,  2.31303269e+00,  6.66975092e-01],
 [ 5.58763301e-01,  1.51726102e-01, -4.89035356e-01, -3.18265109e-01,
   5.36742187e-01,  5.45988854e-01,  1.49729372e+00, -1.75596979e-01,
   2.82259033e-01, -5.38156461e-01,  1.45552225e-01,  9.59264064e-01,
   1.07312618e+00, -9.90946666e-01, -5.11711964e-01, -2.16428015e-01],
 [ 1.24496727e-01, -7.37275101e-01, -6.14430325e-01,  1.70022466e+00,
   5.72878068e-01, -1.00935358e+00, -8.89579339e-01, -3.47989651e-01,
   5.95472989e-02,  1.00316757e+00,  8.62664575e-01, -3.45259042e-01,
  -2.36109905e+00,  4.80708326e-01, -1.16667839e+00, -9.37719160e-01],
 [-3.14780200e-01, -5.79653497e-01, -2.52729647e-01,  1.32492479e+00,
  -4.05041897e-01, -1.24337784e+00,  9.87784713e-01,  2.02846137e+00,
  -1.25481751e+00,  9.69592824e-01, -2.15363926e+00, -1.00142849e+00,
   1.05678304e+00, -5.17418656e-01,  3.15746980e+00, -7.92316135e-01],
 [ 4.04194145e-01,  1.16287058e+00,  8.03517089e-01,  6.59020427e-01,
  -8.49981144e-01, -1.17379798e+00,  1.62837735e-01,  3.37224679e+00,
   6.00447063e-01, -4.25642016e-01, -1.72482497e+00, -1.00748260e+00,
   1.96103795e+00, -1.50447172e-01,  4.51059260e-01,  8.84754094e-01],
 [ 2.63095620e-01,  6.21250310e-01,  1.05468161e+00,  1.34372825e-01,
   2.39609298e-01, -1.34772968e+00, -1.63055294e+00,  2.53698890e-01,
   1.22428648e+00, -2.20831020e-01,  6.54111025e-01,  3.89609999e-01,
  -5.77938774e-01, -1.39669373e-01,  5.79309855e-01,  1.44750182e+00],
 [ 6.42281871e-01,  1.88916583e-01, -8.87357567e-01,  7.84265503e-02,
  -1.36165571e+00,  1.11721705e+00, -9.73479141e-01,  2.57892855e+00,
  -1.41293475e-01,  4.89254633e-02,  1.19102545e-01,  2.02917652e+00,
   2.31170175e+00, -8.24668074e-01, -7.91764743e-02,  5.21280399e-01],
 [ 2.51600324e-01, -1.28224679e+00,  2.92860144e-01, -3.02015665e+00,
  -1.64289008e+00,  2.36577331e-01,  4.96526436e-02, -1.26050699e-01,
  -1.35408371e+00,  3.46928120e-01, -1.20851257e+00, -3.79579662e-01,
   7.87681271e-01, -8.69245299e-02, -1.14235183e+00, -1.94528869e+00],
 [-2.65270889e-01, -7.51335519e-01,  5.56267168e-01, -1.11878026e+00,
   4.29925183e-01,  3.83090777e-01,  6.07191197e-01,  1.86682958e-01,
  -1.22674124e+00, -4.68210249e-01, -8.68253730e-01, -8.01942979e-03,
   7.77269393e-01, -1.31338913e-01,  1.60855433e+00, -7.63953482e-01],
 [ 2.08927015e+00, -2.36868260e+00,  2.72534929e-01,  1.27227829e-01,
  -1.82913992e+00, -2.05120895e-01,  2.93300560e-01, -1.20783058e+00,
   3.23986503e-01, -2.61353040e-01, -7.64891920e-01,  4.79999628e-01,
  -6.82348566e-01, -8.88187140e-01,  1.95681131e+00,  1.33548130e+00],
 [ 7.21848389e-01,  2.59586648e+00,  1.47513890e+00,  5.11013435e-01,
   8.20183557e-01, -7.40463663e-04,  1.85725389e-01,  3.15173843e-01,
   3.46753200e-01, -1.00467107e+00,  2.36232149e+00,  2.47318005e-01,
   9.99488527e-01, -6.81007512e-01, -6.26969603e-01, -7.06352164e-01],
 [ 1.92553299e-01, -1.75503018e-01,  1.04244609e+00,  8.46890913e-01,
   8.54716815e-01,  5.46223037e-01,  7.85157515e-02, -1.01531220e+00,
   2.22208662e-01,  1.87239882e-02, -1.03562826e+00,  2.79122663e-01,
  -8.91097306e-01,  2.01040590e-02,  1.31982480e+00,  8.42949785e-01],
 [-9.00299313e-01, -2.24039453e+00,  6.68794870e-01,  3.10725665e-01,
  -2.60449556e-01,  1.78055052e+00,  2.67632627e-01,  2.58549863e-01,
  -7.75276713e-02, -4.11339562e-02,  2.11853369e+00, -1.82358915e+00,
   6.17524885e-01,  5.15094701e-01,  9.68927500e-01, -1.67003859e+00]]
V: 
[[-0.02955865, -0.48613787,  0.06828929, -0.49486564,  0.01563998,
  -0.96927241,  0.30506392, -2.40257502,  1.64077663, -1.11206696,
   1.45395982, -1.49546492, -0.182663  , -0.09089409, -0.96578426,
   0.79750898],
 [ 1.59987042,  0.33006592, -0.24636304,  0.94137329, -0.78715817,
   0.42563058,  0.34847184,  0.04082509, -0.62084383,  1.28015953,
  -1.00286996, -1.3473631 , -0.81017302,  0.72021408, -0.06166111,
   0.46700849]]
Ca the 2 
Position: (-14.79, 0.01)W: 
[[ 1.23672355e+00,  9.80603165e-02,  1.44408006e-02,  5.14577380e-01,
   1.06875650e+00,  1.41498143e+00, -9.01347201e-01, -9.80354688e-01,
  -1.20429680e-01, -3.58679883e-01, -3.59673814e-01,  2.71800903e-01,
   2.01724111e-01, -2.99737667e-01,  1.44438043e+00,  1.28999794e+00],
 [ 5.39360604e-01, -4.39724524e-01,  4.51810942e-01,  1.47733933e+00,
   1.31253017e+00, -1.01099840e-01, -2.31742457e+00, -1.20592882e+00,
  -1.02242592e+00,  3.27814983e-01,  2.15077145e+00,  1.95144669e-01,
   1.16268621e+00, -1.65074401e+00,  7.12669272e-01,  3.15520718e-01],
 [ 1.52905525e+00,  1.36782110e+00, -1.12572465e+00,  6.64826084e-01,
  -1.40623147e+00,  5.04913308e-01, -8.59982277e-01,  1.99937149e-01,
   2.67632111e-01, -1.43683985e+00,  9.60390333e-02, -1.54101292e+00,
  -3.11952131e-01,  7.91795420e-01,  5.41229777e-01,  4.64330123e-01],
 [ 3.13191787e-01,  6.63290655e-01, -7.62290751e-01, -3.36481041e+00,
  -2.77670034e-01,  4.89835372e-01,  2.92709566e-01, -1.89812849e+00,
   9.65308611e-01, -1.50629803e+00, -6.63328042e-01, -1.83252001e+00,
  -9.57785724e-01,  1.34343808e+00, -6.53544136e-01, -3.62847706e-01],
 [-1.00719107e+00,  5.80867190e-01,  2.45303110e-01,  1.28473181e+00,
  -5.21649006e-01,  1.76924532e+00, -2.38661053e-01,  7.87183863e-02,
  -1.13696104e+00,  3.62122346e-01,  1.09500747e-01,  1.58192957e-01,
  -7.19467930e-02, -7.47033950e-01, -6.52712550e-01,  1.98474455e-01],
 [-1.31417066e-01,  2.39294136e+00,  1.07401989e+00, -6.88970016e-01,
  -1.07311571e+00, -2.00235459e-01, -3.90603742e-02,  2.48194115e-01,
  -7.76357492e-01, -6.11463283e-01,  1.33634884e+00, -1.42567711e+00,
   2.01561682e-01, -1.53075784e+00,  4.37113349e-01,  2.65609498e-01],
 [ 1.45387790e-01,  3.05531200e-01,  6.18337906e-01,  8.90389568e-01,
  -2.86465896e-01, -1.39997136e+00,  6.94059100e-02, -3.55433571e-01,
  -3.70079622e-01,  1.06054070e+00, -2.59472098e-01, -1.30231803e-01,
   1.64728690e-01, -1.08843719e+00, -5.24827238e-01, -6.78083617e-01],
 [-7.02389984e-01, -4.23396662e-01,  1.51040635e+00,  8.16678408e-01,
  -1.29181447e+00,  1.16691753e+00,  1.76554125e+00,  1.26483036e+00,
  -1.17176833e-01, -1.11970308e+00, -1.50828193e-01,  9.94378783e-01,
   1.08307588e+00,  1.00295581e+00, -1.82590011e-01,  1.22927906e+00],
 [ 2.81172300e-01,  8.37841679e-01, -2.87399111e+00,  6.24825007e-01,
   4.26184511e-01,  2.57793268e+00, -1.88223621e-01, -1.15797130e+00,
  -1.57224770e+00, -3.36354742e-01, -1.86996927e-01,  5.85774178e-01,
  -1.48667901e+00, -1.17371669e+00,  1.17585640e+00, -7.29192779e-01],
 [ 3.58199426e-01, -2.31612590e-01, -1.37653452e-03,  8.74352089e-02,
  -8.56221433e-01, -9.42357405e-01, -4.62203189e-01,  4.49679217e-01,
   1.04942287e+00, -3.14942448e+00,  5.02636129e-01,  1.08505527e-01,
   1.63498611e+00,  5.73529803e-01,  9.81743741e-02,  5.23337865e-02],
 [ 8.83647586e-01, -3.52445628e-01,  1.11591203e+00, -6.97009993e-01,
   1.87294461e+00,  3.22236229e-01,  1.14854639e+00,  6.69585024e-02,
  -9.73907216e-01,  5.05161727e-01, -1.69925105e-01,  1.48858956e-01,
   9.93269568e-02, -7.27737736e-01,  4.40983556e-01, -7.76100360e-01],
 [ 9.21142881e-01,  1.34008306e+00,  7.50096099e-01,  2.44636182e-01,
   1.72594104e-01, -3.53013702e-01,  1.28233715e+00, -8.49626295e-01,
   8.46888819e-01,  1.41609210e+00,  5.50735599e-01, -6.73086105e-01,
   1.12624367e+00,  9.75676867e-01,  1.76105794e+00,  4.96678149e-01],
 [ 9.57169896e-01,  5.47184409e-02,  7.91419300e-01,  2.95864830e-01,
   7.77053768e-01, -2.34497139e-01,  7.26238057e-03,  6.91794423e-01,
  -1.06562943e+00, -5.16920990e-01,  2.13228028e-01, -2.47847257e+00,
   8.67458196e-01,  3.83030901e-01,  7.38685416e-01, -5.93125934e-02],
 [-8.40039610e-01,  1.14544951e+00,  1.42885685e+00, -1.46420809e-02,
   1.61404040e+00, -2.59981140e+00, -1.64209427e+00,  6.39526057e-01,
   9.58980920e-01, -5.02053762e-01, -4.25813332e-01,  1.22616149e+00,
  -1.27467595e+00,  3.03783132e-01,  4.82188145e-01, -7.35661862e-01],
 [ 4.52856913e-01,  1.12544479e+00, -2.76767712e-01, -1.22616702e-01,
   1.84976276e+00,  1.29775078e+00,  1.57287635e+00, -8.57064435e-01,
  -2.38908025e+00, -7.40196546e-01, -8.28321662e-01,  2.58624205e-01,
  -3.23712663e+00, -7.18403706e-01,  8.13141045e-01, -4.36951839e-01],
 [ 1.59154904e+00,  1.62173452e+00, -9.67626226e-01, -2.26532646e-01,
   2.99771108e-01,  7.90939654e-01, -1.07449969e+00,  3.09759767e-01,
  -6.38963596e-01, -3.18055780e-01,  1.15499814e+00,  5.17652878e-01,
   1.27712753e+00, -4.37551634e-01,  8.00842403e-02,  3.37711359e-01]]
W1: 
[[-1.31798332e+00,  5.08922381e-01, -1.02235939e+00, -3.18303910e-02,
  -1.17537377e+00,  1.15876819e+00, -5.39120071e-01,  1.00731549e+00,
  -1.21230760e-02,  7.73158382e-01,  3.72524400e-01, -1.22052737e+00,
  -1.58918136e+00, -5.57197330e-01,  1.58656974e-01, -1.02626319e+00],
 [ 2.34468862e-01,  4.74887560e-01, -1.80890831e+00, -1.88007314e-01,
   3.57763947e-01,  1.10589951e+00,  1.05254562e+00, -5.52295078e-01,
  -1.39365081e+00, -3.30082406e-01,  6.46741144e-01,  7.47482539e-01,
  -1.53706810e+00,  9.19416648e-01,  1.33809571e+00, -5.02200302e-02],
 [ 1.64169354e+00, -1.62336051e+00,  3.32579610e-01, -2.37692471e-01,
   5.91463630e-01,  1.16815679e-01,  5.53643599e-01, -7.00076215e-01,
  -1.12407977e+00,  1.09748597e+00,  1.59683381e-01, -9.03690235e-01,
   6.18401349e-01, -7.43711707e-01, -9.83174850e-01, -1.45064158e+00],
 [ 7.30927816e-01, -4.27456962e-01, -8.29036953e-01, -9.37136452e-02,
   8.18540993e-01, -6.86999338e-01,  3.10899310e-01,  4.53548566e-01,
   1.39340361e+00, -7.09166624e-01,  8.20196766e-01,  1.39925297e+00,
   1.73353085e-01,  2.00957533e-01, -2.15818110e-01, -2.66723710e-01],
 [-1.20857314e+00,  1.48809473e+00,  2.93527273e-01,  6.28813468e-02,
   3.54976145e-01, -2.10306689e-01, -1.20913993e+00, -1.34983305e+00,
  -5.48132635e-02, -6.44028360e-01,  1.78408629e+00,  4.45577768e-01,
  -4.24752973e-01, -1.17520044e+00,  7.97312128e-01,  3.49108786e-01],
 [ 1.02258728e+00,  8.67809026e-01, -2.50178978e-01,  7.49845683e-01,
  -1.20244916e-01,  6.27390771e-01,  2.08305317e-01,  7.86117255e-01,
   6.94354199e-01, -3.24895762e+00,  2.74080874e-03, -1.14778475e+00,
  -1.47785408e-01, -5.06139085e-01,  2.27252194e-03,  1.19601738e+00],
 [-4.60228827e-01,  3.39736542e-02, -8.97990241e-01,  3.52749658e-01,
  -2.26780914e+00,  1.14009555e+00, -2.16968894e-02,  1.51116039e+00,
  -3.96415072e-02,  5.07878687e-01, -2.24409702e+00,  1.00049454e-01,
   2.17436684e-02, -1.37499843e+00, -1.25629098e+00, -2.60572936e+00],
 [-8.48230005e-02, -3.69069531e-01,  1.18620814e+00, -4.52733346e-02,
  -6.03952588e-01,  1.65094845e+00, -2.47300508e+00,  4.32723722e-01,
  -2.43445581e-01,  4.72629288e-01,  1.89672877e-01,  6.73157826e-01,
   4.45151300e-01, -4.99136986e-01, -1.08294074e+00,  2.33000023e-01],
 [ 2.86168415e+00, -5.34352217e-01, -9.24872519e-02, -4.57631930e-01,
   1.73555111e+00,  5.29134843e-01,  4.85452265e-01, -3.17301871e-01,
   1.74537793e+00, -1.94672686e-02, -5.36197721e-01,  5.44717394e-01,
   3.23971320e-01,  3.27073469e-01, -6.82014493e-01, -1.32987662e+00],
 [-1.51712709e-01, -1.88482511e+00, -1.69450713e+00, -1.17532220e-01,
   2.18940939e+00,  1.50849414e+00, -1.75760886e-01, -8.31243693e-01,
  -6.03297039e-01, -4.83271248e-01, -1.10252932e-01,  9.18653149e-01,
  -1.41803970e+00, -8.90440788e-01,  1.03443586e+00,  4.08181511e-01],
 [-8.74447373e-01, -6.09079249e-01, -3.41129110e-01,  1.59914014e+00,
  -6.35822699e-01, -1.72168812e+00,  2.99209716e-01, -4.16644500e-01,
  -1.41418947e+00,  8.38961078e-01, -2.79459168e-01, -1.06164064e+00,
  -4.80365860e-01,  5.17374644e-02, -6.81527285e-01, -8.87906365e-03],
 [-9.36708362e-02,  1.19288222e-01, -1.34135810e+00,  6.35114787e-01,
  -3.21131234e-01,  3.06851082e-01,  2.78735590e-01, -9.68803600e-01,
  -3.41635460e-01, -5.19605521e-01, -2.22096859e-02,  6.99835177e-01,
   9.31847126e-04, -5.52799757e-01, -7.87123882e-01, -4.92144677e-01],
 [-3.16401103e-01,  2.53379549e+00,  5.94384332e-01,  9.56643371e-01,
  -8.43725969e-01,  7.47994032e-01, -1.85469138e+00,  1.61904013e-01,
   5.75568145e-02, -3.64246174e-01,  1.43538167e+00,  1.13517177e-02,
  -4.10373568e-01,  3.81935139e-01,  6.64286740e-01, -1.54603813e-01],
 [ 2.19437310e+00, -6.73880964e-01,  1.31826104e+00,  9.68299172e-01,
  -7.65347841e-01,  5.92021875e-01,  7.75487894e-01, -8.81643859e-01,
  -2.35205755e-01,  2.92209265e-01,  1.01728778e+00, -5.22029598e-02,
  -9.46683292e-01,  8.50946040e-03,  1.79475485e+00,  1.66576510e+00],
 [-6.73692145e-01,  2.39097607e-02, -8.51334153e-01,  1.79030105e+00,
  -8.28148300e-01,  3.64067680e-01,  5.72733825e-01,  8.23868182e-01,
   4.90595043e-01, -1.60479162e+00,  2.44783226e+00,  1.01482545e+00,
  -1.27712840e+00, -1.30257135e+00, -9.97598249e-01, -1.21183050e+00],
 [-7.83155794e-01,  2.68049325e-01,  7.62876600e-01, -1.84555884e-01,
   3.02564047e-01,  2.05063757e+00,  2.32729856e+00,  9.84289682e-01,
  -6.23967334e-01,  9.17288806e-01, -8.05809732e-01,  8.42604154e-01,
   1.16557775e+00,  9.44236689e-01,  1.22214229e-01, -4.60588960e-01]]
V: 
[[ 8.03766649e-01, -3.48906736e-01, -8.75839501e-01, -1.18216883e+00,
   2.57174275e-01,  1.10786674e+00, -5.97794161e-01, -1.02306088e+00,
  -2.78594899e-01,  5.83838503e-02, -3.21522099e-01,  1.99794921e+00,
  -4.17603989e-01,  1.11352939e+00,  8.50629869e-01, -1.36451639e-03],
 [-9.56116224e-01, -6.90948524e-01,  4.18719141e-01, -1.25858078e+00,
  -1.95533121e+00,  1.39420372e-01, -1.56206107e+00, -2.11153843e+00,
   5.35898082e-02,  1.41244112e+00, -7.44878303e-01,  6.13618542e-01,
   7.61334570e-01, -1.86490842e-01,  2.30729344e-01,  6.97754018e-01]]
Ca the 3 
Position: (-23.58, -4.52)W: 
[[-2.17152602, -0.62272401,  0.66404979,  0.01645577, -0.43990372,
  -0.26475654, -1.28423986, -1.02886267, -0.66006037, -1.09402791,
   1.43721609, -0.44342519, -0.01346929, -0.0108384 , -0.11064369,
   0.18814302],
 [ 0.06233514,  0.8984512 , -0.68432089, -2.01168632, -0.93714542,
  -1.61642064, -1.33506987, -0.91083177, -1.20212125,  0.61225385,
  -1.23842848, -1.2353004 ,  0.64695174, -0.03091705, -0.19172045,
  -0.59230063],
 [-0.51840619,  0.45769793, -1.56482203, -0.01785301, -0.27363033,
   2.51483084,  0.10757151,  0.96640687,  0.9542598 , -0.51113192,
  -0.20657341,  0.19647767, -0.1019806 , -1.38652616, -0.23818994,
  -1.60123169],
 [ 0.21238738,  0.54249665,  1.03489146, -1.10305013, -0.48710981,
  -0.283982  ,  0.69730913,  0.12482009,  0.74353005,  1.2681617 ,
  -0.6907288 , -1.01477296,  1.47939558, -0.36193521, -0.84688963,
  -0.89106885],
 [ 0.13743272, -0.63407099, -0.43211588,  0.41299032, -0.51720724,
   0.80659651, -0.67651174, -0.80540407, -1.1265307 , -0.76979598,
   0.63902208,  0.54155633, -0.39669247,  0.40313615,  1.59587893,
   1.64091654],
 [-0.49545304,  0.50477897, -0.19628084, -0.46534711, -0.36654066,
   0.76837087,  0.84624335, -0.20747604,  0.34377532,  0.82753098,
   0.35318546, -0.53269995,  0.4603438 , -1.7477488 , -2.2985814 ,
   0.81466592],
 [-1.61823526, -1.30936154,  0.73794538, -0.09544979, -1.19017506,
  -1.21927686,  1.86021019, -1.17819647, -1.82785056, -1.34936622,
   0.19365905, -1.13647312,  0.508838  , -0.06958697,  0.33096945,
  -0.10511114],
 [ 0.45469801,  0.79664071,  1.20603985,  0.05750604,  0.16146634,
   0.49955253, -0.32020621, -1.80182362,  0.94234666,  1.23831184,
  -0.15352737,  1.49534476, -0.41925324,  0.59370067,  1.08593867,
   0.75394949],
 [-0.45294955,  0.27337171,  0.39823175, -0.28938784,  0.27115751,
  -0.92769802,  0.15808985, -1.469046  ,  0.47385876, -3.37407737,
   1.99896625, -0.91103766,  1.48743629, -2.01657887,  0.35559962,
   0.50581934],
 [ 1.27599621, -0.01786958, -1.54538247,  0.39929725, -0.71986209,
   0.55286569,  1.68890515, -1.46478671, -2.11554687, -1.668421  ,
   0.65729853, -0.01616365,  1.44207046, -0.11983317, -1.51858743,
   1.03185698],
 [ 0.48240547,  2.58975129, -0.09559267, -0.32067349, -1.02202845,
   0.3161443 , -0.38181419, -1.61995587, -1.64408386,  0.92830539,
   0.03919868, -0.01122666, -0.83188441, -0.28326849,  0.02111355,
   0.18552178],
 [ 1.06210274,  2.7397241 , -1.39653912,  1.15923003, -0.20670535,
  -0.84761195, -0.67800878,  0.97375783,  1.6058757 ,  1.11539293,
   0.90685154, -0.90205124, -0.47665401, -0.21371122,  0.25182051,
   1.50174786],
 [ 0.16943348, -0.24913437, -0.22781064,  0.4272877 ,  0.92033125,
   0.9500062 ,  0.83959943,  0.47419786,  0.90627141, -0.22159324,
  -0.56216505,  0.49782067,  0.55692398, -0.34882027,  1.84102437,
   0.42498289],
 [-0.33364099,  1.10372692,  1.14229597,  0.81573947, -0.92641857,
   0.12163782,  0.64874077, -2.32259071,  0.43042338, -0.85307408,
   0.30008613, -0.39509049, -0.47210109,  0.33549778, -0.65040598,
   2.40089434],
 [ 1.1001609 , -1.65711377, -1.12807379, -0.10664735,  0.38942444,
  -0.60496209, -0.15117385, -0.1534901 ,  0.08985077, -0.5845868 ,
   1.26719826, -1.75098553,  0.02074531,  0.13495014,  2.25746384,
   0.7894509 ],
 [ 0.30887516, -0.59565195, -0.83171776, -0.10784972,  0.01979048,
  -0.61296429, -0.45884089,  1.33713615,  1.23160401, -0.16599677,
  -0.47266166, -1.17110251,  1.55995351,  1.00501924, -1.55876106,
  -0.24966732]]
W1: 
[[-0.59746935, -2.72767229, -0.78498057, -0.99378188, -0.66577674,
  -0.94447941, -1.50537138, -0.08970094, -1.05920462, -0.46717708,
  -0.09991576,  0.13090557,  1.70328568,  1.72678895, -0.35142885,
  -0.300813  ],
 [-0.29377474,  1.19372796, -0.03300371, -0.73172717,  0.36267648,
  -0.91486149, -0.66329624, -2.04997929,  0.24697569,  1.10383983,
  -1.00975602,  0.4544629 ,  0.68610864, -0.04087343,  1.09131281,
  -0.45914245],
 [-1.00223209, -0.50628139,  0.12027436,  0.02696159, -0.46805176,
  -1.17881907, -0.75548624, -0.49223779, -1.29422277,  0.10416934,
  -0.02982396,  0.13719551,  1.648732  ,  1.27989697,  1.26933918,
   0.61950371],
 [ 1.26489487,  0.22096113, -0.15566413,  0.09828728,  1.57896416,
  -0.50410185, -0.84596013,  0.93392192, -0.35125872,  0.49337935,
  -1.14828551, -0.0123092 , -1.75044168,  0.21578409, -1.84378371,
  -2.00543811],
 [ 0.71876306,  0.62056521, -0.13066929,  0.96366088,  1.18826161,
   1.57547483, -0.7840312 , -0.16829155, -0.18586767, -0.9619945 ,
   0.23701434,  0.82074167,  0.54480784,  1.35203345,  1.86533878,
  -0.63425716],
 [-1.85497041, -0.11872641, -0.58199366, -0.63019667,  0.54981456,
   0.72854248,  0.06148081, -0.32423225,  0.96595316, -1.13205218,
  -3.527637  , -2.25256478,  0.92933135,  1.3001423 , -0.03536528,
  -0.16952219],
 [ 1.03713696, -1.08863993,  1.8759209 , -0.62808749, -0.29909716,
   2.26285497, -0.42457853, -0.87270413,  0.21524294,  0.06650908,
   0.14086168, -1.37070515, -0.48815901, -0.181089  , -0.09667805,
  -0.74819561],
 [-0.40476778,  0.47086769,  1.29779754, -1.32672885,  0.71445205,
   1.13132833, -1.72008295, -0.13251284,  1.15299474,  1.01093803,
   0.45261331,  0.14998163,  1.33274197,  0.45184964, -0.59522383,
  -0.92436241],
 [ 1.67383634, -0.30417004,  1.59824527, -0.21771008, -0.74307024,
   1.67573521,  0.39933278, -1.70209705, -0.43073933, -0.25534463,
  -1.0816346 , -0.11423671, -0.88247785,  0.24065104, -0.47650248,
   0.82818923],
 [ 0.21216305,  0.86427995,  1.3145365 ,  0.75883497, -2.69627191,
  -1.7065885 , -1.77089569,  0.42236557, -0.32217313, -0.30107057,
  -0.53715165, -1.09005883, -0.08098338, -0.69626857, -0.24737962,
  -0.57982179],
 [-1.79628642,  0.26237538, -0.21985563, -1.32409971, -0.11702126,
  -0.75604407, -0.62162244, -0.28908272,  0.19102714, -1.29862344,
  -0.06287876,  0.37422739, -0.63082961,  0.20230125, -0.12369297,
   0.61617186],
 [-1.15308248, -1.18208729, -0.99866458,  0.25508077,  0.02660975,
   0.18298219, -1.43280312, -0.78340709,  0.16263602, -0.34850032,
  -0.38466912, -1.52395189, -0.78679121, -1.2038874 ,  1.74237407,
  -0.09489308],
 [-1.40581307, -0.55012597, -0.01767829,  1.61647942, -0.22932751,
   2.11613807,  0.26972291, -0.0627252 , -1.31568302, -0.23225791,
  -0.40048643, -0.42943307,  0.18267583,  0.04101649, -0.32129614,
   0.27897529],
 [ 0.62608828,  0.69099378,  1.56949148,  0.03352963, -0.02992091,
   0.27935701, -0.37093404, -1.08396247,  1.70371279,  2.55474958,
  -0.24540421, -0.03032701,  1.75112978, -0.20724674, -0.93564767,
   0.21712324],
 [ 0.92026749,  1.12417437, -0.15213658,  0.07705699,  0.65609437,
  -0.93007096,  0.24252201,  0.29969878, -1.070653  , -2.44297154,
   0.95145532,  0.97070383,  1.78769481,  0.71730613,  0.07816048,
  -1.18481253],
 [ 0.14678102, -0.50052653, -1.49402205,  0.63031556, -1.10445985,
   0.46780032,  0.60169072, -0.2436986 ,  1.63793577, -0.7562565 ,
  -0.60673493, -0.91167306,  0.25511199, -1.11222768, -1.94029424,
   1.92737743]]
V: 
[[ 0.56651892,  0.84505922, -0.55449288,  0.76401371,  0.76578525,
   0.39224544, -0.58124063,  0.54054746, -0.63559849, -0.47788487,
   0.29123048, -2.17944014,  0.17563716, -1.75167665, -2.06362849,
   0.06882134],
 [ 1.66535364, -0.68003755, -0.90994851, -3.97041977,  0.36533887,
   1.4622223 , -0.62778316,  0.10994851, -1.73073166, -1.99823889,
  -0.28992859, -0.60236857,  0.42198869, -0.28882826, -2.76514221,
   0.43885455]]
Ca the 4 
Position: (-14.88, -0.72)W: 
[[-2.13000575e-02, -9.05097380e-01, -1.29736065e+00,  8.37146016e-02,
   4.89592888e-01,  5.14036156e-01,  2.98283044e-01, -3.39170180e-02,
  -1.16239603e+00,  7.36492160e-01, -8.68882509e-01,  2.93993320e+00,
  -6.13675288e-01,  1.99992706e+00,  6.11036175e-01,  3.67763298e-01],
 [ 1.89824729e+00, -1.09978569e+00,  8.72864452e-01,  1.59437324e+00,
   4.81153077e-01, -1.23165559e+00,  2.59183645e+00,  9.78190041e-01,
  -5.11317004e-01,  3.86384387e-01,  5.59924078e-01,  3.82348544e-01,
   1.13433548e+00,  6.79107125e-01,  4.67352947e-01, -2.00946721e+00],
 [-1.62268403e+00,  8.34330914e-01, -8.24139811e-02, -1.38658402e+00,
   4.47291610e+00, -5.03277076e-01, -1.91653530e+00,  1.29124024e+00,
  -6.59637854e-01,  2.28180064e-01, -1.29414430e+00, -1.06781549e-01,
  -6.32109286e-01,  2.63338146e-01,  2.29481332e-01,  1.34920651e+00],
 [ 8.81097092e-01,  3.85586179e-01,  1.19965209e+00, -1.19860473e+00,
   1.41360328e-01,  4.51943913e-01, -2.28575955e-02,  1.02509228e+00,
   1.27350748e+00, -1.06932415e+00,  9.23973263e-01,  1.77875962e+00,
  -1.56692373e+00, -5.64092388e-04, -9.31731758e-01,  1.25834917e-01],
 [-9.53318447e-01,  1.60680306e+00, -9.89475938e-01, -8.08837738e-01,
  -6.77819194e-01,  4.99190676e-01,  4.98755197e-02,  7.10154315e-01,
  -1.80870141e+00, -7.44022136e-01, -6.48345344e-01, -1.09209494e+00,
   5.42105661e-02,  1.27817585e-01, -6.76891507e-01, -2.65664987e-01],
 [ 3.17945519e-01,  4.68149911e-01,  2.37909238e+00,  1.18992472e+00,
   1.31770956e+00, -8.66533069e-02, -8.09693351e-01, -6.79431459e-01,
   7.22115775e-01, -1.44143720e+00,  2.67807776e+00,  1.20397372e+00,
  -3.76365181e-02,  6.29005160e-01, -2.12741804e-01, -8.02740944e-01],
 [-7.18497633e-01, -2.05524581e-01,  3.21131215e-01,  6.37384798e-01,
   4.06865572e-01, -4.19494638e-01,  1.57015588e+00, -1.43447242e-01,
  -3.49663156e-01,  5.93294573e-01, -6.68500263e-02,  1.33296796e+00,
   6.94730660e-01,  6.23634997e-01,  9.03223960e-02, -8.79824513e-01],
 [ 7.83524704e-01,  6.22976984e-01,  5.57946052e-01, -1.89059619e+00,
   1.02702985e+00,  4.71544092e-01,  2.93101688e-01, -7.63878669e-01,
   1.01236329e+00, -7.02811816e-01, -6.36997349e-01, -9.65175639e-01,
   4.86154989e-01, -1.84487271e-01,  5.00216005e-01, -8.43263545e-01],
 [-8.11611638e-01, -9.99080232e-01,  7.81239857e-01, -3.07626235e-01,
  -8.40307691e-02,  1.86601339e+00, -8.67559203e-01, -9.04716315e-01,
   1.29921597e+00,  4.53545034e-01, -1.43861065e+00,  5.67038791e-01,
  -9.16233111e-02, -1.23903542e+00, -1.22808578e-01, -8.29355268e-01],
 [ 1.00712180e+00,  6.84553439e-01,  4.49932148e-03,  4.20039891e-01,
  -1.27891713e+00,  6.11241730e-01,  5.73962210e-01,  1.22233955e+00,
   9.19127835e-03, -2.96525129e-01,  8.59438927e-01,  8.75349428e-01,
  -4.10570801e-01, -5.16701998e-01,  1.29274195e-01,  5.81254725e-01],
 [-8.28318972e-01,  8.31047788e-01,  3.23009621e-01, -1.19736267e+00,
  -1.13012945e+00, -1.69105180e+00, -2.25484426e+00, -1.44910604e+00,
  -1.13175960e-01,  6.65422183e-01,  1.24345337e-01,  1.61597221e-01,
   1.46813361e-01, -4.27421548e-01, -5.07108118e-01, -2.45366483e-01],
 [-1.70965705e+00, -1.07845349e+00, -6.59291325e-01, -1.63191784e-01,
  -7.68159059e-01,  3.72210224e-01,  3.57194113e-01, -2.90697872e-01,
   3.75802017e-01,  1.13195398e-01,  1.68426854e+00,  1.31925650e+00,
   2.01827487e+00, -2.35806469e+00,  1.28281228e+00, -2.83601388e-01],
 [ 3.83068846e-01, -8.50522823e-01,  1.02470216e+00,  7.69631597e-01,
   1.10022827e+00, -1.89214958e+00, -3.07777045e-01, -4.11255318e-01,
  -4.85797051e-01,  9.65176926e-03,  3.47928589e-01, -6.81132324e-01,
   4.92412258e-01,  2.75813894e-01,  9.48769276e-01,  5.31912023e-01],
 [ 4.95759051e-01,  4.99476009e-01,  1.29547800e+00, -1.59192574e+00,
  -2.99152810e-01,  1.48169285e+00,  9.07057721e-01,  6.95654459e-01,
   2.09315232e+00, -6.09092864e-01,  1.71780462e-01, -4.04648859e-01,
   5.80292114e-01,  1.46821993e+00,  1.70803597e+00,  7.16596183e-01],
 [ 3.60495449e-01,  1.96289600e-01,  1.79287601e-01,  1.76875138e-01,
  -3.33783655e-01, -1.14988787e+00, -8.49534863e-01, -9.53665841e-01,
  -2.65144982e-01,  1.39686775e+00, -4.43066074e-02, -1.10706058e+00,
   2.79486591e-01,  9.48326285e-01,  5.42714520e-01, -8.12449886e-01],
 [-1.39994053e+00,  5.23575817e-01,  3.12917403e-03,  1.32832270e+00,
   1.34978065e+00,  1.40960783e+00, -4.52747966e-02, -3.90160042e-01,
   1.05038993e-01,  2.70587956e-01,  1.56734906e+00, -9.28653428e-01,
   3.94203732e-02, -8.12941421e-02, -1.26336745e+00, -1.70977183e+00]]
W1: 
[[ 5.42124664e-01,  1.63345208e+00, -1.85664665e-01, -5.33885461e-01,
   1.25028025e-01,  2.87081425e-01, -4.03512036e-02,  3.24249657e-01,
   1.86157507e+00,  9.63313563e-01,  7.41263097e-01, -1.73944049e+00,
   3.97618582e-01, -9.36864881e-01, -7.30634257e-01, -2.13737973e-02],
 [ 5.89370297e-01, -5.48239258e-03,  3.50313559e-01, -1.07486949e+00,
   6.44024823e-01, -8.24259031e-01,  4.42514831e-01, -6.61298615e-01,
   7.22926590e-01, -2.16595058e-01,  1.19195512e+00, -1.79566344e-01,
   7.65806433e-01, -5.52797767e-02, -3.88944711e-02,  1.16817312e+00],
 [-1.37670940e+00, -5.96488676e-01, -1.70604449e+00, -1.12216959e+00,
   5.84920472e-01,  6.94179131e-01, -5.79723852e-01,  5.94902757e-02,
   1.00639738e+00,  1.15181839e-01, -5.14090911e-02,  4.81394839e-01,
  -3.13355043e-01,  1.66314072e-01, -6.97366446e-02, -4.35781014e-01],
 [ 1.17226799e+00,  4.50814504e-01, -1.01733459e+00, -4.01844041e-01,
  -6.12720991e-01, -2.29581888e-01,  1.42225180e+00,  2.17844494e+00,
  -1.41328982e+00,  2.71888315e-01, -2.17892406e+00,  1.46114940e+00,
   9.59120070e-01,  6.59617609e-01, -2.90726025e+00, -3.86151122e-01],
 [ 2.23260670e+00, -9.67061814e-01,  3.01882081e-01, -2.62442802e-01,
   4.34739400e-02,  2.10878107e+00,  3.45285062e-01,  9.12254363e-01,
  -6.92946239e-01,  3.95131958e-01, -2.91687269e-01,  5.29406203e-01,
   7.10134264e-01, -3.47231993e-01, -1.82561304e+00, -3.13141870e-01],
 [ 4.66873401e-01,  9.27021544e-01,  7.12842145e-01,  9.04305919e-01,
   9.35229931e-01, -1.10580353e+00, -1.13412294e-01, -1.48767407e+00,
   1.17673554e+00, -9.05122546e-01,  7.98352205e-01, -9.88270059e-01,
  -2.44931688e+00,  5.69857629e-02,  4.28958911e-03,  1.48031792e+00],
 [ 1.01671945e+00,  3.81376324e-01, -1.23534920e+00,  2.42236894e-01,
   1.09903414e+00,  2.34992651e+00, -4.99699063e-01, -5.37287703e-01,
  -4.91679999e-01,  1.33513626e-01,  4.10597902e-01,  1.07242739e+00,
   2.34628047e-01, -8.26172470e-01, -9.00748522e-01, -5.35245292e-01],
 [ 3.94585331e-01,  1.28189966e+00,  4.60404152e-01, -1.09835925e+00,
  -1.18707348e+00,  9.12193545e-01, -1.22857741e+00, -8.99536972e-01,
  -8.39708270e-01, -8.94984496e-01, -7.40703494e-01,  1.04311180e+00,
  -1.04495203e-01, -5.82842023e-01, -5.76030603e-01, -2.51755133e-01],
 [-1.09755379e+00, -2.34618459e+00,  1.18505762e+00,  6.12470631e-02,
  -8.37690239e-01,  8.23013357e-01, -1.92119687e-01,  1.31905222e-01,
  -3.09449294e-01,  1.04846535e+00,  1.19798250e+00,  6.22611790e-01,
   4.53147498e-01,  8.31152028e-01,  4.98715740e-01, -3.30831295e-01],
 [-5.80005952e-01, -1.12376132e+00,  3.30040182e-01,  9.32292630e-01,
  -3.79323794e-01, -9.13447398e-02, -2.04460665e+00,  5.59536113e-01,
   5.67153211e-01, -1.02653992e+00,  6.18346950e-02, -1.50450080e+00,
  -8.01705534e-01, -1.63398114e-01, -7.98548890e-02,  4.81630390e-01],
 [-3.36225096e-01,  1.16628184e+00, -3.73553743e-01, -1.75513677e-01,
  -6.73594241e-01,  7.75457058e-02,  7.52085664e-01,  1.03983572e+00,
  -7.33705887e-01, -7.98297125e-01, -1.60004299e-01, -5.40969552e-01,
   2.01670128e+00, -1.54061743e-01,  9.35174739e-01, -6.71206990e-01],
 [-1.94312266e+00, -2.18258996e+00, -2.70159450e+00, -1.04984505e-01,
  -1.55952643e+00, -1.53234655e+00, -8.53875399e-01,  1.01181890e+00,
   9.82908796e-01, -4.65361304e-01,  4.27806498e-01, -5.59441399e-01,
   3.55796164e-01,  1.53471616e-01, -1.19580743e+00,  2.90816871e-01],
 [-8.80643141e-02, -9.23157388e-01,  1.47650836e+00,  8.31513386e-01,
  -5.60569448e-01,  3.75491933e-01,  1.67093217e-01, -1.23219161e+00,
   8.58409032e-01,  8.42708723e-01, -4.23929606e-01,  1.86145869e-01,
  -3.31699997e-01, -1.67380570e+00,  1.48277842e+00,  2.49202249e-01],
 [ 1.14358496e-01,  6.17699224e-01, -3.32299472e-01, -8.43458694e-04,
  -4.77580362e-01, -6.32117287e-01,  1.00615001e+00,  1.82030199e+00,
   1.45849450e+00,  2.75140792e-01, -1.27436348e+00,  3.22091863e-01,
   9.68589664e-01, -1.00974187e+00,  4.67954105e-01, -1.23161963e-01],
 [-8.27414506e-02,  8.11848147e-01,  2.45117984e-01,  1.15029467e+00,
  -2.13740060e-01,  6.10479673e-01,  5.14867812e-01, -1.30942099e+00,
   1.22528561e+00, -7.85377695e-02, -1.85766135e+00, -5.79696259e-01,
   1.23086458e+00,  1.20857927e+00,  1.61171775e+00,  1.52886005e+00],
 [-2.27399561e-01,  1.62226478e+00,  2.99267478e-01,  9.91948780e-01,
  -9.57290004e-01, -8.91261410e-01, -3.36270442e-01,  4.80081892e-01,
   7.81902630e-01,  1.08618558e+00, -1.48138435e+00, -2.62119379e-01,
   1.40910837e+00,  9.49982254e-01,  3.92168960e-01, -1.53833417e+00]]
V: 
[[-0.31140318, -0.22476655,  0.64002656, -1.70192216, -0.13902408,
  -0.32342552, -1.09454823, -0.46526612,  0.61450967, -0.04842753,
   0.48795913, -0.55782151,  0.90067897, -0.02662489, -1.13889254,
   0.13658895],
 [-0.25820586,  0.18345908, -0.93144649, -0.85934201,  0.21655267,
   0.35424754,  0.22575915, -1.27517222, -0.35036922,  0.55637647,
  -0.91877728,  0.95191199, -0.76811777,  2.37581942, -0.02025684,
  -0.33630216]]
Ca the 5 
Position: (-10.44, -0.45)W: 
[[ 8.47699218e-01,  3.98254657e-01, -3.53896695e-01, -2.87910299e-01,
   6.29319245e-01, -1.70339144e-01, -3.98019534e-01, -1.05092957e+00,
   4.82878191e-01, -8.18203092e-01,  2.61206075e+00, -2.88217556e-01,
   1.64118281e+00, -1.69569744e+00, -7.22729923e-02,  6.75908861e-01],
 [ 3.17700213e-01,  1.88507651e+00, -4.42880417e-01, -5.48188239e-01,
  -5.42420840e-01, -6.93490566e-01, -1.23313674e+00,  9.11052997e-01,
   1.54598838e-01, -1.55788562e+00, -1.16594617e+00,  1.16751034e+00,
   7.37521621e-01,  1.26990950e-01,  6.36980884e-01, -1.70170925e+00],
 [-6.62644506e-01, -1.31549957e+00,  9.73668829e-01,  1.20326612e+00,
  -2.23167553e+00,  1.95224889e-01,  1.35269726e+00,  1.19174012e-01,
   4.06365833e-01,  7.01891857e-01,  4.21893237e-01,  1.64286296e+00,
  -8.23295304e-02, -5.68534532e-01,  1.23539155e+00,  5.61125037e-01],
 [-9.45597910e-01, -1.23897680e+00, -1.23687166e+00, -2.00794324e-01,
  -3.99806727e-02,  3.70595476e-01, -1.20260697e+00, -1.76413921e+00,
   1.75679068e+00, -1.51875626e+00, -6.51980044e-01, -1.17184381e+00,
   7.77393734e-01,  1.75253998e-01,  1.86689678e+00, -1.05761670e+00],
 [-1.64492756e-01,  3.29871023e-01,  1.27356278e-01,  2.68259799e-02,
  -1.29418258e-03, -5.65099002e-01, -8.02161593e-01,  2.74457648e-01,
   9.17987245e-01,  2.33834168e+00,  6.44192145e-01, -1.76249950e+00,
   1.28545901e+00, -1.97097961e+00, -1.22721415e+00, -1.69769009e+00],
 [-4.23862506e-01, -1.72765938e+00, -1.22174924e+00,  7.20913516e-01,
  -1.74382765e-01,  1.37597055e+00,  1.68278635e-01,  7.95346195e-01,
  -3.63135473e-01,  2.10797997e-02,  7.02819214e-01, -8.06832649e-01,
   1.10673309e+00, -5.55467075e-01,  3.62403228e-01, -4.60865693e-01],
 [ 4.58968679e-01, -3.11004857e-01, -1.17371073e+00,  2.43446978e-02,
  -4.56687777e-01,  1.57299294e+00,  1.56890933e+00,  2.29476920e+00,
  -2.24096990e-01,  1.60878092e+00,  1.95698728e+00,  6.29624953e-01,
  -8.13809481e-01, -1.12811877e-01, -2.31922206e+00,  1.81254741e+00],
 [-4.51886316e-01,  1.78181507e+00,  1.89771528e+00,  1.69666210e+00,
   5.73699478e-01, -1.06737901e+00,  5.00532022e-01,  2.10714415e-01,
  -9.67899741e-01, -3.87356718e-01, -1.13662275e-01,  7.41376722e-01,
   6.31515177e-01, -4.89646273e-01, -9.89901420e-01, -2.71228163e-01],
 [ 8.94557453e-01,  8.08575989e-01,  4.68056367e-01,  6.08147191e-01,
   1.24471930e+00, -8.21091286e-01, -7.19205477e-01,  8.99839966e-01,
   7.55678988e-01, -1.43138615e-01, -1.52703800e+00, -3.87906618e-01,
   2.02689997e+00, -1.12503643e+00, -1.02535538e-01,  1.27047571e+00],
 [ 2.33564843e+00, -9.34818414e-01,  7.41349785e-01,  6.09189332e-01,
  -1.94199067e+00, -4.73837877e-01, -7.25370179e-01, -1.76818019e+00,
   6.04885592e-01,  1.28136234e+00,  9.68029109e-03, -1.55834753e-01,
   8.72236882e-01, -6.17420477e-01, -3.55720098e-01, -9.17655166e-01],
 [ 1.81416128e+00, -3.15161626e-01, -1.82182261e-01, -1.98158530e+00,
   8.37385897e-01, -2.85379558e-01,  6.18154381e-01,  2.07014898e-01,
  -7.01592075e-01, -1.06720417e+00, -4.10683865e-02, -7.66387065e-01,
   5.07177899e-01,  2.06002755e+00, -8.99895261e-01,  1.06590553e+00],
 [ 1.11634892e+00,  5.14105096e-01,  1.18867037e+00, -2.12103163e-01,
  -3.35827444e-01, -7.35634824e-02,  5.03147149e-01,  4.17106995e-01,
   1.25671948e+00, -1.02138495e+00,  1.06784864e+00, -5.57645431e-01,
   4.92341011e-01, -2.42024796e+00, -1.27259965e+00,  1.42599203e+00],
 [ 1.28011243e+00, -2.33976405e-01,  1.78837771e-01, -6.67791122e-01,
   6.31352317e-01, -8.51480170e-01,  1.14768765e-01,  4.11106523e-01,
   6.32218874e-01, -6.69870178e-01,  7.41869068e-01, -4.53619945e-01,
  -1.35549221e+00, -3.69942509e-01,  5.22482611e-01,  8.25444213e-01],
 [-7.67920623e-01,  9.14372511e-01,  1.45959399e-01,  4.26586647e-01,
  -1.91215236e+00, -1.40714067e+00, -2.83628106e+00, -8.52616481e-01,
   8.96497632e-01, -1.76817916e+00, -1.87109678e-01, -1.06992165e+00,
  -4.59672974e-01, -2.55464120e-01,  1.45566534e+00,  1.51766539e+00],
 [-1.87167596e+00, -2.30957654e-01,  1.19642383e+00,  2.17132793e-03,
  -1.10096794e+00, -1.03474086e+00,  1.26314938e-01,  1.67917654e+00,
   4.03757807e-01,  9.65474354e-01,  1.43558622e+00, -7.99258059e-01,
   2.76748375e-01,  3.34042606e-02, -1.63969778e-02, -1.07836770e+00],
 [-5.28609694e-01, -2.33722531e-01, -3.46798674e-02, -7.91744978e-01,
  -3.46237781e-01, -9.15884346e-01, -4.52452724e-01,  2.33958948e+00,
   2.29030291e-01, -2.55299997e-01, -4.63998109e-01,  2.46786496e+00,
  -1.10807439e+00,  1.23412316e+00,  1.34543735e+00,  6.28573709e-01]]
W1: 
[[-0.72092898, -0.20064599,  0.22709128,  1.96356563, -0.28329355,
   1.15259953,  1.44228234,  0.70372408,  1.16216214, -1.52841143,
  -0.44796727,  0.21730998,  1.11527928,  0.0796184 ,  0.44672992,
  -0.63680063],
 [ 0.17665704, -0.80210595,  0.20200619,  0.17938171,  1.86215392,
   0.5118582 ,  0.38445242, -0.33354474, -0.62961433,  0.5794638 ,
   1.25924682,  2.95431389,  1.32132563,  1.17337606, -0.45336204,
   1.51432157],
 [ 0.58714549, -1.37266175, -0.36401193, -1.66263067, -1.95747   ,
   0.53072014, -0.64539179,  0.20183937, -0.37036494,  0.95350726,
   0.00372234, -0.439987  , -0.55502934, -0.14804058,  1.87812453,
  -1.42510686],
 [-0.63462936,  0.11064736, -1.23487193, -1.32702363, -0.06500287,
  -0.38997482,  0.83524664, -1.46258868, -0.28024742, -0.6172855 ,
   0.34225736, -0.58279056,  0.53183391,  0.38068512,  0.26978343,
   0.24045111],
 [ 0.37330554, -0.32381541,  1.40939234,  0.17892636,  1.36723614,
  -0.93966739, -0.4323991 , -1.08249033,  0.6266235 ,  1.26173894,
  -1.12487045, -0.38957601, -1.65006677, -0.9707847 , -0.14080241,
  -1.09857214],
 [ 0.37662362, -0.89493698,  0.35385621,  1.1600138 ,  0.83866673,
  -0.11862373,  2.02918554,  1.6952263 , -0.15444942, -1.20551976,
   1.75659924,  1.17259311,  3.07310884, -1.01740501, -0.5566221 ,
   0.0486656 ],
 [ 1.02315879,  1.91311899, -0.29741452, -0.23982104, -0.37735081,
  -0.6675005 , -0.59903371,  0.62814918,  0.1920635 ,  0.23410985,
   0.69869046, -0.50058153,  1.07681029, -1.20267534, -0.68380851,
   0.92169757],
 [-0.00791882,  0.60414563, -0.27458011,  1.44029299,  1.93758123,
   0.13954175, -0.83652709, -0.33198601,  1.34929907, -1.07289653,
   1.50426897,  0.08130246,  0.07497933,  1.79878498, -0.86092208,
   0.20529856],
 [-1.59730261, -0.22920965, -0.68273358, -0.05173609,  1.75948778,
  -0.88119499, -0.93721699,  0.14033304,  0.21163629, -0.17102218,
   0.02918819,  2.597724  , -0.91951335,  0.89597681, -2.16533058,
  -1.00115393],
 [ 0.93811462,  0.20666546, -0.09929975, -0.75081121, -0.52215238,
   1.80976535, -1.01323046,  0.24810181, -1.88736893, -1.22141709,
   0.29515155,  0.03520339, -1.04315213, -0.72889883,  0.58671975,
  -0.00844477],
 [-0.87608208, -0.64458178,  0.02749206, -0.98812902,  0.01182937,
   0.09822521, -0.98386259,  0.71716784,  0.92974343,  0.55617191,
  -0.85105765,  1.17818771, -0.11178033,  0.12689325, -0.87145444,
  -1.60548082],
 [ 1.1658076 ,  0.20649956,  0.62695333,  0.91557819,  0.58254247,
  -1.71779523,  0.60061371,  1.01403222, -1.31024544, -1.47208805,
   0.62024272,  0.16599903,  0.57982356,  1.45194238, -0.86396124,
   0.62349363],
 [-0.38006679,  0.18703155,  0.52250166,  0.46005635,  1.45545098,
   0.72997674, -0.88454592,  0.56579445,  1.36522414, -0.34145041,
  -0.23698141, -0.32458828,  0.02991541, -0.14531149, -0.33718873,
   1.30009573],
 [-0.01338307, -1.18769284, -0.49319063,  0.92369356, -0.67520027,
   0.32154112,  0.83498105, -0.0721076 ,  0.76259765,  0.0712349 ,
   1.02685909,  0.9303467 , -0.39836285, -1.01733613, -0.65506596,
   1.67691913],
 [ 0.03978575, -0.22133923,  0.4124779 , -1.72688528, -1.09891915,
   0.40656772,  0.79324561, -0.71025294,  0.20603889, -0.96166417,
   1.00740825, -0.69134019,  2.34029649,  0.52021655, -0.77401938,
  -0.2469616 ],
 [ 1.40244695,  2.32142332,  0.26820969,  0.80661395, -1.98609472,
   0.67818012, -0.6277766 ,  0.98450636, -3.22552122,  0.89372839,
  -0.25716508, -0.66130885,  1.46249647, -0.82648363, -0.27869273,
  -0.47212187]]
V: 
[[ 0.62390733, -0.63791398,  1.08427835, -0.87316476,  1.20113478,
   0.44533029, -0.88668718, -0.94220026,  0.33768102, -1.75985005,
   1.77642658, -0.02697883, -0.46556469, -0.3754671 , -0.90314476,
  -0.23141352],
 [-0.58411747,  0.02883618,  0.13877306,  0.01551382,  1.29956146,
   0.17797539,  0.27310237,  1.28855891,  1.72454337, -2.1144995 ,
   0.70304807,  0.53736774, -0.77116351, -0.65879891, -1.42975409,
  -2.35381027]]

the he thu: 2:
Ca the 0 
Position: (-10.37, 0.08)W: 
[[ 1.23672355e+00,  9.80603165e-02,  1.44408006e-02,  5.14577380e-01,
   1.06875650e+00,  1.41498143e+00, -9.01347201e-01, -9.80354688e-01,
  -1.20429680e-01, -3.58679883e-01, -3.59673814e-01,  2.71800903e-01,
   2.01724111e-01, -2.99737667e-01,  8.89216814e-01, -1.37951820e+00],
 [ 5.39360604e-01, -4.39724524e-01,  4.51810942e-01,  1.47733933e+00,
   1.31253017e+00, -1.01099840e-01, -2.31742457e+00, -1.20592882e+00,
  -1.02242592e+00,  3.27814983e-01,  2.15077145e+00,  1.95144669e-01,
   1.16268621e+00, -1.65074401e+00,  5.95562350e-01, -1.72385257e+00],
 [ 1.52905525e+00,  1.36782110e+00, -1.12572465e+00,  6.64826084e-01,
  -1.40623147e+00,  5.04913308e-01, -8.59982277e-01,  1.99937149e-01,
   2.67632111e-01, -1.43683985e+00,  9.60390333e-02, -1.54101292e+00,
  -3.11952131e-01,  7.91795420e-01,  5.65615526e-01,  4.62589421e-01],
 [ 3.13191787e-01,  6.63290655e-01, -7.62290751e-01, -3.36481041e+00,
  -2.77670034e-01,  4.89835372e-01,  2.92709566e-01, -1.89812849e+00,
   9.65308611e-01, -1.50629803e+00, -6.63328042e-01, -1.83252001e+00,
  -9.57785724e-01,  1.34343808e+00, -3.86719608e-01,  1.68963743e-01],
 [-1.00719107e+00,  5.80867190e-01,  2.45303110e-01,  1.28473181e+00,
  -5.21649006e-01,  1.76924532e+00, -2.38661053e-01,  7.87183863e-02,
  -1.13696104e+00,  3.62122346e-01,  1.09500747e-01,  1.58192957e-01,
  -7.19467930e-02, -7.47033950e-01, -7.45012772e-01,  8.22040479e-01],
 [-1.31417066e-01,  2.39294136e+00,  1.07401989e+00, -6.88970016e-01,
  -1.07311571e+00, -2.00235459e-01, -3.90603742e-02,  2.48194115e-01,
  -7.76357492e-01, -6.11463283e-01,  1.33634884e+00, -1.42567711e+00,
   2.01561682e-01, -1.53075784e+00,  4.59166988e-01,  8.77977418e-01],
 [ 1.45387790e-01,  3.05531200e-01,  6.18337906e-01,  8.90389568e-01,
  -2.86465896e-01, -1.39997136e+00,  6.94059100e-02, -3.55433571e-01,
  -3.70079622e-01,  1.06054070e+00, -2.59472098e-01, -1.30231803e-01,
   1.64728690e-01, -1.08843719e+00, -7.13189459e-01,  2.40563908e+00],
 [-7.02389984e-01, -4.23396662e-01,  1.51040635e+00,  8.16678408e-01,
  -1.29181447e+00,  1.16691753e+00,  1.76554125e+00,  1.26483036e+00,
  -1.17176833e-01, -1.11970308e+00, -1.50828193e-01,  9.94378783e-01,
   1.08307588e+00,  1.00295581e+00,  1.25410909e+00, -2.69316307e-01],
 [ 2.81172300e-01,  8.37841679e-01, -2.87399111e+00,  6.24825007e-01,
   4.26184511e-01,  2.57793268e+00, -1.88223621e-01, -1.15797130e+00,
  -1.57224770e+00, -3.36354742e-01, -1.86996927e-01,  5.85774178e-01,
  -1.48667901e+00, -1.17371669e+00, -2.02906722e-01,  1.65856940e+00],
 [ 3.58199426e-01, -2.31612590e-01, -1.37653452e-03,  8.74352089e-02,
  -8.56221433e-01, -9.42357405e-01, -4.62203189e-01,  4.49679217e-01,
   1.04942287e+00, -3.14942448e+00,  5.02636129e-01,  1.08505527e-01,
   1.63498611e+00,  5.73529803e-01,  7.94413344e-01, -6.40991051e-02],
 [ 8.83647586e-01, -3.52445628e-01,  1.11591203e+00, -6.97009993e-01,
   1.87294461e+00,  3.22236229e-01,  1.14854639e+00,  6.69585024e-02,
  -9.73907216e-01,  5.05161727e-01, -1.69925105e-01,  1.48858956e-01,
   9.93269568e-02, -7.27737736e-01, -9.63966924e-01,  6.46600037e-02],
 [ 9.21142881e-01,  1.34008306e+00,  7.50096099e-01,  2.44636182e-01,
   1.72594104e-01, -3.53013702e-01,  1.28233715e+00, -8.49626295e-01,
   8.46888819e-01,  1.41609210e+00,  5.50735599e-01, -6.73086105e-01,
   1.12624367e+00,  9.75676867e-01, -1.17060615e+00,  1.10290480e+00],
 [ 9.57169896e-01,  5.47184409e-02,  7.91419300e-01,  2.95864830e-01,
   7.77053768e-01, -2.34497139e-01,  7.26238057e-03,  6.91794423e-01,
  -1.06562943e+00, -5.16920990e-01,  2.13228028e-01, -2.47847257e+00,
   8.67458196e-01,  3.83030901e-01,  7.17851812e-01,  1.05197984e+00],
 [-8.40039610e-01,  1.14544951e+00,  1.42885685e+00, -1.46420809e-02,
   1.61404040e+00, -2.59981140e+00, -1.64209427e+00,  6.39526057e-01,
   9.58980920e-01, -5.02053762e-01, -4.25813332e-01,  1.22616149e+00,
  -1.27467595e+00,  3.03783132e-01,  1.00097235e-02, -3.58619974e-01],
 [ 4.52856913e-01,  1.12544479e+00, -2.76767712e-01, -1.22616702e-01,
   1.84976276e+00,  1.29775078e+00,  1.57287635e+00, -8.57064435e-01,
  -2.38908025e+00, -7.40196546e-01, -8.28321662e-01,  2.58624205e-01,
  -3.23712663e+00, -7.18403706e-01, -1.81910258e+00, -1.33016495e+00],
 [ 1.59154904e+00,  1.62173452e+00, -9.67626226e-01, -2.26532646e-01,
   2.99771108e-01,  7.90939654e-01, -1.07449969e+00,  3.09759767e-01,
  -6.38963596e-01, -3.18055780e-01,  1.15499814e+00,  5.17652878e-01,
   1.27712753e+00, -4.37551634e-01, -4.85103088e-01, -7.40470755e-01]]
W1: 
[[-1.31798332e+00,  5.08922381e-01, -1.02235939e+00, -3.18303910e-02,
  -1.17537377e+00,  1.15876819e+00, -5.39120071e-01,  1.00731549e+00,
  -1.21230760e-02,  7.73158382e-01,  3.72524400e-01, -1.22052737e+00,
  -1.58918136e+00, -5.57197330e-01,  1.58656974e-01, -1.02626319e+00],
 [ 2.34468862e-01,  4.74887560e-01, -1.80890831e+00, -1.88007314e-01,
   3.57763947e-01,  1.10589951e+00,  1.05254562e+00, -5.52295078e-01,
  -1.39365081e+00, -3.30082406e-01,  6.46741144e-01,  7.47482539e-01,
  -1.53706810e+00,  9.19416648e-01,  1.33809571e+00, -5.02200302e-02],
 [ 1.64169354e+00, -1.62336051e+00,  3.32579610e-01, -2.37692471e-01,
   5.91463630e-01,  1.16815679e-01,  5.53643599e-01, -7.00076215e-01,
  -1.12407977e+00,  1.09748597e+00,  1.59683381e-01, -9.03690235e-01,
   6.18401349e-01, -7.43711707e-01, -9.83174850e-01, -1.45064158e+00],
 [ 7.30927816e-01, -4.27456962e-01, -8.29036953e-01, -9.37136452e-02,
   8.18540993e-01, -6.86999338e-01,  3.10899310e-01,  4.53548566e-01,
   1.39340361e+00, -7.09166624e-01,  8.20196766e-01,  1.39925297e+00,
   1.73353085e-01,  2.00957533e-01, -2.15818110e-01, -2.66723710e-01],
 [-1.20857314e+00,  1.48809473e+00,  2.93527273e-01,  6.28813468e-02,
   3.54976145e-01, -2.10306689e-01, -1.20913993e+00, -1.34983305e+00,
  -5.48132635e-02, -6.44028360e-01,  1.78408629e+00,  4.45577768e-01,
  -4.24752973e-01, -1.17520044e+00,  7.97312128e-01,  3.49108786e-01],
 [ 1.02258728e+00,  8.67809026e-01, -2.50178978e-01,  7.49845683e-01,
  -1.20244916e-01,  6.27390771e-01,  2.08305317e-01,  7.86117255e-01,
   6.94354199e-01, -3.24895762e+00,  2.74080874e-03, -1.14778475e+00,
  -1.47785408e-01, -5.06139085e-01,  2.27252194e-03,  1.19601738e+00],
 [-4.60228827e-01,  3.39736542e-02, -8.97990241e-01,  3.52749658e-01,
  -2.26780914e+00,  1.14009555e+00, -2.16968894e-02,  1.51116039e+00,
  -3.96415072e-02,  5.07878687e-01, -2.24409702e+00,  1.00049454e-01,
   2.17436684e-02, -1.37499843e+00, -1.25629098e+00, -2.60572936e+00],
 [-8.48230005e-02, -3.69069531e-01,  1.18620814e+00, -4.52733346e-02,
  -6.03952588e-01,  1.65094845e+00, -2.47300508e+00,  4.32723722e-01,
  -2.43445581e-01,  4.72629288e-01,  1.89672877e-01,  6.73157826e-01,
   4.45151300e-01, -4.99136986e-01, -1.08294074e+00,  2.33000023e-01],
 [ 2.86168415e+00, -5.34352217e-01, -9.24872519e-02, -4.57631930e-01,
   1.73555111e+00,  5.29134843e-01,  4.85452265e-01, -3.17301871e-01,
   1.74537793e+00, -1.94672686e-02, -5.36197721e-01,  5.44717394e-01,
   3.23971320e-01,  3.27073469e-01, -6.82014493e-01, -1.32987662e+00],
 [-1.51712709e-01, -1.88482511e+00, -1.69450713e+00, -1.17532220e-01,
   2.18940939e+00,  1.50849414e+00, -1.75760886e-01, -8.31243693e-01,
  -6.03297039e-01, -4.83271248e-01, -1.10252932e-01,  9.18653149e-01,
  -1.41803970e+00, -8.90440788e-01,  1.03443586e+00,  4.08181511e-01],
 [-8.74447373e-01, -6.09079249e-01, -3.41129110e-01,  1.59914014e+00,
  -6.35822699e-01, -1.72168812e+00,  2.99209716e-01, -4.16644500e-01,
  -1.41418947e+00,  8.38961078e-01, -2.79459168e-01, -1.06164064e+00,
  -4.80365860e-01,  5.17374644e-02, -6.81527285e-01, -8.87906365e-03],
 [-9.36708362e-02,  1.19288222e-01, -1.34135810e+00,  6.35114787e-01,
  -3.21131234e-01,  3.06851082e-01,  2.78735590e-01, -9.68803600e-01,
  -3.41635460e-01, -5.19605521e-01, -2.22096859e-02,  6.99835177e-01,
   9.31847126e-04, -5.52799757e-01, -7.87123882e-01, -4.92144677e-01],
 [-3.16401103e-01,  2.53379549e+00,  5.94384332e-01,  9.56643371e-01,
  -8.43725969e-01,  7.47994032e-01, -1.85469138e+00,  1.61904013e-01,
   5.75568145e-02, -3.64246174e-01,  1.43538167e+00,  1.13517177e-02,
  -4.10373568e-01,  3.81935139e-01,  6.64286740e-01, -1.54603813e-01],
 [ 2.19437310e+00, -6.73880964e-01,  1.31826104e+00,  9.68299172e-01,
  -7.65347841e-01,  5.92021875e-01,  7.75487894e-01, -8.81643859e-01,
  -2.35205755e-01,  2.92209265e-01,  1.01728778e+00, -5.22029598e-02,
  -9.46683292e-01,  8.50946040e-03,  1.79475485e+00,  1.66576510e+00],
 [-6.73692145e-01,  2.39097607e-02, -8.51334153e-01,  1.79030105e+00,
  -8.28148300e-01,  3.64067680e-01,  5.72733825e-01,  8.23868182e-01,
   4.90595043e-01, -1.60479162e+00,  2.44783226e+00,  1.01482545e+00,
  -1.27712840e+00, -1.30257135e+00, -9.97598249e-01, -1.21183050e+00],
 [-7.83155794e-01,  2.68049325e-01,  7.62876600e-01, -1.84555884e-01,
   3.02564047e-01,  2.05063757e+00,  2.32729856e+00,  9.84289682e-01,
  -6.23967334e-01,  9.17288806e-01, -8.05809732e-01,  8.42604154e-01,
   1.16557775e+00,  9.44236689e-01,  1.22214229e-01, -4.60588960e-01]]
V: 
[[ 8.03766649e-01, -3.48906736e-01, -8.75839501e-01, -1.18216883e+00,
   2.57174275e-01,  1.10786674e+00, -5.97794161e-01, -1.02306088e+00,
  -2.78594899e-01,  5.83838503e-02, -3.21522099e-01,  1.99794921e+00,
  -4.17603989e-01,  1.11352939e+00,  8.50629869e-01, -1.36451639e-03],
 [-9.56116224e-01, -6.90948524e-01,  4.18719141e-01, -1.25858078e+00,
  -1.95533121e+00,  1.39420372e-01, -1.56206107e+00, -2.11153843e+00,
   5.35898082e-02,  1.41244112e+00, -7.44878303e-01,  6.13618542e-01,
   7.61334570e-01, -1.86490842e-01,  2.30729344e-01,  6.97754018e-01]]
Ca the 1 
Position: (-23.56, -3.84)W: 
[[ 1.00242337e-01, -1.25965574e+00, -4.29936912e-01,  1.95511610e-01,
   2.38254788e-03, -5.28492247e-01, -7.18340080e-01, -4.58577378e-02,
   1.17621970e+00, -1.12023496e+00, -8.99874914e-01, -5.52580517e-01,
   2.60592485e+00, -2.04857054e+00,  1.44438043e+00,  1.28999794e+00],
 [ 1.02918240e+00,  1.21113942e+00, -6.47432713e-01, -2.98255654e-01,
  -9.89084772e-01, -1.54771355e+00,  7.89174915e-01,  7.16294402e-01,
   2.93447745e-01, -2.70253743e-01,  1.14900530e+00, -1.01068627e+00,
   1.11016582e+00,  5.74645466e-01,  7.12669272e-01,  3.15520718e-01],
 [-4.61091118e-01, -1.98938971e+00,  5.73143644e-01, -5.91914999e-01,
  -5.90435749e-01,  8.07534029e-01, -4.19523489e-01, -5.79130654e-01,
   1.26675581e+00,  2.07559437e+00, -5.36497483e-01, -3.32443271e-01,
   3.50112642e-01, -9.72974506e-01,  5.41229777e-01,  4.64330123e-01],
 [ 1.67175297e+00, -1.32751652e+00, -1.25268134e+00, -1.39365161e+00,
   2.67734810e-01, -1.54960570e+00, -5.31373744e-01,  1.79656353e+00,
   5.36684974e-01, -8.86358935e-01, -1.01521126e+00,  2.50350414e-01,
   3.59817363e-01,  9.32995269e-01, -6.53544136e-01, -3.62847706e-01],
 [-6.01581971e-01,  3.41415348e-01,  8.98098292e-01,  2.84309340e-01,
  -6.67358225e-01, -7.25762259e-01,  3.97621011e-01, -1.00233238e+00,
  -1.04526228e+00, -4.33849381e-01,  1.16408410e-01, -7.35505888e-01,
   9.00310757e-01,  1.08952743e+00, -6.52712550e-01,  1.98474455e-01],
 [-6.69058172e-02, -1.38029788e-01,  8.86908436e-02, -3.50284125e-01,
  -1.29570143e+00, -2.26591055e+00,  2.31188676e-01, -3.23690346e-02,
  -5.12411757e-01, -5.13594450e-02, -6.76113082e-01,  6.27470555e-01,
  -6.98198348e-01, -3.03893025e-02,  4.37113349e-01,  2.65609498e-01],
 [-1.08455405e+00, -1.30225723e+00,  1.93451928e-02, -3.21775988e-01,
  -4.10579198e-01,  9.13080764e-01,  6.73461218e-01, -6.84153203e-01,
   3.11973792e-01, -1.34551281e-01,  1.12091148e+00,  2.17344493e-01,
  -7.07470856e-01,  2.60569983e+00, -5.24827238e-01, -6.78083617e-01],
 [ 9.82298301e-01, -9.16606407e-01, -1.44924924e+00, -1.02067162e-01,
  -3.62398747e-01,  5.50589568e-02, -1.26972011e-01,  1.74603351e-01,
  -1.10838137e+00,  5.61981959e-01, -1.97223283e+00, -9.36795465e-02,
   2.26461408e+00,  1.05326761e+00, -1.82590011e-01,  1.22927906e+00],
 [-1.47817364e-01,  1.02209849e+00, -3.19933843e-01,  3.43904111e-01,
   2.50897655e-01,  1.07704821e+00, -1.98692473e-01, -6.20210616e-01,
  -1.11980604e-01, -1.41667008e+00, -8.53505606e-01, -2.01059783e-02,
   5.37676280e-01,  1.20233433e-01,  1.17585640e+00, -7.29192779e-01],
 [-1.81685152e+00,  2.29859449e-01,  8.91192988e-01,  1.97037004e-01,
   3.06350353e-01, -1.92394716e+00, -1.95866471e-01,  2.35276646e-01,
  -1.38858895e-01,  8.92956687e-01,  1.52104630e+00,  1.22307968e+00,
   7.07797689e-01,  1.24276356e+00,  9.81743741e-02,  5.23337865e-02],
 [-1.19740909e-01, -1.35608589e-01,  1.74382869e+00,  9.57977383e-02,
   6.89802950e-01, -4.67070250e-01, -1.06925769e-01, -3.25480495e-01,
  -2.46076660e-01, -1.72368469e-01,  9.74506305e-01, -2.10691520e-01,
  -2.15490539e-01, -9.78411065e-01,  4.40983556e-01, -7.76100360e-01],
 [ 9.24225905e-01,  6.12258809e-01, -3.40617745e-01, -2.59363021e+00,
  -2.56009217e-01, -1.15411946e+00, -2.26154331e-01, -6.41490237e-01,
   7.90513227e-01, -9.17483364e-01,  2.48427689e-01, -1.62538955e+00,
   9.33732774e-01, -2.17520575e-01,  1.76105794e+00,  4.96678149e-01],
 [ 1.15690721e+00, -2.68987315e-01, -7.16931259e-01, -1.69288107e+00,
  -2.64711047e-01,  3.78940265e-01, -8.78820250e-01, -1.82929959e+00,
   8.07756257e-02,  2.81417232e-01, -3.77902998e-02,  1.17970682e+00,
   5.54554453e-02, -7.64083980e-01,  7.38685416e-01, -5.93125934e-02],
 [ 1.07684419e+00, -8.73568911e-01,  9.71507233e-01,  1.39285426e+00,
  -7.89225295e-01,  4.12232005e-01, -1.59672329e+00,  2.64184506e-01,
   1.27253610e+00, -7.04633563e-01,  4.38838520e-01,  1.09096741e+00,
   4.03779394e-01,  4.60728896e-01,  4.82188145e-01, -7.35661862e-01],
 [ 2.76657119e-01,  1.99911431e+00,  2.41442494e-01, -6.28406896e-01,
  -1.66164235e-02, -1.08023827e+00,  4.26394454e-01,  3.64045915e-01,
   9.88672136e-01, -4.40768279e-01,  1.46028524e+00,  1.08929640e+00,
   1.32423807e+00,  3.23721952e-01,  8.13141045e-01, -4.36951839e-01],
 [ 2.87482954e-01, -2.75183757e-01, -4.74037326e-01, -9.38489418e-01,
   8.90781726e-01,  1.52993627e+00, -1.38707198e-01,  5.79322222e-01,
  -4.35563938e-01, -7.52272663e-01, -6.52733044e-01, -3.20134658e-01,
   1.57521541e+00, -4.32754755e-01,  8.00842403e-02,  3.37711359e-01]]
W1: 
[[-1.31798332e+00,  5.08922381e-01, -1.02235939e+00, -3.18303910e-02,
  -1.17537377e+00,  1.15876819e+00, -5.39120071e-01,  1.00731549e+00,
  -1.21230760e-02,  7.73158382e-01,  3.72524400e-01, -1.22052737e+00,
  -1.58918136e+00, -5.57197330e-01,  1.58656974e-01, -1.02626319e+00],
 [ 2.34468862e-01,  4.74887560e-01, -1.80890831e+00, -1.88007314e-01,
   3.57763947e-01,  1.10589951e+00,  1.05254562e+00, -5.52295078e-01,
  -1.39365081e+00, -3.30082406e-01,  6.46741144e-01,  7.47482539e-01,
  -1.53706810e+00,  9.19416648e-01,  1.33809571e+00, -5.02200302e-02],
 [ 1.64169354e+00, -1.62336051e+00,  3.32579610e-01, -2.37692471e-01,
   5.91463630e-01,  1.16815679e-01,  5.53643599e-01, -7.00076215e-01,
  -1.12407977e+00,  1.09748597e+00,  1.59683381e-01, -9.03690235e-01,
   6.18401349e-01, -7.43711707e-01, -9.83174850e-01, -1.45064158e+00],
 [ 7.30927816e-01, -4.27456962e-01, -8.29036953e-01, -9.37136452e-02,
   8.18540993e-01, -6.86999338e-01,  3.10899310e-01,  4.53548566e-01,
   1.39340361e+00, -7.09166624e-01,  8.20196766e-01,  1.39925297e+00,
   1.73353085e-01,  2.00957533e-01, -2.15818110e-01, -2.66723710e-01],
 [-1.20857314e+00,  1.48809473e+00,  2.93527273e-01,  6.28813468e-02,
   3.54976145e-01, -2.10306689e-01, -1.20913993e+00, -1.34983305e+00,
  -5.48132635e-02, -6.44028360e-01,  1.78408629e+00,  4.45577768e-01,
  -4.24752973e-01, -1.17520044e+00,  7.97312128e-01,  3.49108786e-01],
 [ 1.02258728e+00,  8.67809026e-01, -2.50178978e-01,  7.49845683e-01,
  -1.20244916e-01,  6.27390771e-01,  2.08305317e-01,  7.86117255e-01,
   6.94354199e-01, -3.24895762e+00,  2.74080874e-03, -1.14778475e+00,
  -1.47785408e-01, -5.06139085e-01,  2.27252194e-03,  1.19601738e+00],
 [-4.60228827e-01,  3.39736542e-02, -8.97990241e-01,  3.52749658e-01,
  -2.26780914e+00,  1.14009555e+00, -2.16968894e-02,  1.51116039e+00,
  -3.96415072e-02,  5.07878687e-01, -2.24409702e+00,  1.00049454e-01,
   2.17436684e-02, -1.37499843e+00, -1.25629098e+00, -2.60572936e+00],
 [-8.48230005e-02, -3.69069531e-01,  1.18620814e+00, -4.52733346e-02,
  -6.03952588e-01,  1.65094845e+00, -2.47300508e+00,  4.32723722e-01,
  -2.43445581e-01,  4.72629288e-01,  1.89672877e-01,  6.73157826e-01,
   4.45151300e-01, -4.99136986e-01, -1.08294074e+00,  2.33000023e-01],
 [ 2.86168415e+00, -5.34352217e-01, -9.24872519e-02, -4.57631930e-01,
   1.73555111e+00,  5.29134843e-01,  4.85452265e-01, -3.17301871e-01,
   1.74537793e+00, -1.94672686e-02, -5.36197721e-01,  5.44717394e-01,
   3.23971320e-01,  3.27073469e-01, -6.82014493e-01, -1.32987662e+00],
 [-1.51712709e-01, -1.88482511e+00, -1.69450713e+00, -1.17532220e-01,
   2.18940939e+00,  1.50849414e+00, -1.75760886e-01, -8.31243693e-01,
  -6.03297039e-01, -4.83271248e-01, -1.10252932e-01,  9.18653149e-01,
  -1.41803970e+00, -8.90440788e-01,  1.03443586e+00,  4.08181511e-01],
 [-8.74447373e-01, -6.09079249e-01, -3.41129110e-01,  1.59914014e+00,
  -6.35822699e-01, -1.72168812e+00,  2.99209716e-01, -4.16644500e-01,
  -1.41418947e+00,  8.38961078e-01, -2.79459168e-01, -1.06164064e+00,
  -4.80365860e-01,  5.17374644e-02, -6.81527285e-01, -8.87906365e-03],
 [-9.36708362e-02,  1.19288222e-01, -1.34135810e+00,  6.35114787e-01,
  -3.21131234e-01,  3.06851082e-01,  2.78735590e-01, -9.68803600e-01,
  -3.41635460e-01, -5.19605521e-01, -2.22096859e-02,  6.99835177e-01,
   9.31847126e-04, -5.52799757e-01, -7.87123882e-01, -4.92144677e-01],
 [-3.16401103e-01,  2.53379549e+00,  5.94384332e-01,  9.56643371e-01,
  -8.43725969e-01,  7.47994032e-01, -1.85469138e+00,  1.61904013e-01,
   5.75568145e-02, -3.64246174e-01,  1.43538167e+00,  1.13517177e-02,
  -4.10373568e-01,  3.81935139e-01,  6.64286740e-01, -1.54603813e-01],
 [ 2.19437310e+00, -6.73880964e-01,  1.31826104e+00,  9.68299172e-01,
  -7.65347841e-01,  5.92021875e-01,  7.75487894e-01, -8.81643859e-01,
  -2.35205755e-01,  2.92209265e-01,  1.01728778e+00, -5.22029598e-02,
  -9.46683292e-01,  8.50946040e-03,  1.79475485e+00,  1.66576510e+00],
 [-6.73692145e-01,  2.39097607e-02, -8.51334153e-01,  1.79030105e+00,
  -8.28148300e-01,  3.64067680e-01,  5.72733825e-01,  8.23868182e-01,
   4.90595043e-01, -1.60479162e+00,  2.44783226e+00,  1.01482545e+00,
  -1.27712840e+00, -1.30257135e+00, -9.97598249e-01, -1.21183050e+00],
 [-7.83155794e-01,  2.68049325e-01,  7.62876600e-01, -1.84555884e-01,
   3.02564047e-01,  2.05063757e+00,  2.32729856e+00,  9.84289682e-01,
  -6.23967334e-01,  9.17288806e-01, -8.05809732e-01,  8.42604154e-01,
   1.16557775e+00,  9.44236689e-01,  1.22214229e-01, -4.60588960e-01]]
V: 
[[ 8.03766649e-01, -3.48906736e-01, -8.75839501e-01, -1.18216883e+00,
   2.57174275e-01,  1.10786674e+00, -5.97794161e-01, -1.02306088e+00,
  -2.78594899e-01,  5.83838503e-02, -3.21522099e-01,  1.99794921e+00,
  -4.17603989e-01,  1.11352939e+00,  8.50629869e-01, -1.36451639e-03],
 [-9.56116224e-01, -6.90948524e-01,  4.18719141e-01, -1.25858078e+00,
  -1.95533121e+00,  1.39420372e-01, -1.56206107e+00, -2.11153843e+00,
   5.35898082e-02,  1.41244112e+00, -7.44878303e-01,  6.13618542e-01,
   7.61334570e-01, -1.86490842e-01,  2.30729344e-01,  6.97754018e-01]]
Ca the 2 
Position: (-14.79, 0.01)W: 
[[ 1.23672355e+00,  9.80603165e-02,  1.44408006e-02,  5.14577380e-01,
   1.06875650e+00,  1.41498143e+00, -3.98019534e-01, -1.05092957e+00,
   4.82878191e-01, -8.18203092e-01,  2.61206075e+00, -2.88217556e-01,
   1.64118281e+00, -1.69569744e+00, -7.22729923e-02,  6.75908861e-01],
 [ 5.39360604e-01, -4.39724524e-01,  4.51810942e-01,  1.47733933e+00,
   1.31253017e+00, -1.01099840e-01, -1.23313674e+00,  9.11052997e-01,
   1.54598838e-01, -1.55788562e+00, -1.16594617e+00,  1.16751034e+00,
   7.37521621e-01,  1.26990950e-01,  6.36980884e-01, -1.70170925e+00],
 [ 1.52905525e+00,  1.36782110e+00, -1.12572465e+00,  6.64826084e-01,
  -1.40623147e+00,  5.04913308e-01,  1.35269726e+00,  1.19174012e-01,
   4.06365833e-01,  7.01891857e-01,  4.21893237e-01,  1.64286296e+00,
  -8.23295304e-02, -5.68534532e-01,  1.23539155e+00,  5.61125037e-01],
 [ 3.13191787e-01,  6.63290655e-01, -7.62290751e-01, -3.36481041e+00,
  -2.77670034e-01,  4.89835372e-01, -1.20260697e+00, -1.76413921e+00,
   1.75679068e+00, -1.51875626e+00, -6.51980044e-01, -1.17184381e+00,
   7.77393734e-01,  1.75253998e-01,  1.86689678e+00, -1.05761670e+00],
 [-1.00719107e+00,  5.80867190e-01,  2.45303110e-01,  1.28473181e+00,
  -5.21649006e-01,  1.76924532e+00, -8.02161593e-01,  2.74457648e-01,
   9.17987245e-01,  2.33834168e+00,  6.44192145e-01, -1.76249950e+00,
   1.28545901e+00, -1.97097961e+00, -1.22721415e+00, -1.69769009e+00],
 [-1.31417066e-01,  2.39294136e+00,  1.07401989e+00, -6.88970016e-01,
  -1.07311571e+00, -2.00235459e-01,  1.68278635e-01,  7.95346195e-01,
  -3.63135473e-01,  2.10797997e-02,  7.02819214e-01, -8.06832649e-01,
   1.10673309e+00, -5.55467075e-01,  3.62403228e-01, -4.60865693e-01],
 [ 1.45387790e-01,  3.05531200e-01,  6.18337906e-01,  8.90389568e-01,
  -2.86465896e-01, -1.39997136e+00,  1.56890933e+00,  2.29476920e+00,
  -2.24096990e-01,  1.60878092e+00,  1.95698728e+00,  6.29624953e-01,
  -8.13809481e-01, -1.12811877e-01, -2.31922206e+00,  1.81254741e+00],
 [-7.02389984e-01, -4.23396662e-01,  1.51040635e+00,  8.16678408e-01,
  -1.29181447e+00,  1.16691753e+00,  5.00532022e-01,  2.10714415e-01,
  -9.67899741e-01, -3.87356718e-01, -1.13662275e-01,  7.41376722e-01,
   6.31515177e-01, -4.89646273e-01, -9.89901420e-01, -2.71228163e-01],
 [ 2.81172300e-01,  8.37841679e-01, -2.87399111e+00,  6.24825007e-01,
   4.26184511e-01,  2.57793268e+00, -7.19205477e-01,  8.99839966e-01,
   7.55678988e-01, -1.43138615e-01, -1.52703800e+00, -3.87906618e-01,
   2.02689997e+00, -1.12503643e+00, -1.02535538e-01,  1.27047571e+00],
 [ 3.58199426e-01, -2.31612590e-01, -1.37653452e-03,  8.74352089e-02,
  -8.56221433e-01, -9.42357405e-01, -7.25370179e-01, -1.76818019e+00,
   6.04885592e-01,  1.28136234e+00,  9.68029109e-03, -1.55834753e-01,
   8.72236882e-01, -6.17420477e-01, -3.55720098e-01, -9.17655166e-01],
 [ 8.83647586e-01, -3.52445628e-01,  1.11591203e+00, -6.97009993e-01,
   1.87294461e+00,  3.22236229e-01,  6.18154381e-01,  2.07014898e-01,
  -7.01592075e-01, -1.06720417e+00, -4.10683865e-02, -7.66387065e-01,
   5.07177899e-01,  2.06002755e+00, -8.99895261e-01,  1.06590553e+00],
 [ 9.21142881e-01,  1.34008306e+00,  7.50096099e-01,  2.44636182e-01,
   1.72594104e-01, -3.53013702e-01,  5.03147149e-01,  4.17106995e-01,
   1.25671948e+00, -1.02138495e+00,  1.06784864e+00, -5.57645431e-01,
   4.92341011e-01, -2.42024796e+00, -1.27259965e+00,  1.42599203e+00],
 [ 9.57169896e-01,  5.47184409e-02,  7.91419300e-01,  2.95864830e-01,
   7.77053768e-01, -2.34497139e-01,  1.14768765e-01,  4.11106523e-01,
   6.32218874e-01, -6.69870178e-01,  7.41869068e-01, -4.53619945e-01,
  -1.35549221e+00, -3.69942509e-01,  5.22482611e-01,  8.25444213e-01],
 [-8.40039610e-01,  1.14544951e+00,  1.42885685e+00, -1.46420809e-02,
   1.61404040e+00, -2.59981140e+00, -2.83628106e+00, -8.52616481e-01,
   8.96497632e-01, -1.76817916e+00, -1.87109678e-01, -1.06992165e+00,
  -4.59672974e-01, -2.55464120e-01,  1.45566534e+00,  1.51766539e+00],
 [ 4.52856913e-01,  1.12544479e+00, -2.76767712e-01, -1.22616702e-01,
   1.84976276e+00,  1.29775078e+00,  1.26314938e-01,  1.67917654e+00,
   4.03757807e-01,  9.65474354e-01,  1.43558622e+00, -7.99258059e-01,
   2.76748375e-01,  3.34042606e-02, -1.63969778e-02, -1.07836770e+00],
 [ 1.59154904e+00,  1.62173452e+00, -9.67626226e-01, -2.26532646e-01,
   2.99771108e-01,  7.90939654e-01, -4.52452724e-01,  2.33958948e+00,
   2.29030291e-01, -2.55299997e-01, -4.63998109e-01,  2.46786496e+00,
  -1.10807439e+00,  1.23412316e+00,  1.34543735e+00,  6.28573709e-01]]
W1: 
[[-1.31798332e+00,  5.08922381e-01, -1.02235939e+00, -3.18303910e-02,
  -1.17537377e+00,  1.15876819e+00, -5.39120071e-01,  1.00731549e+00,
  -1.21230760e-02,  7.73158382e-01,  3.72524400e-01, -1.22052737e+00,
  -1.58918136e+00, -5.57197330e-01,  1.58656974e-01, -1.02626319e+00],
 [ 2.34468862e-01,  4.74887560e-01, -1.80890831e+00, -1.88007314e-01,
   3.57763947e-01,  1.10589951e+00,  1.05254562e+00, -5.52295078e-01,
  -1.39365081e+00, -3.30082406e-01,  6.46741144e-01,  7.47482539e-01,
  -1.53706810e+00,  9.19416648e-01,  1.33809571e+00, -5.02200302e-02],
 [ 1.64169354e+00, -1.62336051e+00,  3.32579610e-01, -2.37692471e-01,
   5.91463630e-01,  1.16815679e-01,  5.53643599e-01, -7.00076215e-01,
  -1.12407977e+00,  1.09748597e+00,  1.59683381e-01, -9.03690235e-01,
   6.18401349e-01, -7.43711707e-01, -9.83174850e-01, -1.45064158e+00],
 [ 7.30927816e-01, -4.27456962e-01, -8.29036953e-01, -9.37136452e-02,
   8.18540993e-01, -6.86999338e-01,  3.10899310e-01,  4.53548566e-01,
   1.39340361e+00, -7.09166624e-01,  8.20196766e-01,  1.39925297e+00,
   1.73353085e-01,  2.00957533e-01, -2.15818110e-01, -2.66723710e-01],
 [-1.20857314e+00,  1.48809473e+00,  2.93527273e-01,  6.28813468e-02,
   3.54976145e-01, -2.10306689e-01, -1.20913993e+00, -1.34983305e+00,
  -5.48132635e-02, -6.44028360e-01,  1.78408629e+00,  4.45577768e-01,
  -4.24752973e-01, -1.17520044e+00,  7.97312128e-01,  3.49108786e-01],
 [ 1.02258728e+00,  8.67809026e-01, -2.50178978e-01,  7.49845683e-01,
  -1.20244916e-01,  6.27390771e-01,  2.08305317e-01,  7.86117255e-01,
   6.94354199e-01, -3.24895762e+00,  2.74080874e-03, -1.14778475e+00,
  -1.47785408e-01, -5.06139085e-01,  2.27252194e-03,  1.19601738e+00],
 [-4.60228827e-01,  3.39736542e-02, -8.97990241e-01,  3.52749658e-01,
  -2.26780914e+00,  1.14009555e+00, -2.16968894e-02,  1.51116039e+00,
  -3.96415072e-02,  5.07878687e-01, -2.24409702e+00,  1.00049454e-01,
   2.17436684e-02, -1.37499843e+00, -1.25629098e+00, -2.60572936e+00],
 [-8.48230005e-02, -3.69069531e-01,  1.18620814e+00, -4.52733346e-02,
  -6.03952588e-01,  1.65094845e+00, -2.47300508e+00,  4.32723722e-01,
  -2.43445581e-01,  4.72629288e-01,  1.89672877e-01,  6.73157826e-01,
   4.45151300e-01, -4.99136986e-01, -1.08294074e+00,  2.33000023e-01],
 [ 2.86168415e+00, -5.34352217e-01, -9.24872519e-02, -4.57631930e-01,
   1.73555111e+00,  5.29134843e-01,  4.85452265e-01, -3.17301871e-01,
   1.74537793e+00, -1.94672686e-02, -5.36197721e-01,  5.44717394e-01,
   3.23971320e-01,  3.27073469e-01, -6.82014493e-01, -1.32987662e+00],
 [-1.51712709e-01, -1.88482511e+00, -1.69450713e+00, -1.17532220e-01,
   2.18940939e+00,  1.50849414e+00, -1.75760886e-01, -8.31243693e-01,
  -6.03297039e-01, -4.83271248e-01, -1.10252932e-01,  9.18653149e-01,
  -1.41803970e+00, -8.90440788e-01,  1.03443586e+00,  4.08181511e-01],
 [-8.74447373e-01, -6.09079249e-01, -3.41129110e-01,  1.59914014e+00,
  -6.35822699e-01, -1.72168812e+00,  2.99209716e-01, -4.16644500e-01,
  -1.41418947e+00,  8.38961078e-01, -2.79459168e-01, -1.06164064e+00,
  -4.80365860e-01,  5.17374644e-02, -6.81527285e-01, -8.87906365e-03],
 [-9.36708362e-02,  1.19288222e-01, -1.34135810e+00,  6.35114787e-01,
  -3.21131234e-01,  3.06851082e-01,  2.78735590e-01, -9.68803600e-01,
  -3.41635460e-01, -5.19605521e-01, -2.22096859e-02,  6.99835177e-01,
   9.31847126e-04, -5.52799757e-01, -7.87123882e-01, -4.92144677e-01],
 [-3.16401103e-01,  2.53379549e+00,  5.94384332e-01,  9.56643371e-01,
  -8.43725969e-01,  7.47994032e-01, -1.85469138e+00,  1.61904013e-01,
   5.75568145e-02, -3.64246174e-01,  1.43538167e+00,  1.13517177e-02,
  -4.10373568e-01,  3.81935139e-01,  6.64286740e-01, -1.54603813e-01],
 [ 2.19437310e+00, -6.73880964e-01,  1.31826104e+00,  9.68299172e-01,
  -7.65347841e-01,  5.92021875e-01,  7.75487894e-01, -8.81643859e-01,
  -2.35205755e-01,  2.92209265e-01,  1.01728778e+00, -5.22029598e-02,
  -9.46683292e-01,  8.50946040e-03,  1.79475485e+00,  1.66576510e+00],
 [-6.73692145e-01,  2.39097607e-02, -8.51334153e-01,  1.79030105e+00,
  -8.28148300e-01,  3.64067680e-01,  5.72733825e-01,  8.23868182e-01,
   4.90595043e-01, -1.60479162e+00,  2.44783226e+00,  1.01482545e+00,
  -1.27712840e+00, -1.30257135e+00, -9.97598249e-01, -1.21183050e+00],
 [-7.83155794e-01,  2.68049325e-01,  7.62876600e-01, -1.84555884e-01,
   3.02564047e-01,  2.05063757e+00,  2.32729856e+00,  9.84289682e-01,
  -6.23967334e-01,  9.17288806e-01, -8.05809732e-01,  8.42604154e-01,
   1.16557775e+00,  9.44236689e-01,  1.22214229e-01, -4.60588960e-01]]
V: 
[[ 8.03766649e-01, -3.48906736e-01, -8.75839501e-01, -1.18216883e+00,
   2.57174275e-01,  1.10786674e+00, -5.97794161e-01, -1.02306088e+00,
  -2.78594899e-01,  5.83838503e-02, -3.21522099e-01,  1.99794921e+00,
  -4.17603989e-01,  1.11352939e+00,  8.50629869e-01, -1.36451639e-03],
 [-9.56116224e-01, -6.90948524e-01,  4.18719141e-01, -1.25858078e+00,
  -1.95533121e+00,  1.39420372e-01, -1.56206107e+00, -2.11153843e+00,
   5.35898082e-02,  1.41244112e+00, -7.44878303e-01,  6.13618542e-01,
   7.61334570e-01, -1.86490842e-01,  2.30729344e-01,  6.97754018e-01]]
Ca the 3 
Position: (-23.58, -4.52)W: 
[[ 8.47699218e-01,  3.98254657e-01, -3.53896695e-01, -2.87910299e-01,
   6.29319245e-01, -1.70339144e-01, -9.01347201e-01, -9.80354688e-01,
  -1.20429680e-01, -3.58679883e-01, -3.59673814e-01,  2.71800903e-01,
   2.01724111e-01, -2.99737667e-01,  1.44438043e+00,  1.28999794e+00],
 [ 3.17700213e-01,  1.88507651e+00, -4.42880417e-01, -5.48188239e-01,
  -5.42420840e-01, -6.93490566e-01, -2.31742457e+00, -1.20592882e+00,
  -1.02242592e+00,  3.27814983e-01,  2.15077145e+00,  1.95144669e-01,
   1.16268621e+00, -1.65074401e+00,  7.12669272e-01,  3.15520718e-01],
 [-6.62644506e-01, -1.31549957e+00,  9.73668829e-01,  1.20326612e+00,
  -2.23167553e+00,  1.95224889e-01, -8.59982277e-01,  1.99937149e-01,
   2.67632111e-01, -1.43683985e+00,  9.60390333e-02, -1.54101292e+00,
  -3.11952131e-01,  7.91795420e-01,  5.41229777e-01,  4.64330123e-01],
 [-9.45597910e-01, -1.23897680e+00, -1.23687166e+00, -2.00794324e-01,
  -3.99806727e-02,  3.70595476e-01,  2.92709566e-01, -1.89812849e+00,
   9.65308611e-01, -1.50629803e+00, -6.63328042e-01, -1.83252001e+00,
  -9.57785724e-01,  1.34343808e+00, -6.53544136e-01, -3.62847706e-01],
 [-1.64492756e-01,  3.29871023e-01,  1.27356278e-01,  2.68259799e-02,
  -1.29418258e-03, -5.65099002e-01, -2.38661053e-01,  7.87183863e-02,
  -1.13696104e+00,  3.62122346e-01,  1.09500747e-01,  1.58192957e-01,
  -7.19467930e-02, -7.47033950e-01, -6.52712550e-01,  1.98474455e-01],
 [-4.23862506e-01, -1.72765938e+00, -1.22174924e+00,  7.20913516e-01,
  -1.74382765e-01,  1.37597055e+00, -3.90603742e-02,  2.48194115e-01,
  -7.76357492e-01, -6.11463283e-01,  1.33634884e+00, -1.42567711e+00,
   2.01561682e-01, -1.53075784e+00,  4.37113349e-01,  2.65609498e-01],
 [ 4.58968679e-01, -3.11004857e-01, -1.17371073e+00,  2.43446978e-02,
  -4.56687777e-01,  1.57299294e+00,  6.94059100e-02, -3.55433571e-01,
  -3.70079622e-01,  1.06054070e+00, -2.59472098e-01, -1.30231803e-01,
   1.64728690e-01, -1.08843719e+00, -5.24827238e-01, -6.78083617e-01],
 [-4.51886316e-01,  1.78181507e+00,  1.89771528e+00,  1.69666210e+00,
   5.73699478e-01, -1.06737901e+00,  1.76554125e+00,  1.26483036e+00,
  -1.17176833e-01, -1.11970308e+00, -1.50828193e-01,  9.94378783e-01,
   1.08307588e+00,  1.00295581e+00, -1.82590011e-01,  1.22927906e+00],
 [ 8.94557453e-01,  8.08575989e-01,  4.68056367e-01,  6.08147191e-01,
   1.24471930e+00, -8.21091286e-01, -1.88223621e-01, -1.15797130e+00,
  -1.57224770e+00, -3.36354742e-01, -1.86996927e-01,  5.85774178e-01,
  -1.48667901e+00, -1.17371669e+00,  1.17585640e+00, -7.29192779e-01],
 [-2.00000000e+00, -9.34818414e-01,  7.41349785e-01,  6.09189332e-01,
  -1.94199067e+00, -4.73837877e-01, -4.62203189e-01,  4.49679217e-01,
   1.04942287e+00, -3.14942448e+00,  5.02636129e-01,  1.08505527e-01,
   1.63498611e+00,  5.73529803e-01,  9.81743741e-02,  5.23337865e-02],
 [ 1.81416128e+00, -3.15161626e-01, -1.82182261e-01, -1.98158530e+00,
   8.37385897e-01, -2.85379558e-01,  1.14854639e+00,  6.69585024e-02,
  -9.73907216e-01,  5.05161727e-01, -1.69925105e-01,  1.48858956e-01,
   9.93269568e-02, -7.27737736e-01,  4.40983556e-01, -7.76100360e-01],
 [ 1.11634892e+00,  5.14105096e-01,  1.18867037e+00, -2.12103163e-01,
  -3.35827444e-01, -7.35634824e-02,  1.28233715e+00, -8.49626295e-01,
   8.46888819e-01,  1.41609210e+00,  5.50735599e-01, -6.73086105e-01,
   1.12624367e+00,  9.75676867e-01,  1.76105794e+00,  4.96678149e-01],
 [ 1.28011243e+00, -2.33976405e-01,  1.78837771e-01, -6.67791122e-01,
   6.31352317e-01, -8.51480170e-01,  7.26238057e-03,  6.91794423e-01,
  -1.06562943e+00, -5.16920990e-01,  2.13228028e-01, -2.47847257e+00,
   8.67458196e-01,  3.83030901e-01,  7.38685416e-01, -5.93125934e-02],
 [-7.67920623e-01,  9.14372511e-01,  1.45959399e-01,  4.26586647e-01,
  -1.91215236e+00, -1.40714067e+00, -1.64209427e+00,  6.39526057e-01,
   9.58980920e-01, -5.02053762e-01, -4.25813332e-01,  1.22616149e+00,
  -1.27467595e+00,  3.03783132e-01,  4.82188145e-01, -7.35661862e-01],
 [-1.87167596e+00, -2.30957654e-01,  1.19642383e+00,  2.17132793e-03,
  -1.10096794e+00, -1.03474086e+00,  1.57287635e+00, -8.57064435e-01,
  -2.38908025e+00, -7.40196546e-01, -8.28321662e-01,  2.58624205e-01,
  -3.23712663e+00, -7.18403706e-01,  8.13141045e-01, -4.36951839e-01],
 [-5.28609694e-01, -2.33722531e-01, -3.46798674e-02, -7.91744978e-01,
  -3.46237781e-01, -9.15884346e-01, -1.07449969e+00,  3.09759767e-01,
  -6.38963596e-01, -3.18055780e-01,  1.15499814e+00,  5.17652878e-01,
   1.27712753e+00, -4.37551634e-01,  8.00842403e-02,  3.37711359e-01]]
W1: 
[[-1.31798332e+00,  5.08922381e-01, -1.02235939e+00, -3.18303910e-02,
  -1.17537377e+00,  1.15876819e+00, -5.39120071e-01,  1.00731549e+00,
  -1.21230760e-02,  7.73158382e-01,  3.72524400e-01, -1.22052737e+00,
  -1.58918136e+00, -5.57197330e-01,  1.58656974e-01, -1.02626319e+00],
 [ 2.34468862e-01,  4.74887560e-01, -1.80890831e+00, -1.88007314e-01,
   3.57763947e-01,  1.10589951e+00,  1.05254562e+00, -5.52295078e-01,
  -1.39365081e+00, -3.30082406e-01,  6.46741144e-01,  7.47482539e-01,
  -1.53706810e+00,  9.19416648e-01,  1.33809571e+00, -5.02200302e-02],
 [ 1.64169354e+00, -1.62336051e+00,  3.32579610e-01, -2.37692471e-01,
   5.91463630e-01,  1.16815679e-01,  5.53643599e-01, -7.00076215e-01,
  -1.12407977e+00,  1.09748597e+00,  1.59683381e-01, -9.03690235e-01,
   6.18401349e-01, -7.43711707e-01, -9.83174850e-01, -1.45064158e+00],
 [ 7.30927816e-01, -4.27456962e-01, -8.29036953e-01, -9.37136452e-02,
   8.18540993e-01, -6.86999338e-01,  3.10899310e-01,  4.53548566e-01,
   1.39340361e+00, -7.09166624e-01,  8.20196766e-01,  1.39925297e+00,
   1.73353085e-01,  2.00957533e-01, -2.15818110e-01, -2.66723710e-01],
 [-1.20857314e+00,  1.48809473e+00,  2.93527273e-01,  6.28813468e-02,
   3.54976145e-01, -2.10306689e-01, -1.20913993e+00, -1.34983305e+00,
  -5.48132635e-02, -6.44028360e-01,  1.78408629e+00,  4.45577768e-01,
  -4.24752973e-01, -1.17520044e+00,  7.97312128e-01,  3.49108786e-01],
 [ 1.02258728e+00,  8.67809026e-01, -2.50178978e-01,  7.49845683e-01,
  -1.20244916e-01,  6.27390771e-01,  2.08305317e-01,  7.86117255e-01,
   6.94354199e-01, -3.24895762e+00,  2.74080874e-03, -1.14778475e+00,
  -1.47785408e-01, -5.06139085e-01,  2.27252194e-03,  1.19601738e+00],
 [-4.60228827e-01,  3.39736542e-02, -8.97990241e-01,  3.52749658e-01,
  -2.26780914e+00,  1.14009555e+00, -2.16968894e-02,  1.51116039e+00,
  -3.96415072e-02,  5.07878687e-01, -2.24409702e+00,  1.00049454e-01,
   2.17436684e-02, -1.37499843e+00, -1.25629098e+00, -2.60572936e+00],
 [-8.48230005e-02, -3.69069531e-01,  1.18620814e+00, -4.52733346e-02,
  -6.03952588e-01,  1.65094845e+00, -2.47300508e+00,  4.32723722e-01,
  -2.43445581e-01,  4.72629288e-01,  1.89672877e-01,  6.73157826e-01,
   4.45151300e-01, -4.99136986e-01, -1.08294074e+00,  2.33000023e-01],
 [ 2.86168415e+00, -5.34352217e-01, -9.24872519e-02, -4.57631930e-01,
   1.73555111e+00,  5.29134843e-01,  4.85452265e-01, -3.17301871e-01,
   1.74537793e+00, -1.94672686e-02, -5.36197721e-01,  5.44717394e-01,
   3.23971320e-01,  3.27073469e-01, -6.82014493e-01, -1.32987662e+00],
 [-1.51712709e-01, -1.88482511e+00, -1.69450713e+00, -1.17532220e-01,
   2.18940939e+00,  1.50849414e+00, -1.75760886e-01, -8.31243693e-01,
  -6.03297039e-01, -4.83271248e-01, -1.10252932e-01,  9.18653149e-01,
  -1.41803970e+00, -8.90440788e-01,  1.03443586e+00,  4.08181511e-01],
 [-8.74447373e-01, -6.09079249e-01, -3.41129110e-01,  1.59914014e+00,
  -6.35822699e-01, -1.72168812e+00,  2.99209716e-01, -4.16644500e-01,
  -1.41418947e+00,  8.38961078e-01, -2.79459168e-01, -1.06164064e+00,
  -4.80365860e-01,  5.17374644e-02, -6.81527285e-01, -8.87906365e-03],
 [-9.36708362e-02,  1.19288222e-01, -1.34135810e+00,  6.35114787e-01,
  -3.21131234e-01,  3.06851082e-01,  2.78735590e-01, -9.68803600e-01,
  -3.41635460e-01, -5.19605521e-01, -2.22096859e-02,  6.99835177e-01,
   9.31847126e-04, -5.52799757e-01, -7.87123882e-01, -4.92144677e-01],
 [-3.16401103e-01,  2.53379549e+00,  5.94384332e-01,  9.56643371e-01,
  -8.43725969e-01,  7.47994032e-01, -1.85469138e+00,  1.61904013e-01,
   5.75568145e-02, -3.64246174e-01,  1.43538167e+00,  1.13517177e-02,
  -4.10373568e-01,  3.81935139e-01,  6.64286740e-01, -1.54603813e-01],
 [ 2.19437310e+00, -6.73880964e-01,  1.31826104e+00,  9.68299172e-01,
  -7.65347841e-01,  5.92021875e-01,  7.75487894e-01, -8.81643859e-01,
  -2.35205755e-01,  2.92209265e-01,  1.01728778e+00, -5.22029598e-02,
  -9.46683292e-01,  8.50946040e-03,  1.79475485e+00,  1.66576510e+00],
 [-6.73692145e-01,  2.39097607e-02, -8.51334153e-01,  1.79030105e+00,
  -8.28148300e-01,  3.64067680e-01,  5.72733825e-01,  8.23868182e-01,
   4.90595043e-01, -1.60479162e+00,  2.44783226e+00,  1.01482545e+00,
  -1.27712840e+00, -1.30257135e+00, -9.97598249e-01, -1.21183050e+00],
 [-7.83155794e-01,  2.68049325e-01,  7.62876600e-01, -1.84555884e-01,
   3.02564047e-01,  2.05063757e+00,  2.32729856e+00,  9.84289682e-01,
  -6.23967334e-01,  9.17288806e-01, -8.05809732e-01,  8.42604154e-01,
   1.16557775e+00,  9.44236689e-01,  1.22214229e-01, -4.60588960e-01]]
V: 
[[ 8.03766649e-01, -3.48906736e-01, -8.75839501e-01, -1.18216883e+00,
   2.57174275e-01,  1.10786674e+00, -5.97794161e-01, -1.02306088e+00,
  -2.78594899e-01,  5.83838503e-02, -3.21522099e-01,  1.99794921e+00,
  -4.17603989e-01,  1.11352939e+00,  8.50629869e-01, -1.36451639e-03],
 [-9.56116224e-01, -6.90948524e-01,  4.18719141e-01, -1.25858078e+00,
  -1.95533121e+00,  1.39420372e-01, -1.56206107e+00, -2.11153843e+00,
   5.35898082e-02,  1.41244112e+00, -7.44878303e-01,  6.13618542e-01,
   7.61334570e-01, -1.86490842e-01,  2.30729344e-01,  6.97754018e-01]]
Ca the 4 
Position: (-14.88, -0.72)W: 
[[ 1.23672355e+00,  9.80603165e-02,  1.44408006e-02,  5.14577380e-01,
   1.06875650e+00,  1.41498143e+00, -9.01347201e-01, -9.80354688e-01,
  -1.20429680e-01, -3.58679883e-01, -3.59673814e-01, -2.88217556e-01,
   1.64118281e+00, -1.69569744e+00, -7.22729923e-02,  6.75908861e-01],
 [ 5.39360604e-01, -4.39724524e-01,  4.51810942e-01,  1.47733933e+00,
   1.31253017e+00, -1.01099840e-01, -2.31742457e+00, -1.20592882e+00,
  -1.02242592e+00,  3.27814983e-01,  2.15077145e+00,  1.16751034e+00,
   7.37521621e-01,  1.26990950e-01,  6.36980884e-01, -1.70170925e+00],
 [ 1.52905525e+00,  1.36782110e+00, -1.12572465e+00,  6.64826084e-01,
  -1.40623147e+00,  5.04913308e-01, -8.59982277e-01,  1.99937149e-01,
   2.67632111e-01, -1.43683985e+00,  9.60390333e-02,  1.64286296e+00,
  -8.23295304e-02, -5.68534532e-01,  1.23539155e+00,  5.61125037e-01],
 [ 3.13191787e-01,  6.63290655e-01, -7.62290751e-01, -3.36481041e+00,
  -2.77670034e-01,  4.89835372e-01,  2.92709566e-01, -1.89812849e+00,
   9.65308611e-01, -1.50629803e+00, -6.63328042e-01, -1.17184381e+00,
   7.77393734e-01,  1.75253998e-01,  1.86689678e+00, -1.05761670e+00],
 [-1.00719107e+00,  5.80867190e-01,  2.45303110e-01,  1.28473181e+00,
  -5.21649006e-01,  1.76924532e+00, -2.38661053e-01,  7.87183863e-02,
  -1.13696104e+00,  3.62122346e-01,  1.09500747e-01, -1.76249950e+00,
   1.28545901e+00, -1.97097961e+00, -1.22721415e+00, -1.69769009e+00],
 [-1.31417066e-01,  2.39294136e+00,  1.07401989e+00, -6.88970016e-01,
  -1.07311571e+00, -2.00235459e-01, -3.90603742e-02,  2.48194115e-01,
  -7.76357492e-01, -6.11463283e-01,  1.33634884e+00, -8.06832649e-01,
   1.10673309e+00, -5.55467075e-01,  3.62403228e-01, -4.60865693e-01],
 [ 1.45387790e-01,  3.05531200e-01,  6.18337906e-01,  8.90389568e-01,
  -2.86465896e-01, -1.39997136e+00,  6.94059100e-02, -3.55433571e-01,
  -3.70079622e-01,  1.06054070e+00, -2.59472098e-01,  6.29624953e-01,
  -8.13809481e-01, -1.12811877e-01, -2.31922206e+00,  1.81254741e+00],
 [-7.02389984e-01, -4.23396662e-01,  1.51040635e+00,  8.16678408e-01,
  -1.29181447e+00,  1.16691753e+00,  1.76554125e+00,  1.26483036e+00,
  -1.17176833e-01, -1.11970308e+00, -1.50828193e-01,  7.41376722e-01,
   6.31515177e-01, -4.89646273e-01, -9.89901420e-01, -2.71228163e-01],
 [ 2.81172300e-01,  8.37841679e-01, -2.87399111e+00,  6.24825007e-01,
   4.26184511e-01,  2.57793268e+00, -1.88223621e-01, -1.15797130e+00,
  -1.57224770e+00, -3.36354742e-01, -1.86996927e-01, -3.87906618e-01,
   2.02689997e+00, -1.12503643e+00, -1.02535538e-01,  1.27047571e+00],
 [ 3.58199426e-01, -2.31612590e-01, -1.37653452e-03,  8.74352089e-02,
  -8.56221433e-01, -9.42357405e-01, -4.62203189e-01,  4.49679217e-01,
   1.04942287e+00, -3.14942448e+00,  5.02636129e-01, -1.55834753e-01,
   8.72236882e-01, -6.17420477e-01, -3.55720098e-01, -9.17655166e-01],
 [ 8.83647586e-01, -3.52445628e-01,  1.11591203e+00, -6.97009993e-01,
   1.87294461e+00,  3.22236229e-01,  1.14854639e+00,  6.69585024e-02,
  -9.73907216e-01,  5.05161727e-01, -1.69925105e-01, -7.66387065e-01,
   5.07177899e-01,  2.06002755e+00, -8.99895261e-01,  1.06590553e+00],
 [ 9.21142881e-01,  1.34008306e+00,  7.50096099e-01,  2.44636182e-01,
   1.72594104e-01, -3.53013702e-01,  1.28233715e+00, -8.49626295e-01,
   8.46888819e-01,  1.41609210e+00,  5.50735599e-01, -5.57645431e-01,
   4.92341011e-01, -2.42024796e+00, -1.27259965e+00,  1.42599203e+00],
 [ 9.57169896e-01,  5.47184409e-02,  7.91419300e-01,  2.95864830e-01,
   7.77053768e-01, -2.34497139e-01,  7.26238057e-03,  6.91794423e-01,
  -1.06562943e+00, -5.16920990e-01,  2.13228028e-01, -4.53619945e-01,
  -1.35549221e+00, -3.69942509e-01,  5.22482611e-01,  8.25444213e-01],
 [-8.40039610e-01,  1.14544951e+00,  1.42885685e+00, -1.46420809e-02,
   1.61404040e+00, -2.59981140e+00, -1.64209427e+00,  6.39526057e-01,
   9.58980920e-01, -5.02053762e-01, -4.25813332e-01, -1.06992165e+00,
  -4.59672974e-01, -2.55464120e-01,  1.45566534e+00,  1.51766539e+00],
 [ 4.52856913e-01,  1.12544479e+00, -2.76767712e-01, -1.22616702e-01,
   1.84976276e+00,  1.29775078e+00,  1.57287635e+00, -8.57064435e-01,
  -2.38908025e+00, -7.40196546e-01, -8.28321662e-01, -7.99258059e-01,
   2.76748375e-01,  3.34042606e-02, -1.63969778e-02, -1.07836770e+00],
 [ 1.59154904e+00,  1.62173452e+00, -9.67626226e-01, -2.26532646e-01,
   2.99771108e-01,  7.90939654e-01, -1.07449969e+00,  3.09759767e-01,
  -6.38963596e-01, -3.18055780e-01,  1.15499814e+00,  2.46786496e+00,
  -1.10807439e+00,  1.23412316e+00,  1.34543735e+00,  6.28573709e-01]]
W1: 
[[-1.31798332,  0.50892238, -1.02235939, -0.03183039, -1.17537377,
   1.15259953,  1.44228234,  0.70372408,  1.16216214, -1.52841143,
  -0.44796727,  0.21730998,  1.11527928,  0.0796184 ,  0.44672992,
  -0.63680063],
 [ 0.23446886,  0.47488756, -1.80890831, -0.18800731,  0.35776395,
   0.5118582 ,  0.38445242, -0.33354474, -0.62961433,  0.5794638 ,
   1.25924682,  2.95431389,  1.32132563,  1.17337606, -0.45336204,
   1.51432157],
 [ 1.64169354, -1.62336051,  0.33257961, -0.23769247,  0.59146363,
   0.53072014, -0.64539179,  0.20183937, -0.37036494,  0.95350726,
   0.00372234, -0.439987  , -0.55502934, -0.14804058,  1.87812453,
  -1.42510686],
 [ 0.73092782, -0.42745696, -0.82903695, -0.09371365,  0.81854099,
  -0.38997482,  0.83524664, -1.46258868, -0.28024742, -0.6172855 ,
   0.34225736, -0.58279056,  0.53183391,  0.38068512,  0.26978343,
   0.24045111],
 [-1.20857314,  1.48809473,  0.29352727,  0.06288135,  0.35497615,
  -0.93966739, -0.4323991 , -1.08249033,  0.6266235 ,  1.26173894,
  -1.12487045, -0.38957601, -1.65006677, -0.9707847 , -0.14080241,
  -1.09857214],
 [ 1.02258728,  0.86780903, -0.25017898,  0.74984568, -0.12024492,
  -0.11862373,  2.02918554,  1.6952263 , -0.15444942, -1.20551976,
   1.75659924,  1.17259311,  3.07310884, -1.01740501, -0.5566221 ,
   0.0486656 ],
 [-0.46022883,  0.03397365, -0.89799024,  0.35274966, -2.26780914,
  -0.6675005 , -0.59903371,  0.62814918,  0.1920635 ,  0.23410985,
   0.69869046, -0.50058153,  1.07681029, -1.20267534, -0.68380851,
   0.92169757],
 [-0.084823  , -0.36906953,  1.18620814, -0.04527333, -0.60395259,
   0.13954175, -0.83652709, -0.33198601,  1.34929907, -1.07289653,
   1.50426897,  0.08130246,  0.07497933,  1.79878498, -0.86092208,
   0.20529856],
 [ 2.86168415, -0.53435222, -0.09248725, -0.45763193,  1.73555111,
  -0.88119499, -0.93721699,  0.14033304,  0.21163629, -0.17102218,
   0.02918819,  2.597724  , -0.91951335,  0.89597681, -2.16533058,
  -1.00115393],
 [-0.15171271, -1.88482511, -1.69450713, -0.11753222,  2.18940939,
   1.80976535, -1.01323046,  0.24810181, -1.88736893, -1.22141709,
   0.29515155,  0.03520339, -1.04315213, -0.72889883,  0.58671975,
  -0.00844477],
 [-0.87444737, -0.60907925, -0.34112911,  1.59914014, -0.6358227 ,
   0.09822521, -0.98386259,  0.71716784,  0.92974343,  0.55617191,
  -0.85105765,  1.17818771, -0.11178033,  0.12689325, -0.87145444,
  -1.60548082],
 [-0.09367084,  0.11928822, -1.3413581 ,  0.63511479, -0.32113123,
  -1.71779523,  0.60061371,  1.01403222, -1.31024544, -1.47208805,
   0.62024272,  0.16599903,  0.57982356,  1.45194238, -0.86396124,
   0.62349363],
 [-0.3164011 ,  2.53379549,  0.59438433,  0.95664337, -0.84372597,
   0.72997674, -0.88454592,  0.56579445,  1.36522414, -0.34145041,
  -0.23698141, -0.32458828,  0.02991541, -0.14531149, -0.33718873,
   1.30009573],
 [ 2.1943731 , -0.67388096,  1.31826104,  0.96829917, -0.76534784,
   0.32154112,  0.83498105, -0.0721076 ,  0.76259765,  0.0712349 ,
   1.02685909,  0.9303467 , -0.39836285, -1.01733613, -0.65506596,
   1.67691913],
 [-0.67369215,  0.02390976, -0.85133415,  1.79030105, -0.8281483 ,
   0.40656772,  0.79324561, -0.71025294,  0.20603889, -0.96166417,
   1.00740825, -0.69134019,  2.34029649,  0.52021655, -0.77401938,
  -0.2469616 ],
 [-0.78315579,  0.26804932,  0.7628766 , -0.18455588,  0.30256405,
   0.67818012, -0.6277766 ,  0.98450636, -3.22552122,  0.89372839,
  -0.25716508, -0.66130885,  1.46249647, -0.82648363, -0.27869273,
  -0.47212187]]
V: 
[[ 8.03766649e-01, -3.48906736e-01, -8.75839501e-01, -1.18216883e+00,
   2.57174275e-01,  1.10786674e+00, -5.97794161e-01, -1.02306088e+00,
  -2.78594899e-01,  5.83838503e-02, -3.21522099e-01,  1.99794921e+00,
  -4.17603989e-01,  1.11352939e+00,  8.50629869e-01, -1.36451639e-03],
 [-9.56116224e-01, -6.90948524e-01,  4.18719141e-01, -1.25858078e+00,
  -1.95533121e+00,  1.39420372e-01, -1.56206107e+00, -2.11153843e+00,
   5.35898082e-02,  1.41244112e+00, -7.44878303e-01,  6.13618542e-01,
   7.61334570e-01, -1.86490842e-01,  2.30729344e-01,  6.97754018e-01]]
Ca the 5 
Position: (-10.44, -0.45)W: 
[[ 8.47699218e-01,  3.98254657e-01, -3.53896695e-01, -2.87910299e-01,
